132 64
， 0.28166935 -0.81233233 0.04192094 0.20095673 -0.10531319 0.17022635 0.1880109 0.14671595 -0.7556524 -0.16977608 -0.09661592 -0.05045749 0.24991353 0.32742003 -0.4519108 -0.036984775 -0.024530852 0.20026408 0.017984856 -0.04119725 0.47847992 0.09620674 0.3780424 0.04219916 0.05499281 -0.39063817 0.21397483 -0.2574591 -0.22666958 0.0909762 -0.257319 -0.35171464 0.10554198 0.39743215 -0.39574242 -0.5133208 0.07839624 0.3487505 -0.21502773 -0.6789195 -0.41173443 0.3976174 -0.62204045 -0.26099843 -0.24528192 -0.35499275 -0.17440131 -0.0030729915 0.1802038 0.64532346 -0.09853242 0.17697774 0.031127084 -0.043808144 0.38683045 -0.39373603 -0.08689907 -0.21998301 -0.30116397 0.24630769 -0.10819919 0.25275227 -0.5122861 -0.3542073
吃 0.26337397 -0.36837107 0.21293521 -0.020093832 0.51494724 -0.044570323 0.58999586 0.70481414 -0.8968505 -0.77066576 -0.4646353 -0.44772154 0.08189462 0.60757595 -0.32575127 -0.271309 -0.26058477 0.24807875 0.35381988 0.61309874 -0.5998987 0.50023884 -0.25074464 -0.60735273 0.35829926 0.30006513 -0.111947514 -0.13883476 -0.26257998 -0.4455606 0.42390487 0.042478576 -0.5061548 -0.41863224 0.27713674 0.6873342 -0.51194227 0.3732749 -0.060433187 0.5208887 0.0018822075 -0.35140613 -0.5633791 0.19204506 0.0905999 -0.24682823 0.52155876 -0.79263765 0.019697528 0.81526244 0.15397418 0.30382803 0.5933983 0.28626865 -0.39379445 0.1562976 -0.39818344 -0.62331474 0.34256402 -0.16212924 -0.111473486 0.28200492 -0.040183563 0.6414283
的 -0.7175848 0.53650117 0.6228853 0.53630894 0.0039560455 -0.2174231 -0.04158638 0.0011595775 0.39813846 -0.15717275 0.40365693 0.2865654 0.26515877 -0.4701791 -0.3293505 0.30116317 -0.25519472 0.5643099 0.9768257 0.11021658 -0.08005585 0.25917915 0.6173553 -0.7080467 0.4203252 -0.24751177 -0.009544116 0.15979393 0.49561262 -0.007014 0.10279817 0.15417683 -0.8211279 -0.222013 0.23511727 0.024674466 0.16717161 0.023062991 0.46007046 -0.36131385 -0.26936314 -0.10150301 -0.23117582 -0.44865406 0.1122659 0.20651425 -0.15232816 0.056574695 -0.7038898 0.10456037 -0.059531104 -0.29030532 -0.20811954 0.28771192 0.6791854 -0.410783 -0.41259596 -0.13434361 -0.4734128 0.054614246 -0.064234585 -0.5647189 -0.37215397 -0.8642181
又 -0.1356582 -0.12537242 0.2933868 0.04671478 0.41471088 -0.042112205 -0.36807042 0.21037556 -0.61503714 0.19334349 -0.17408627 -0.03960891 0.4448565 0.5584506 -0.30193335 -0.04916129 -0.15232144 0.56473833 -0.23152912 0.06777915 0.31663114 0.088928655 0.0062576807 -0.06926333 -0.01172295 0.46265575 -0.18473542 -0.16237491 -0.21888825 0.09756326 0.0058293273 -0.2692613 0.22822683 0.10400922 0.019148763 0.007946563 -0.34658536 0.2246662 -0.0060341842 -0.28258693 -0.13026473 0.17227694 -0.42118528 -0.4037225 -0.07875227 -0.27339086 0.11149619 -0.20517322 0.01699857 0.38379735 -0.02641651 -0.11713806 -0.046841133 0.20085542 0.53271407 -0.27862936 0.25857767 -0.5727671 -0.10337933 0.34519598 -0.18246101 0.2015548 -0.28282985 -0.661429
好 0.16993578 -0.12739661 -0.31218424 -0.041932806 0.39929315 0.247658 0.72621685 0.41935265 -0.8855238 0.29886058 0.48355845 -0.24236698 -0.2597141 -0.003541812 -0.4089964 0.31935596 0.1474621 0.44239965 0.101102605 0.6946644 0.5804407 1.3462662 -0.012109272 -0.40330595 0.1773223 -0.32235596 -0.0059341346 0.034724556 0.26975814 0.23768821 -0.13033329 -0.2868263 -0.194228 -0.4080341 -0.4956022 0.115359396 0.16002142 -0.077969745 0.6088997 0.2359958 0.4579941 0.16688626 -0.005533846 -0.37599856 -0.5986861 0.5060324 0.13523002 -0.33977696 0.8224146 -0.028099889 -0.1063137 0.23786986 -0.13026819 -0.09988212 0.33910832 -0.58185655 0.1741237 -0.6768428 0.47332925 -0.1013269 0.34486616 -0.26941815 -0.47194463 0.2145281
什么 1.1865171 -0.36200535 1.3415911 0.29632568 -0.47328636 0.23171844 0.27326417 -0.88267297 -0.2568648 -0.5305166 0.2890385 -0.121578656 0.14223416 -0.271059 0.19758715 0.9404783 0.80747753 0.08233097 -0.1527941 1.2014949 0.6813076 0.7907359 1.1780117 0.10542879 0.82792825 0.3622766 0.023559146 -0.880793 -0.47818923 -0.36038288 -0.16689293 0.70810634 -1.5878967 -1.2267499 -0.9451522 0.14420907 -0.22716337 0.6319505 1.2841643 0.60220015 0.1686956 0.9747782 0.497569 -1.1567857 0.4280418 -0.54604834 -0.52311087 0.069355905 0.37125054 -0.7718735 0.3469269 -0.08106814 -0.2901851 0.8434257 -0.6056936 -0.3024331 -0.7219685 0.4656779 -0.47934765 -0.17371769 0.62134767 -0.03951304 1.0578445 0.20957272
我 0.01573715 -0.23837939 0.2950372 0.6611355 0.29036278 -0.29081923 -0.4363502 0.02574964 -0.3501448 -0.73519045 1.0902033 -0.03662417 0.50128967 -0.36634693 0.22316568 -0.6564245 -0.42702094 0.20189163 -0.5947089 -0.39417687 0.49784562 0.12101259 0.6161236 -0.8317265 -0.31839097 0.25785086 -0.15213916 -0.045586485 -0.060573444 -0.19415721 -0.4669103 -0.41454938 -0.04609268 0.32953554 0.49951383 -0.46885285 -0.40646565 -0.4838594 0.55920506 0.95669633 -0.6055745 0.004146572 0.00025992756 0.31554565 -0.53981024 -0.24142511 0.45039785 -0.3752733 0.28119895 0.050886523 -0.042278577 -0.1754691 0.4074374 0.8071976 0.3249355 0.15318124 -0.36559257 -0.7926442 -0.6743105 0.85041684 0.11507611 -0.3244517 0.5681257 0.16542001
晚上 0.340792 -0.82377386 0.0013157201 0.4715343 0.9219895 0.007501417 -0.17049788 -0.23099078 -0.37080064 -0.28868777 0.15180968 -0.05173264 0.01398081 -0.20166412 -0.4419716 0.099343866 0.1846269 0.024829514 0.6099759 0.20297346 0.4645712 0.7167844 -0.48614544 0.34877947 -0.28178838 0.4256889 0.022886496 0.32684332 -0.17015567 0.3129668 0.2465727 0.014512706 -0.5970177 -0.015900418 0.06926605 -0.1340349 -0.14719678 -0.34173268 0.8605382 -0.04265053 -0.4887388 -0.2710641 0.50805706 -0.6005869 -0.113915816 -0.31667528 0.024443068 0.015272871 -0.20465872 0.31221074 -0.012910508 0.039189316 -0.952239 0.46345693 -0.2091977 -0.38615847 -0.2016602 -0.3865472 -0.049709797 -0.15619491 -0.26467752 0.3090682 -0.30448702 -0.49296603
天气 -0.22043875 -0.5299915 -0.6801243 -0.07425355 -0.0005386257 -0.47841117 -0.28836107 0.22210914 -0.2069043 0.00935266 0.5301944 -0.37955415 -0.37839442 -0.068284385 -0.4770722 0.15953514 -0.46258312 0.5997039 0.15467462 -0.2703547 0.05074194 -0.4146773 0.1637217 0.13988256 0.14794937 0.36423254 -0.061660003 -0.24034911 0.12214311 0.09857134 -0.3293245 -0.3194111 -0.42648593 -0.8504767 -0.2935728 1.0144949 0.096394755 0.060862996 0.2629065 -0.64620394 -0.30348086 0.48297635 -0.16086522 -0.04473144 0.72789973 -0.2548645 -0.22096692 -0.6570765 0.33904007 -0.24964723 0.639731 -0.74555284 0.31705964 0.76160717 0.45425132 -0.5705501 -0.1992633 -1.0495415 -0.18600455 0.13763462 0.48550212 -0.031625114 -0.32420918 0.34153223
了 -0.58801204 -0.46491417 0.073904134 0.58271885 0.71126264 0.11759727 -0.007702071 -0.4490443 -0.4522909 -0.2271504 -0.08302029 0.4648695 -0.42846036 0.056220546 0.5061491 0.37703115 0.32858372 -0.158214 0.28395614 0.6193037 0.17675807 -0.6837025 0.73352796 -0.96708983 0.5584931 0.18674235 -0.3688908 -0.16003887 -0.24655059 -0.3285331 -0.3240276 0.83093506 -0.9368556 -0.67405516 0.8902927 -0.17085037 0.38387987 -0.20081359 -0.8852465 0.40822473 -0.45946595 0.50183684 -0.51115555 -1.0693053 0.2622683 -0.6746694 0.016395232 -0.21839367 0.21759978 -0.6888852 0.23934504 -0.03561249 0.51767254 0.38156334 0.26979342 0.07237549 0.40051925 0.010822866 0.15126559 0.63960737 -0.8152116 -0.9092586 -0.75517756 -0.34678406
想 0.6709323 0.18564506 0.17078166 -0.49366802 1.0705317 0.103622064 0.02183093 -0.11483383 -1.0592576 -0.46923825 0.17843227 -1.0289438 -0.27088028 -0.8072225 -1.3684428 0.103921436 -0.14214174 0.008919272 -0.47373027 0.3621881 0.3670606 0.38916913 0.6410132 -0.17729063 0.5291952 0.27619913 -0.57928026 -0.70565253 -0.41934887 -0.48147374 -0.1696347 0.77460396 -0.5131161 0.21673419 -0.4216507 -0.11159666 0.7574569 0.61563367 0.010405233 0.5188413 0.32635835 0.14607166 -0.8264015 0.4227685 -0.02205091 -0.415332 0.34736714 -0.24382535 0.9611418 0.6878297 -0.61058205 -0.76932144 -0.29952577 0.5564431 0.43711373 -0.29579967 -0.039596 -0.8083664 0.23760594 0.45246157 0.36982346 -0.47944358 0.49424085 0.6660039
烧烤 -0.35375497 0.006329735 0.39879516 -0.09079179 -0.3035744 -0.021609398 0.09177916 -0.15080434 -0.4268492 -0.18407036 0.6614627 -0.31681636 0.42259663 0.08555971 -0.2570569 -0.5185996 -0.5724466 0.13654886 0.98740757 -0.06104226 -0.12856725 0.38466632 0.33321795 0.5211811 0.14255396 0.6839475 -1.1231234 0.23133002 -0.42583525 -0.5763563 0.11829832 -0.59900576 0.55625695 -0.44239345 -0.4873766 -0.2550234 -0.010994972 -0.53865796 -0.21019612 -0.38488042 0.3842953 -0.58935404 -0.811647 -0.6554398 0.40427718 -0.32926005 -0.65139407 0.46742144 -0.2592671 0.04248163 0.3341682 0.50903004 -0.65806586 0.51101756 0.20951292 -0.17071521 0.4256742 -0.21116023 -0.4445163 1.0423065 -0.35361108 0.019831013 -0.6861585 0.54917324
不错 0.86159545 -0.26247057 0.43691936 0.6094829 0.13331905 0.39716014 0.34245968 0.20944422 0.38948196 -0.6803964 1.4701672 0.038957406 -0.824553 0.06787785 0.25209704 0.69112456 -0.026291257 -1.1326858 -0.49673766 0.4809975 0.47211882 0.44663826 1.4415716 -0.45330548 -0.87704766 1.6799712 0.36173832 -0.49734044 0.5656219 -0.8923465 -0.52548236 -0.035906576 0.24515668 -0.62029684 0.0041877134 0.29153305 0.77047825 0.2294195 0.57753116 -0.9287795 0.35395977 -0.15049683 0.20910487 -0.64254516 1.7128122 0.100500554 0.24013732 -0.49330243 0.015165633 0.45840037 0.76358205 -0.68837667 0.14424938 1.493383 1.1511645 -0.009818114 1.9095128 0.083130606 -0.14148028 -1.1482342 0.7473199 -0.63147485 0.83007014 0.43992755
有 1.1220031 -0.6698745 0.21486923 0.44216985 0.06797446 0.6444524 -0.41119954 -0.2517696 0.010507386 -0.4838721 0.54223317 -0.21844108 -0.41048542 -0.75181514 0.36245495 0.7052193 0.8608361 -0.3209855 0.5708328 0.7319433 0.37388897 0.27768868 1.7898965 -0.2609657 0.8432251 0.51000214 -0.104551256 -1.3752145 -0.4630653 -0.8020659 0.03348686 0.7200861 -1.3054302 -0.59325486 -0.44105306 0.73252404 -1.0333507 0.2765828 1.1289059 0.08389902 0.08378009 -0.12054193 -0.3156513 -1.6643319 0.0065788864 -0.8518392 -1.2572933 -0.010949691 0.18664508 -0.20343964 0.29276294 0.7338421 -0.09709997 1.6184543 0.18108808 -0.78899485 0.5175363 0.44799677 0.31632605 -0.9264746 0.16840184 -0.23019923 1.834544 0.20273827
今天 0.29506576 -0.346112 0.28015858 -0.3511116 -0.39803055 -0.42150667 -0.12654981 1.4530715 -0.0026239008 -0.5009264 0.020896066 -0.6961294 0.06626968 -0.69882894 -0.9536998 0.64546806 -0.27829286 -0.2684924 -0.1756307 0.32785612 1.2995174 0.004887281 0.2387797 -0.022129575 0.34112635 0.5888018 -0.45932588 -0.5561953 0.39417803 -0.6614868 -0.9112174 0.2654278 -0.34009987 -0.5678464 -0.21189734 0.43780723 0.902768 0.42058164 0.47288316 0.3926071 -0.24706152 0.29953796 -0.23913836 0.05590415 0.99684507 0.34228632 -0.03715141 0.25959975 0.92284346 0.8021691 -0.46154118 0.21344055 -0.30587062 0.53200614 0.8872319 0.11318796 -0.27172774 -0.41203234 0.52952874 -0.60198766 -0.2815717 -0.26327673 -0.005303705 0.17935193
面条 0.11621841 0.23149541 1.0453289 0.15464924 0.4293421 -0.21435773 -0.8473574 0.18792634 -0.68792397 -0.96794486 0.3937074 -0.30305073 -0.25954702 0.7166737 -0.22205657 -0.27977163 -1.1804135 0.42590317 0.5136495 0.1718281 0.36799854 0.16563806 0.29175305 0.18678197 0.064429425 0.21217546 -0.19785039 -0.21661635 -0.066532195 0.25868767 -0.28839773 -0.17577685 0.51930547 0.37408268 -0.34237796 0.11082776 -0.5858112 0.16528721 0.25655928 -0.81382364 0.91750026 0.39904976 0.40296197 -1.3775345 -0.39927253 0.08480979 -0.80884117 -0.28941202 0.10568927 -0.32450292 0.31919244 -0.08928582 0.2836879 0.21388914 0.49516088 0.82325643 0.23686278 -0.16976573 0.2140162 0.029364187 -0.22500879 0.27256152 -0.059554845 0.26257855
感觉 -0.7827701 -0.4984192 -0.26265967 0.30793476 0.11249973 -0.87643605 -0.05000373 0.49068943 0.532174 -0.06708169 0.12764603 -0.20432577 -0.2593996 -0.7038424 0.16127722 0.7289039 0.24880059 0.14470474 0.5416421 1.5602361 0.7036462 -0.5587304 0.44930184 -0.77908015 -0.7683191 0.67123103 -0.8216023 0.1493945 -0.12891479 0.06437213 -0.032014154 -0.11311872 -0.4128168 0.21515766 0.7252642 0.15161958 -0.5490491 -0.30855444 0.3457449 0.15327488 -0.8541341 0.74256366 -0.5330322 -0.88482434 0.6871755 -0.23238541 -0.23785427 0.73692256 -0.25980484 1.3102853 -0.74982303 0.99508995 1.0419668 -0.3025393 0.7359942 0.26846823 0.06259137 0.38070765 0.14162254 0.63865674 -0.94482905 -0.29351178 0.15415844 -0.09202538
沙拉 0.43333566 0.3634214 0.76292425 0.12485506 0.030080011 0.24922584 -0.6678568 0.5236016 -0.012761199 -0.030012766 0.6429394 -0.7689483 0.42427108 1.0004759 0.21606997 -0.2037084 -0.54716086 0.4182308 0.4445989 0.30575126 -0.02985072 0.041914336 0.7410072 -0.36788392 0.21177278 -0.26437724 0.071865216 0.035720535 -1.0400238 0.0615373 -0.16095999 -0.6952508 0.14177346 -0.63396186 -0.1304539 -0.53938067 -0.10354768 -0.9807664 0.04522492 0.0201823 0.31567508 0.13614632 -0.5372004 -0.96938217 -0.1563798 -0.43033403 0.23764454 -0.09982072 -0.7643204 0.35614625 0.9801149 -0.39075086 -0.73763067 -0.120658726 0.65762055 0.5976098 0.1051616 -0.25127968 0.15832074 -0.07261475 -0.11515496 0.44526115 -0.13764784 0.3965797
冰淇淋 -0.036142305 0.37667373 0.4635657 0.3078436 0.41929656 -0.24537401 -0.3071864 -0.3188667 -0.072163485 -0.1563688 0.85628784 -0.9715713 0.33669785 1.2729205 0.38052168 0.46726134 -0.76319385 -0.07086491 0.6204266 1.0277027 0.32373095 0.52721983 0.17564532 0.48707035 0.3110254 0.778376 -0.501633 -0.2556519 -0.68262804 0.05370333 -0.01758937 -0.5244791 0.085141964 0.31579348 -0.48563492 -0.2650035 -0.11838595 0.1767756 -0.008361694 -0.28728223 -0.5025555 -0.16131909 0.3921633 -0.14777966 -1.1221659 0.22428703 -0.82319117 0.25735646 -0.11655617 0.5378439 0.74242973 -0.77130723 0.48735726 0.4752902 0.013215949 0.39541486 0.3779736 0.11405744 -0.01851945 -0.42724636 -0.44378245 -0.52157927 -0.8060466 -0.20304948
牛奶 -0.07041842 0.14002226 0.71066034 -0.013177159 -0.6997765 -0.22642234 0.35344908 0.461344 -0.2428467 -0.04242263 -0.040543906 0.1865535 -0.25115854 0.714154 0.29838368 -0.54886043 -0.26793617 0.016635241 0.51602256 0.17324355 0.05497923 0.06851324 -0.08892372 -0.25092375 0.08829077 0.2773524 -1.0142006 -0.685869 -0.90484583 -0.654903 0.11160467 -0.3843693 -0.18040477 0.39537504 -0.045392785 -0.56725645 -0.18386878 0.11031229 0.44312674 -0.49939 0.5521946 0.34324145 0.5751717 -0.063731976 -0.5122927 -0.76356065 -0.2497613 0.48635122 -0.11885912 0.23309101 1.0577806 0.35087475 -0.68667305 0.58502495 1.2814827 0.14080115 0.058857273 -0.22940998 0.087051764 1.1069397 0.12981527 -0.2243769 -0.75382257 0.6178945
咖啡 0.2417383 0.37062868 1.0206634 0.5014144 -0.80341023 -0.543573 0.25725326 -0.48680407 -1.1965206 0.1970611 0.22224316 0.054593116 0.41996077 1.0004238 0.48860058 -0.011305208 0.30718046 1.0057 0.5333655 -0.38830218 -0.099225044 0.19310682 -0.16417179 -0.6577578 -0.17014991 0.7096269 -0.31031376 -0.7370354 -0.6394563 -0.11241606 0.50230676 -0.4775751 -0.5237476 0.34657076 0.034423586 -0.6891029 0.30531457 -0.11560255 0.106582895 -0.03735981 0.0749489 0.4752942 0.22356847 -0.23186392 0.027051318 -0.17019203 -0.6507555 -0.27518418 -0.036731124 0.20743382 0.2035319 0.37968406 -0.5271177 -0.121732086 0.38412637 0.2541796 -0.2819473 -0.031924125 -0.78468955 0.6526892 -0.077689916 -0.3322623 -0.6526735 1.0113934
自己 0.38272083 -1.5108646 -0.64723426 -0.074089766 0.8462428 -0.13278112 -0.46480006 0.66232884 -0.6123928 0.33928034 -0.44665483 -0.81388044 0.76379126 -0.7672319 -0.17728133 0.443498 0.786183 0.75968033 0.5938411 0.46787745 1.3043652 0.20421799 0.32739756 -0.061327793 0.23734719 0.41528544 -0.81479055 0.30278152 -0.08666313 0.08969415 0.21057631 0.71056324 -0.06128595 0.24204381 0.019055305 -0.19093888 -0.088247366 -0.35309923 0.6404824 0.2609163 0.102308705 0.06489652 0.26482758 -0.25567886 -0.023593087 -1.0863514 0.3787227 0.0064822715 -0.2437269 0.05018576 -0.097352184 -0.4198605 0.5445444 0.7877722 0.09414585 0.08442304 0.5989239 -0.43609986 -0.08065716 -0.059398003 -0.11273374 0.19104138 -0.13440728 0.34027335
犒劳 0.89437896 -1.2606547 0.026556317 -0.06686872 0.4627151 -0.50995225 -0.1995618 0.73201895 0.4236868 0.042650715 0.07738896 -1.122595 0.7597196 -0.7736465 0.17541663 0.35530883 -0.06856782 0.8183664 0.78514594 0.24283697 0.9765479 0.5581281 -0.06789377 -0.35085928 -0.041574545 -0.025871865 -0.8435763 -0.19481713 0.21360798 0.9273936 0.20422538 0.744565 -0.35150075 0.0012155211 0.1767076 0.3299423 -0.09964791 0.10119677 0.23799159 0.49505362 -0.05132582 0.22271714 0.11963079 -0.36567774 -0.25553942 -1.2443633 0.08591968 -0.012370442 0.35664913 0.2524131 -0.4822023 -0.08339491 -0.016498743 0.60000706 -0.027087184 -0.21810035 0.64733046 -0.55212444 -0.15991044 0.20923565 -0.37973958 -0.24418025 -0.11288248 -0.00736651
都 0.18728934 -1.4109317 -0.1840257 -0.34904402 0.39017653 -0.14445585 -0.31205463 0.80249894 -0.3771063 0.22710995 -0.16696218 -0.7863556 0.4719245 -0.4668682 -0.14392549 0.74820673 -0.09418306 0.29204497 0.8677849 0.12979844 1.3050541 0.48564506 -0.33295923 -0.41343376 0.09138641 0.25262818 -0.9732065 0.18260816 -0.18849283 0.30679464 0.27605566 0.82875055 -0.01148802 -0.21606897 0.27867353 0.30369073 -0.3410861 0.012812751 0.38190147 -0.031365756 -0.2653426 0.23635882 0.09413814 -0.2609096 0.092112616 -0.7424389 0.2508656 0.19205639 -0.025727695 0.17321949 -0.14315961 -0.07003599 -0.028956 0.52867347 -0.00807295 0.45232138 0.06885635 -0.50805414 -0.58178407 -0.5297798 -0.3067047 -0.35171694 -0.1961134 0.12809435
一整天 0.57266325 -0.9960096 -0.42961898 0.54679495 0.28642052 -0.42793322 -0.24089134 0.9199181 0.2888305 0.25062484 -0.42635 -0.6015501 0.7348185 -0.32202062 -0.486264 0.3610489 -0.03680219 0.6630378 0.87591326 0.7213329 0.8169548 0.061813116 -0.10059858 0.15140851 -0.004233036 -0.03901843 -0.6954837 -0.1347424 0.30416396 0.19516301 0.10677594 0.45881706 -0.006487852 0.34760234 0.08485304 -0.05277832 0.15799952 -0.16844723 0.636231 0.6519323 -0.16711974 0.07336919 0.36966804 -0.73557484 -0.08706683 -0.9219139 0.075715214 -0.11646606 -0.23292242 0.48721054 -0.12175156 -0.19138558 0.24166577 0.6023214 0.22093901 -0.2778323 0.00034884497 -0.5382058 -0.30388933 0.1723886 -0.16869107 -0.14551674 0.2088604 0.44806135
口味 -0.17684728 -0.3306257 0.9492435 1.0454273 -0.083281085 -0.29485404 0.14927472 0.17208168 0.119325474 -1.034545 0.16509974 0.53090495 -1.2579417 0.8251228 0.32951304 0.93475497 -0.9390227 -0.74631643 -0.21190068 -0.25482196 0.02008758 0.8927137 1.2456425 -1.061758 -0.11482809 1.1159078 0.46534607 -0.22918113 -0.8520758 -0.4880295 -0.022504682 -1.0047065 -0.25498295 -0.013008468 -0.04839352 0.39039642 0.32815954 0.23602645 -0.090397626 -0.2758037 -0.1348768 0.5624641 0.100709036 -0.01586132 0.53371614 0.6652775 0.35171804 0.050272483 -0.61536556 0.20448467 -0.2432648 -0.5852681 -0.37046516 0.7851018 0.27162886 0.36233017 0.26682726 0.012552909 -0.8917831 0.5046007 0.08160203 0.04592153 0.70727074 0.5937342
来个 -0.21671045 -0.9002032 -0.7868064 0.45415708 -0.026926866 -0.110355385 0.11181 1.2621737 -0.2664196 0.026902083 -0.04663805 -0.96166056 0.5589693 -0.47036943 -0.0066215596 0.33347607 -0.009641258 0.41990465 -0.56715375 -0.2744212 0.5503171 -0.15284427 -0.268807 -0.70424074 -0.26134455 0.21165106 -0.028960558 0.2658315 0.37506557 0.07658116 -0.7180693 -0.152998 -0.067750864 -0.2327986 -0.49539748 0.7484171 0.45830482 0.15866216 0.20268254 -0.2833982 0.2834454 0.22785382 0.09112636 -0.31094694 0.6524389 -0.63438237 -0.05728911 -1.0542282 0.10296403 -0.055084962 0.5729366 -0.54542357 0.6814367 0.803513 1.1698312 -0.6861113 0.3059522 -0.98590684 -0.58178 0.010284358 -0.62539303 -0.47615185 -0.71600145 -0.13439946
真 0.41500175 -1.1672086 -0.0018323342 1.4020687 -0.3333277 -0.2903663 -0.15653382 0.8509257 -0.5607678 -0.7197474 0.21209039 -0.39230356 -0.43786547 0.1368785 0.77751696 0.555893 -0.46086606 -0.3192292 -0.72068715 -0.12209756 0.58938044 1.4868789 0.9480515 -0.036100224 -0.08076396 1.152691 0.725168 -0.52753866 0.8338869 -0.8922721 -1.2388093 -0.39713368 -0.38639534 -1.2531799 -0.13343357 0.29220462 1.6627752 0.43537664 1.0813284 -0.66711235 0.21543856 -0.5509332 0.34721002 -0.27234748 1.4875636 1.2586986 -0.50196487 -0.72678083 1.2201855 0.41474047 1.2629304 -0.2189666 -0.022308938 1.1099406 1.3785563 0.41976127 1.2462813 -1.1993939 0.5091075 -0.5936685 0.6658613 -0.6495391 -0.489714 -0.075677514
家店 0.4428968 -0.22997913 1.7541363 1.5248072 -0.8060886 0.013465008 0.69068843 -0.41577327 0.6674963 -0.88776284 0.75737834 0.50107944 -0.7202276 0.39414907 -0.25113207 1.1526865 -0.29594564 -0.48434803 -0.7463109 -0.093257144 1.0329864 0.59012806 1.2500225 -1.1366847 -0.78304017 1.5995687 0.7569415 0.24704917 0.042003352 -0.55903244 -0.8002879 -0.6566303 -0.1441778 -1.473579 0.12984724 -0.12001778 0.75920695 -0.44786194 0.89330745 -0.27297676 -0.5344856 0.54827094 -0.5130363 -0.8750378 1.8431048 0.028095178 0.64094913 -0.020148244 -0.98378235 -0.049058642 0.14971282 0.11411997 0.5824935 0.8706646 0.44868377 -0.035716135 0.8530687 0.38502175 -0.921955 0.31633535 0.26283336 -0.5073373 0.09503833 0.39440843
这 0.7651543 -0.13119891 1.7419764 0.4261538 -0.32172704 0.28334364 0.84359306 -0.53828454 0.12578852 -0.8572896 1.2059823 0.5516497 -0.9074688 0.13773185 -0.040339638 0.80212605 0.012206624 -0.46627685 -0.53813654 -0.16991827 0.7005231 1.2874353 1.5372292 -1.0706079 -0.9268308 1.4300495 0.53779 0.09864026 0.80828965 -0.7256954 -0.19473766 -0.48920652 -0.7390618 -1.3222836 -0.02634936 -0.43687218 0.4373908 0.6409979 1.0715721 -0.19723225 0.3864117 -0.118682206 -0.039328728 -0.16604806 1.4634464 0.34004375 0.6859829 -0.63551414 -0.67952335 0.69820374 0.08050442 -0.7439413 0.20830849 1.2167561 0.28915557 -0.114265464 0.38785946 0.40447155 -1.2643907 0.25860763 1.2517915 -0.405855 0.52081513 0.30426985
推荐 1.0346228 -1.6251466 0.1255771 1.1031729 -0.25140044 -0.025963325 -0.8621689 0.4946697 -0.16625573 -0.6051357 -0.50425863 -0.28980604 0.31587154 0.21619508 0.8548063 0.57220423 -0.12519576 -0.02210292 0.74602187 -0.20078658 0.9403025 1.6723654 0.966984 -0.028653065 1.1595899 0.2687617 0.12921295 -0.8381793 -0.2882234 -0.53080136 -0.35954714 -0.3558343 -1.4617592 -1.077874 -0.15906662 1.0971271 -0.6558649 0.74430066 2.217064 0.4935233 -0.15240277 -0.3969547 0.6851778 -1.1153655 -0.13561583 -0.07404885 -1.2097439 0.26020306 -0.030253038 -0.39554566 0.42333576 0.7239564 -0.088988006 1.585506 -0.04703858 -0.38695306 0.036889274 -0.07151353 -0.31101495 -0.45509735 0.1861343 0.066555135 0.2372666 0.20903839
也 0.6143355 -0.20962264 -0.059338566 0.25031954 -0.18405086 -1.0400968 0.273192 0.057849538 -0.33833516 -0.6193699 -0.32496938 -0.33271545 -0.5212194 0.26555055 -0.20159163 0.98492855 -0.29263026 -0.34600693 -0.6518864 0.40843073 0.3700244 0.1938018 0.15152548 -0.45133075 0.08401765 0.30417696 0.12364851 0.008747643 0.18260656 0.25328618 0.07364045 -0.5925846 0.31728035 -0.006319567 0.17643806 0.10311112 -0.14210173 -0.71229666 -0.04708799 0.36828223 0.2813372 0.15334252 0.28939742 -0.15611783 0.37882188 -0.78715134 0.67139345 -0.34082416 -0.5035782 -0.52250963 -0.32849765 -0.42707118 -0.055088468 0.7865226 0.3701955 0.16449176 0.8485754 -0.50540084 -1.1844839 0.86478454 -0.4999895 -0.27103814 -0.91102344 -0.3815736
就是 -0.29205874 -0.09009078 -0.029441843 0.5016547 -0.56895685 -0.4496082 -0.36154532 1.0188566 -0.11662667 -0.15667213 -0.12569559 -1.0014919 -0.459213 -0.44742864 0.1910214 -0.65625787 0.3371115 1.0689484 -0.7034827 -0.5408321 0.5818045 0.40765586 0.64292806 -1.1219661 -0.067383096 0.14397927 -0.096592285 0.8735726 0.09770777 -0.112683915 -0.9110858 0.37375453 -0.6712084 -0.44755447 -0.6622491 -0.5400975 -0.55148476 0.3036103 0.94161385 0.27475834 -0.48248506 0.07108948 -0.38617936 0.4154136 -0.0498631 0.29496074 -0.13775086 -0.38026628 0.3580894 0.9705363 -1.1224389 0.09930327 0.6366865 1.4754059 0.30365944 0.23998345 -0.26525834 -0.19738513 -0.541919 0.45375982 0.4576219 0.059824184 -0.17891778 0.13332227
想到 -0.27920422 0.25146967 -0.51211905 0.35529664 -0.030180633 -0.52097213 -0.029464448 1.1595513 -0.26048318 -0.64154077 0.36671108 -0.3921561 0.09186218 0.20121919 -0.3585165 -0.15596092 0.50847435 0.51586807 -0.5373117 -0.6768129 0.39718202 0.5393376 0.6026001 -0.8888348 -0.4263829 -0.4163063 -0.35877067 0.19255981 -0.08547265 -0.4415106 -0.0034284808 0.0602965 -0.23375872 -0.87938744 -0.46400064 -0.16314544 -0.2005233 0.24956627 0.6120111 0.68069476 -0.8887314 0.17448899 0.15971096 -0.12159871 0.13370813 0.22027892 -0.61538804 -0.8118305 -0.048518386 0.88697165 -0.92202944 0.491271 0.6591729 1.0690764 0.6156323 0.2821016 -0.5807784 -0.121958174 0.33343703 0.8120207 0.61173886 -0.9312035 0.19219577 -0.30082515
第一个 -0.34650344 -0.505667 0.10672306 0.93384445 -0.43784875 -0.7317768 -0.15242782 1.1841396 -0.30120355 -0.12927373 -0.16453888 -0.6034823 0.06141463 0.22692417 0.06851044 -0.3818739 0.12915389 0.45920333 -0.83131105 -0.4706268 0.7084823 0.6159364 0.2641066 -0.6764634 0.0035571423 0.13169424 -0.028030235 0.40222365 0.105982386 -0.061110858 -0.68649817 -0.12476088 -0.2805554 -0.71074957 -0.33166862 0.14138812 -0.010385771 -0.4350035 0.9663481 0.4857327 -0.58910215 0.038257882 0.09350219 0.11309416 0.04157244 0.25048634 -0.30769762 -0.17105664 -0.039648093 0.40739247 -0.76372606 0.61636066 0.6457702 0.6979952 0.28043434 0.11316523 -0.38591284 -0.61324406 0.06979973 0.6089729 0.26004493 -0.45426527 -1.0836095 -0.15398419
好吃 0.47514096 -1.0579407 0.8281477 1.0704718 -0.55735666 0.4267445 -0.053052343 0.15871154 0.34099483 -0.6971934 0.3491634 0.0053551714 -0.8118938 0.04747687 0.26003882 1.1760335 0.08774883 -0.51137656 0.13938445 0.1578705 0.60004866 0.19806941 1.4181687 -0.48002476 0.20227481 0.9297729 0.47457048 -0.7636536 -0.8071968 -0.4886307 -0.648406 -0.4154137 -1.6312453 -1.4566989 -0.14496998 0.99247223 -0.86989045 -0.025476268 1.5113417 -0.015597017 -0.606629 0.15734662 -0.022382919 -1.7142984 0.44348451 0.009394554 -0.8280475 0.23468317 -0.36714002 -0.71408457 0.035785202 1.1694173 0.66556233 1.475015 0.49768153 -1.0227913 -0.15909438 0.68356127 0.16046344 -0.05744729 -0.15291917 -0.3788436 1.0033435 0.14686637
现在 0.7109003 -0.50002265 1.0347803 0.4445931 0.02199087 0.37254515 0.01316078 -0.34527624 -0.019317972 -0.8236026 0.6293348 0.054536786 -0.47223833 -0.12370035 0.5940284 0.49168113 0.35360208 -0.34317788 0.29780313 -0.0669563 0.083334856 1.1220976 1.6687579 -0.87452924 -0.02136936 0.7357262 0.46656996 -0.45999214 -0.32360852 -0.5591903 -0.017259525 -0.27250785 -1.982514 -0.9339207 -0.5189227 0.043342054 -1.032855 0.6451656 1.7543904 -0.24045664 0.022526085 -0.6778245 0.17772695 -1.0284836 -0.260082 0.21128453 -0.7353531 -0.29941908 -0.25557238 -0.14843033 -0.3756235 0.7200306 0.28497157 1.7401093 0.25591248 -0.94532156 -0.50157243 0.79810536 -0.23322423 0.28189415 0.35358846 -0.19847491 1.2086221 0.19064589
东西 1.1867745 0.7174713 0.33897963 0.2188601 0.33452263 -0.32666376 0.63936424 0.6483411 -0.14131273 0.25565845 1.0900894 -0.33844677 0.19632393 -0.13631414 0.0825469 0.68495744 -0.45951632 0.085596144 0.27897182 2.1284013 -0.2736781 1.2462956 1.4525203 -0.81754756 -0.51800615 0.34416762 -1.1705885 0.24883945 -0.26343986 -0.34429282 0.19844952 0.6396504 -0.12639132 0.23693964 -0.12047783 -0.73750097 -0.64208597 0.04341104 1.3350551 0.394497 -0.3826772 0.21216811 -0.68225807 -0.33936054 0.95667344 -0.14203008 0.007405678 0.23100485 0.54634047 1.9961371 -1.2347726 -0.7043942 -0.7061028 1.0666361 0.35508543 0.9804315 -0.098785475 -0.9004269 0.91560596 -0.79614145 -0.28344297 -0.81266356 1.2814405 1.7834406
点 0.89188594 0.66051847 0.65595496 0.024082271 1.3875618 -0.63609815 0.6969168 1.1735221 -0.6602148 -0.25731057 1.4887437 -0.52812874 0.7581048 -0.7164343 0.5099895 0.45933938 0.2392834 -0.32984504 1.0560101 1.6585863 0.114419244 1.2402545 1.3893245 -0.2982031 0.5108641 1.2480148 -0.17655525 0.3576341 -0.45744264 -0.5773065 0.18856297 -0.015214322 0.23991963 0.33345133 -0.72628325 -0.8201327 -0.22707696 1.0949066 0.7670657 0.025420055 0.03438245 0.68575805 -0.684783 0.0557831 1.3800724 0.20043206 0.71379447 0.2508263 0.86151344 1.7311459 -1.1084818 0.08938892 0.13715884 1.2567861 0.567649 0.9583317 0.6954769 -0.046757072 0.59367335 -0.8264413 -0.3896699 -0.07243695 1.128696 0.69876075
呢 1.2078989 -1.0427501 0.8699786 -0.47848055 -0.17167813 0.52204806 0.1025157 -0.38562146 -0.740905 -0.07240955 0.093092754 -0.2699075 0.6156966 -0.5009877 0.22663076 1.1483517 -0.29418117 0.29103833 -0.42380017 0.63599694 0.79480964 1.8971992 0.7198849 0.24641712 0.8407707 0.18158865 -0.56159383 -0.85834926 -0.27523553 -0.44386247 -0.8312913 -0.84437543 -1.0341841 -1.248856 -0.6030599 0.45675942 -0.6424496 0.0730296 2.3190348 1.1864635 0.5818947 -0.075551115 -0.015007695 -1.3911933 0.3935629 0.18448268 0.60867745 -0.3873386 0.099112295 -0.5767184 -0.10323174 0.2881289 0.03471257 0.75608945 0.21721977 -0.74670005 -1.7256979 -0.6441135 0.69596046 0.45297757 -0.42645898 -0.78987724 -0.18516421 0.8850431
中午 0.73073757 -0.787189 1.0242579 0.0316998 -0.2436619 0.39203987 0.6268922 -0.81262356 -1.2834954 -0.11687575 -0.16126134 -0.7232228 -0.4165314 -1.1945268 0.707657 0.7296664 -0.71128386 0.91436607 0.22711432 0.7908272 0.63729775 1.6531159 1.0780255 0.7129188 1.0904717 0.06931297 -0.12706736 -0.10007781 -0.626569 -0.24905446 -0.72795326 -0.7060606 -0.5424288 -1.3586391 -0.8042647 -0.4113135 -0.6104248 1.058266 1.7012291 0.8902725 -0.10989503 0.32725173 -0.16396146 -0.97074753 0.5651791 0.65066254 0.21341093 -0.052398738 0.04900788 -0.112095 -0.13831638 1.2180799 0.5201281 0.71295965 0.3070387 -0.42724693 -0.73611736 -0.88998896 0.65550315 0.3812043 0.07607678 -0.85225314 0.8704646 0.23212114
绝配 -0.43861115 -1.1172559 0.77695805 0.5452337 0.42965108 0.3633133 -0.25249395 0.5035343 0.13496746 -0.4041315 0.36137414 0.24512976 -0.30231014 -0.3325383 -0.9756043 0.21687946 1.2370988 0.63194555 0.10764714 0.19747905 0.9285214 -0.21495564 0.4085473 -1.487163 0.19545934 0.31785953 -0.69916695 -0.603748 0.37347287 -0.06715177 -0.052936085 0.74790484 -0.07501324 -0.007287043 -0.88316697 -0.6648033 -0.12852165 -0.68740624 0.47747535 -0.49418747 -0.28907526 -0.53935176 -0.12967041 0.28140855 -0.3020925 -0.17635663 -0.65291756 -0.56371874 -0.4817679 0.59880656 -1.1710687 -0.9012655 0.4827716 1.1280746 0.18065129 -0.44703773 0.5337379 0.228455 -0.17904967 0.04496885 0.480173 -0.3378177 -1.0295081 0.48889017
是 0.26809177 -0.3344488 0.519037 -0.052588046 0.47489038 -0.19083267 -0.32160956 0.41093683 0.36637482 -0.2878578 0.4736208 0.25969404 -0.07924948 -0.17448014 -0.38395953 0.26515335 0.7476309 0.28857848 0.12877898 -0.39728343 0.98857135 0.30780432 1.0118892 -1.5684677 -0.95841855 0.3711721 -1.0599512 -1.0342708 0.08089034 -0.47504604 -0.65909034 1.3023857 -0.12134896 0.35417485 -0.55679405 0.09810329 0.09632771 -0.59630895 0.08832365 -0.46454692 -0.65486795 -0.26914647 -0.1123762 -0.08402798 -0.20191085 -0.28647757 -0.57980007 -0.5459778 -0.24205175 0.6945846 -0.54970187 -0.48160666 0.438924 0.6715736 -0.2113901 -1.006022 0.10490804 -0.27498215 -0.03259777 0.25285843 -0.06303024 0.21128777 -0.9900202 -0.32231832
里 -0.363066 -0.5063283 0.69795954 0.08793454 0.367343 0.09661309 -0.0669377 0.91149294 0.36282182 0.16041432 0.5677857 0.087556176 -0.24050316 -0.44679338 -0.74385256 0.6265706 1.0117122 0.44304508 0.34847227 0.17516632 1.0685627 -0.16116655 0.3987876 -1.2755265 -0.7380386 0.36456478 -0.857146 -0.2840144 -0.012133462 -0.41834694 0.2413681 0.5058385 0.159223 0.40092874 -0.6190807 -0.09390797 -0.14960577 -0.2748687 0.17262991 -0.27557766 -0.45472154 -0.27828878 0.07493255 -0.24039909 0.023627346 -0.44606692 -0.5724204 -0.30506563 -0.30934757 0.71271515 -1.0481763 -0.29589045 0.6733881 1.0638332 0.15348198 -0.41655853 0.21475554 0.6151572 -0.23046824 0.17240292 0.10574791 0.16449158 -0.218594 -0.10789389
日子 -0.16805032 -0.81412405 0.6021492 0.46976364 0.12340708 -0.20102434 -0.24458969 0.5900993 0.38607007 -0.12051553 0.08417211 0.120763965 -0.12988639 0.03217252 -0.71488434 0.49947277 0.6888197 0.14093852 -0.040470086 0.04294766 0.97736907 -0.54207164 0.22168788 -1.1126282 -0.11472503 0.51668054 -0.605403 -0.9946411 0.12685886 -0.14983062 -0.35219812 0.6445467 -0.08295099 0.15702139 -0.7672421 0.2759284 0.15782492 -0.95958555 0.36859095 -0.13998443 -0.7780649 -0.09492403 -0.056548767 -0.3237088 0.074652605 -0.3091414 -0.57137674 -0.01612128 -0.43687904 0.120971195 -0.6674969 -0.20759249 0.37369585 0.58635926 0.0557542 -0.6313692 0.4273469 0.01842748 0.03668865 0.0006552991 0.011388261 -0.2543801 -1.125541 0.23646522
饿 -0.11740363 -0.64015174 0.12926131 0.5134273 0.21281254 -0.65265423 0.776258 0.64033294 -0.2192691 -0.86053824 0.47447303 0.14055996 -0.6852816 0.019173993 -0.20080285 0.7017152 -0.57224756 -0.5885285 0.8759872 2.726608 -0.59497756 -0.88391614 0.6240108 -1.813624 0.35704464 1.185619 -0.8257868 -0.2479288 -1.2708534 0.27401072 -0.14649856 0.13945785 -0.26582232 0.7317307 -0.7411372 -0.37548265 0.8718095 -0.29940104 -0.7561023 -1.4676701 -0.6421417 0.8254183 -0.4918467 -1.1390165 1.7999697 0.31077123 -0.27435496 -0.14644079 0.47306702 0.49308395 -0.5467318 -0.39692417 -0.1646975 0.560232 1.254292 0.5761728 0.85237545 -0.39896643 0.53851026 0.6235715 -1.9040213 -0.5425031 0.21583216 0.39194074
有点 -0.35211837 -0.101129904 0.3810767 0.97253364 0.43374527 -0.28906116 0.6430812 0.7163134 -0.40920237 0.1259164 0.37158307 -0.4571887 -0.28406376 0.6630847 0.5400033 1.3756654 0.26447594 -0.57483274 0.58139217 2.6644235 -0.59672755 -0.19352373 0.9350529 -1.9923599 -0.8881857 1.1992315 -0.011094932 0.6709685 -1.1126876 -0.60944194 -0.72649693 -0.3797495 -0.36556417 0.43260258 -0.9808039 0.3861692 0.15888597 0.0543068 -1.161005 -0.6582822 -0.341171 1.6025678 -0.7784189 -1.015171 1.6038476 -0.011405087 -0.31717488 -0.35230416 0.48868567 0.6356747 0.47821337 -0.26632747 0.4943066 0.20531985 0.5727267 0.656619 0.9172473 0.20943716 0.3885319 1.0512446 -1.6223826 -0.5040614 0.17478684 0.4289077
美食 1.6914749 -0.41075784 -0.081807 0.4243701 0.14089893 -0.94969714 -0.42869583 -1.3542129 -1.5032138 -1.5509459 0.17420964 -0.19021909 -0.42711133 -0.08303474 1.6199111 -0.3098365 -0.052967865 0.22912931 -0.3937597 0.65333736 -0.036770668 1.1830018 1.8329704 -0.28825995 0.9244365 -0.3937187 -0.46560934 -0.8461355 0.6203753 -0.15325075 0.06691868 0.2272979 -0.6166963 -1.1842319 0.36259207 -0.8508771 -0.45248422 -0.5882554 2.193518 1.2593892 0.42476904 -0.23917612 -0.72754174 -0.2638143 0.54655385 -0.13320953 0.5148631 -0.051024392 0.352711 0.24653713 -0.4994175 0.61650753 0.38217485 0.34733772 0.37701026 0.8173959 0.08182772 -0.60721135 -0.063325614 0.5204288 -0.034330923 -1.1144007 -0.67375267 0.1065294
喜欢 1.7002873 -0.45152155 -0.026401475 0.09740285 0.98186004 -0.6933251 -0.33673155 0.03891937 -0.1823245 -1.3485053 0.5578422 0.29122818 -0.08909894 0.4094677 1.358257 0.12867278 -0.49944308 -0.78101194 0.6697409 0.7493853 0.7392516 0.06212321 1.5691193 -0.41207263 -0.6090672 0.4792606 -0.6454125 0.015515448 0.031194989 -0.38871092 0.8638224 -0.34075898 -0.46515387 -0.5394762 0.46737313 -0.56129616 -1.43168 0.20219499 1.9142562 0.49033728 -0.08452143 -0.109537244 -0.5268779 -0.33845693 1.0177621 -0.20355763 0.427539 0.3300655 -0.32756796 1.1101347 -1.5740101 0.09379322 0.8922543 1.2517782 0.22456768 0.7915005 0.04519006 0.67224467 -0.72261524 0.03962099 -0.37158573 -0.26999757 -0.39135805 1.156549
啊 0.55881876 -0.49223167 0.32990527 -0.7812181 0.46568376 -0.9256245 0.3692416 0.7664577 -0.8275445 0.4113615 0.014914314 -0.5145756 -0.1365131 -1.2883393 -0.6174729 0.4599002 0.6484321 0.56948966 -0.41606873 0.87735 0.5239573 1.1830635 0.8043745 0.085614055 0.56399775 0.3718076 -0.7955428 -0.31542447 0.7145951 -0.39803642 -0.5691932 0.054433003 0.24799825 0.14691617 -0.33898002 0.18729877 0.5935956 -0.18569875 0.5167392 0.46866786 0.51014096 -0.11127311 -0.31705284 0.26022804 0.576236 -0.25852987 0.2977488 -0.6103987 0.42840222 0.6048183 -0.5300289 -0.38767642 0.22450995 0.15800898 0.9876497 0.21409333 -0.20398495 -1.4875928 0.56369364 -0.5803335 0.44776848 -0.23014717 -0.28602168 0.39209878
不 0.5709434 -0.39899203 -0.6407264 0.3644998 0.0739727 -0.469321 -0.59265566 0.19209681 -0.34566048 -0.36886033 0.7267866 0.37090525 -0.9941996 0.38520706 0.23402885 0.7708373 -0.13385735 0.18614319 -0.22693266 -0.3499355 0.42281544 0.5872553 0.31151107 -0.6104745 0.31254983 -0.033728417 -0.73682404 0.0020528408 -0.27150652 -0.2366119 -0.16850336 -0.26785448 1.4180596 0.38040686 0.8411455 -0.24361508 -0.28577992 -0.20388953 0.2765901 1.1783762 -0.3887248 -0.11028957 -0.31738222 -0.1947384 0.13715313 -0.86315215 0.37790874 -0.42577863 -0.3045743 0.8336744 -0.38901412 -0.6430326 0.28892356 1.3735863 0.8638126 0.1643304 0.13971518 -0.16884924 -0.75174105 0.15132104 -0.51459926 -0.20208351 0.26974785 0.4362892
少 0.09927757 -0.5127532 0.7841999 0.7292342 -0.3563469 -0.02216459 -0.04846473 1.0383593 -0.0020210638 -0.32181245 -0.3406403 -1.5558814 -0.7645097 -0.4266446 -0.89181757 0.12563089 0.7669936 0.37993714 -0.43731347 0.21613342 1.139515 0.32579494 0.78898424 -0.39306504 -0.7669305 0.85728884 -0.18359122 -0.10499348 0.29268372 -0.03144034 0.1183711 0.2577035 -0.2561567 -0.21881351 0.01870785 -0.035389192 0.8939619 -0.41735232 0.22807987 -0.64992416 -0.17734422 -0.85899997 -0.033818025 0.28434533 -0.5147567 -1.1597025 -0.6502894 0.020707441 -0.704015 0.18400612 0.16352855 0.10571736 0.6274879 0.2557405 1.0522053 -0.35113505 0.13981643 -0.3898698 -0.20018798 0.37378928 0.45584652 0.11770458 0.170338 -0.8737607
不能 -0.0007962183 -0.31992424 0.8588912 0.32894045 -0.40764675 -0.74459034 -0.071413614 1.0833242 -0.5354922 -0.1322748 0.08390433 -1.2253115 -0.51309234 -0.3933678 -0.4865166 0.29260692 1.4507844 0.6470797 0.050270993 0.13167171 0.38424787 0.841363 0.57624966 -0.40488824 -0.5841698 0.6959423 -0.22473769 0.16043235 -0.10260894 -0.48115605 0.30895174 0.27618363 -0.6166782 -0.49425828 0.3841735 0.116734564 0.09678075 -0.6422629 -0.2044809 -0.7298234 -0.10866641 -0.25825033 0.122798815 0.15290734 -0.58308375 -1.1312202 0.1552966 -0.24939027 -0.3759976 -0.08370798 0.36544424 0.19229361 1.0363264 0.45179224 0.6726258 -0.8937536 0.7486927 -0.062351726 0.22434075 -0.012012447 0.41505736 0.26786256 -0.3201569 -1.0424399
季节 -0.1997115 -0.5768165 0.38625404 0.7778157 -0.5012856 -0.2882609 0.61647767 0.86347604 0.16229372 -0.13315102 -0.47949362 -1.0747161 -0.48218036 0.24800684 -0.6962965 0.5271181 0.49535474 0.1833186 0.019632181 -0.6159684 1.2011986 0.8194007 0.6077725 -0.7552046 -0.27055854 0.76438254 -0.5326045 0.06861643 0.28978673 0.36471978 0.17162633 0.3190383 -0.411875 -0.4509311 0.21648294 -0.26739052 0.36077684 -0.7584496 -0.44519117 -0.51632386 0.2477912 -0.5613337 -0.3994729 -0.09288454 -0.7453764 -1.170098 -0.40592855 0.16315569 -0.05174779 0.15739174 0.48001456 -0.16065146 0.7122418 0.5759826 0.49342564 -0.032746732 -0.3995422 -0.0801752 -0.0013271151 -0.15501092 0.1839917 -0.2560932 0.17053227 -0.31109956
适合 -0.40068936 -0.7192158 0.51075363 -0.20186204 0.46922186 0.27845207 0.5369195 0.79885155 -0.88539135 0.8423362 -0.19774592 0.25603855 -0.85888004 0.10128418 0.95417506 -0.15919791 0.25559303 0.88958657 0.1549681 1.1247872 0.17215185 0.3048685 0.4282526 0.17478132 0.4926101 0.46670017 -0.056495067 0.27478576 0.8539321 -0.09984507 -0.6124017 0.7511832 0.016676176 0.12197739 -0.026873898 0.24145007 0.79849446 -0.31163618 0.06893939 0.5196419 -0.98808676 0.18640442 -0.48038566 -0.8601706 0.684313 -0.42793813 0.16003682 -0.52764773 -0.4513591 -0.3243233 -0.34689537 0.41876116 1.0233524 0.90520746 0.9388129 0.47673914 -0.10075353 -0.6383047 0.12787534 0.47617197 -1.0434196 -0.9990825 0.20849611 -0.23372927
最 -0.089750685 -0.37356237 0.72557306 -0.14086099 0.07695884 -0.31046143 0.6459185 0.97128135 -0.94974357 0.690253 0.29407513 -0.36285248 -0.8478132 -0.5217605 0.95001006 -0.053169403 0.5409838 0.2571555 0.009700803 0.32803288 -0.014088858 0.8671531 0.20588441 0.23444468 0.63671505 0.5866912 -0.1491413 0.21843931 0.8803395 -0.14516035 -0.100915976 0.57877237 -0.6648611 -0.13408874 0.71253157 0.27248782 0.31884998 -0.525298 -0.20454477 -0.2872969 -0.74911 0.64181817 -0.60758954 -1.0262887 -0.14952463 -0.7499911 -0.08154438 0.0032988414 0.017437976 -0.12182883 -0.2635904 0.3947098 1.1733721 0.5336179 0.45382228 0.4300914 0.26459065 -0.6562792 0.20862292 0.3740242 -1.0120325 -0.64321613 -0.18733342 -0.29343805
时候 -0.66968054 -0.6566223 -0.07517981 0.03729405 0.5732277 0.23154351 0.5728491 0.5039484 -0.57851905 0.37670615 -0.19683418 -0.18940665 -0.54236376 0.48172235 0.19842945 -0.31673393 0.33397302 0.8160689 0.39326766 0.5639194 0.08828978 0.7266104 0.91083807 -0.0043615648 0.5233606 0.6139718 0.004550672 0.18880722 0.6433736 -0.086966 -0.06015792 -0.10497981 -0.27074897 0.56398505 0.27953967 0.19229735 0.5853169 -0.7465818 -0.4029761 0.27104798 -0.5786662 0.38624924 -0.29796886 -0.93908304 0.5320103 -1.1602302 0.17596704 0.0138119375 0.34999415 -0.31556195 -0.22233567 0.93643564 1.0367687 0.83946365 0.4441967 0.30860993 -0.36509323 -0.14910631 0.48105377 0.058893517 -0.29650256 -1.3594038 0.010276338 -0.18180308
必须 0.1329234 -0.613505 0.39794758 -0.073486 0.3652029 -0.27746624 -0.10935873 0.6884276 -0.08098454 -0.050561596 0.20626898 -0.9914082 0.11515002 -0.61326194 0.12026502 0.13412347 0.014429326 1.0703293 0.19833326 0.46831107 1.0954176 -0.170074 0.3412034 0.15065774 -0.28130475 0.8062286 0.051666394 0.0015952444 0.5769707 0.111394666 0.5014435 0.77649575 0.27033812 -0.64452046 -0.056413352 -0.5844075 0.5823849 -0.82814366 -0.176903 -0.15893412 -0.3977324 0.07858364 -0.45842963 0.35326955 0.30791998 -0.21961632 1.1318214 -0.881597 0.25538617 0.16198607 -0.81414807 -0.5437741 0.8371814 0.7179771 1.0540287 -0.55718297 -0.7994747 -0.556265 0.4984002 0.61064434 -0.3583449 -0.30677885 -0.9597487 0.21431465
这么 -0.125144 -0.66727054 0.30424708 -0.05319504 0.5496373 0.40819287 0.16873299 0.7056897 -0.573644 0.19950055 0.06805133 -0.927174 -0.15242727 0.21679175 -0.028465156 0.51009184 -0.29043326 0.8291778 -0.17234616 0.87302506 1.1800102 0.058568347 -0.25550428 -0.22846039 -0.7560347 -0.13172461 -1.0244423 0.25114763 0.487756 0.07703228 -0.08240328 0.581684 0.48202217 -0.661154 0.70681936 -0.6557295 0.78528696 -0.3931477 0.042079467 -0.39190686 -0.6894264 -0.21253724 -0.87067527 -0.024704747 0.19730291 -0.010755398 0.61964333 -1.0545824 0.18633544 -0.05080702 -0.33159894 -0.0860114 0.4545871 0.8677005 0.3509016 -0.16248684 -0.8583515 -0.4532859 -0.0962867 0.5101731 -0.043123383 -0.84400225 -0.21790712 0.52501065
吧 -0.7293121 -0.45030463 -0.8438738 0.2059345 0.29572827 -0.065843865 -0.35105836 1.1790668 0.09345383 0.47130233 0.7350228 -0.41696495 -0.5371447 -1.1433074 -0.18646841 0.871246 -0.20786999 0.9014942 0.28144926 -0.15100682 1.3434815 0.3035988 0.3926733 0.10687865 -0.21094184 0.16417006 -0.6152175 0.09768829 0.3593859 0.32491297 -0.79215014 -0.31694585 0.16034484 -0.45314685 -0.04052902 0.46769318 0.08465535 0.013197093 0.048777472 -0.55482316 -0.08207154 0.08318758 0.2823941 -0.07831232 0.63096976 -1.0579803 0.04784918 -0.47324625 -0.039879754 0.6236368 0.91087747 -0.3243169 1.1582245 1.1626456 0.802187 -0.2283229 0.57359904 -0.85825706 0.031431336 0.05139462 0.46162298 -0.009015658 -0.48346815 -0.22951673
刚刚 -0.9242515 -0.5730765 0.6572007 -0.47323933 -0.49996623 0.1947189 0.32820958 0.74134696 -0.37282613 0.407872 0.06991922 -1.0544424 -0.2622584 -1.1020442 -0.21751174 0.6039307 0.48094082 1.2302896 -0.16180117 0.15963368 0.03432418 0.7718363 1.1175073 -0.8721026 0.076065004 -0.1015798 -0.39426598 -0.09276594 -0.6490276 0.85991335 -0.45330596 -0.074964136 -0.18517263 0.28348455 -1.2342421 0.36825606 0.78037167 -0.090474844 0.016194565 0.29265425 0.18471828 -0.6647429 0.41634378 -0.5639713 -0.6827192 -0.6339277 -0.0018469279 -1.0227411 -0.16255285 0.6348669 -0.04459371 -0.41475296 0.7618947 0.8675339 -0.11591332 -0.35203165 0.08623232 -0.8144344 0.20549528 1.0727837 -0.1314497 -0.22217332 -0.67176235 -0.42293364
上 -1.2123505 -0.6553745 0.37783068 -0.56985474 -0.37138617 0.276928 0.06072957 1.1224974 -0.40269858 0.22246468 -0.1598658 -1.3058081 -0.21608429 -0.7614898 -0.1840602 0.9635847 0.1793551 1.0333557 0.15543738 0.024847277 0.4288697 1.0114379 0.438784 -0.6058304 0.11259811 0.110466495 -0.23309124 -0.4255904 -0.16047992 0.55163646 -0.7457388 -0.027188856 0.14407244 -0.38890854 -0.73923355 0.17453143 0.5364587 -0.47973114 0.3048757 0.49148896 -0.11926328 0.12481388 0.3125036 -0.63286567 -0.14041191 0.16345519 0.03685737 -0.019241767 -0.38776764 0.86605924 -0.055176716 -0.2706184 0.923004 0.33568442 0.30651662 -0.48502353 -0.09705678 -0.048426736 -0.36983633 0.81524026 0.34178588 -0.12278127 -0.22944044 -0.16727903
配 -0.5318637 -0.645535 0.18198876 -0.22762021 -0.26531184 0.17367521 0.35801336 0.8491299 -0.49285907 0.50375396 0.13942023 -1.0809973 -0.12599552 -0.61969304 -0.24955522 1.1046522 0.42599362 1.1418247 -0.17030789 0.32529762 0.15683475 0.50762534 0.1515131 -0.556577 -0.29508534 -0.5769967 -0.4602974 -0.043049525 -0.64058685 0.5449518 -0.6304943 -0.08905705 -0.1771661 -0.27311835 -1.0801727 0.15521762 0.73390645 -0.3442262 0.49063435 0.19150132 0.022452539 -0.39192683 0.1667187 -0.47534537 -0.32375732 0.16096768 -0.42353883 -0.688098 -0.759148 0.031908613 0.27015215 0.22958075 0.6752714 0.54372007 0.29614794 -0.60571647 0.62696004 -0.4861094 -0.427222 0.66196656 -0.34034497 -0.70253277 -0.12385247 -0.27779344
心情 -0.6125565 -0.750796 -0.10905408 0.44875503 -0.15720473 0.82997113 0.31422123 0.7657233 -0.322918 0.44096422 -0.038481265 -1.0652797 -0.25750348 -0.5539147 -0.8003251 0.8512065 0.2095101 0.3904219 0.17241344 0.0460503 0.16134766 0.491663 0.4401118 -0.45318273 -0.28641605 0.16648374 -0.20894155 -0.4178064 -0.54203653 0.31535518 -0.3595978 -0.41493917 -0.033388413 -0.1339858 -0.9714175 0.57220155 0.69195306 -0.27354133 -0.10885847 0.44368643 0.17286155 -0.19665302 0.488965 -1.045981 -0.37555584 -0.08077143 0.007583652 -0.37267545 -0.44629446 0.39666498 -0.29758596 0.06671699 0.5476115 0.2879674 0.21531564 0.20326836 -0.35435513 -0.52684706 -0.17752224 0.8050302 0.47341406 -0.8702687 -0.6079647 -0.049674768
夜宵 -0.3119091 -0.20185377 -0.45358762 -0.14205307 -0.66669965 0.35324547 0.33529887 -0.29067442 -0.20107877 -0.48490596 -0.16229683 -0.31053814 -0.38297364 0.13140765 0.3240112 -0.36362156 0.44187889 0.14652951 0.8880803 0.62053686 0.3462533 0.5758526 0.21272914 -0.052682724 -0.06331086 0.20323433 -0.6103171 0.16944057 0.027956521 -0.24800682 -0.17761199 -0.31400093 0.11648786 -0.1437562 -0.21462916 -0.49800843 -0.62687916 0.4085175 0.1320377 -0.39028654 0.5766245 0.53045475 -0.20345664 0.30568057 -0.013475175 -0.3798172 -0.32313612 0.008278047 -0.4250012 0.039964117 0.7179792 0.21657364 -0.42377603 0.49333692 0.21670988 -0.2327885 0.0030863495 -0.90453994 0.7505464 0.8965867 -0.28858054 -0.0073641804 -0.43131408 0.14714353
吃火锅 0.367561 -0.6121123 0.41722804 0.123063505 -0.5136222 -0.65495694 -0.71137804 -0.7788605 -0.7965194 0.7114672 0.32140175 -0.8144168 -0.13668452 1.310277 -0.14029256 -0.37250218 -0.18981262 0.48539963 -0.14264287 1.1387545 0.44891495 0.47507882 -0.4386131 -0.24983932 0.61351484 1.1629198 -1.0902175 0.15942635 0.24895523 -0.5922145 1.1857172 0.23328476 0.11520718 0.10465998 -0.6992527 0.73707867 0.46592873 -0.032617196 0.074763246 -0.15433237 0.070926204 0.06244514 -0.5389466 -0.909215 0.5763983 -0.89502656 0.8398278 -0.96866983 0.43865377 1.6309537 0.9937337 -0.35626143 0.014726372 -0.5304532 -0.45068437 0.9508921 0.21702217 -0.045881934 0.06480532 0.3968262 0.30037713 -0.123368554 0.1500007 0.012343468
夏天 -0.15880643 -0.34452248 -0.10786117 0.29175904 0.10408755 -0.29871503 0.21622983 -0.46370292 -0.84112716 0.5603286 0.66254133 -0.45967218 0.09078744 0.18645611 0.22302477 -0.024471404 -0.1868532 -0.21070337 0.023487223 0.75304574 -0.022746192 0.12102352 0.08193022 -0.26367018 0.41918233 0.22092411 -0.11304147 -0.15023306 -0.05519176 0.28414842 0.40758577 0.1792328 0.5238703 -0.10952676 -0.09610421 -0.117123164 -0.4630336 0.1205973 0.31803912 -0.7165355 -0.04041312 -0.09613116 0.37874594 0.15109111 0.0461658 -0.08538674 0.17653897 0.17854688 -0.1041252 0.48117083 0.65410244 -0.2720788 0.11025583 0.3670594 -0.36303842 -0.14231235 -0.0037762674 0.045975808 0.0069434587 1.1276898 -0.055815857 -0.33799616 -0.19107607 -0.39532575
不如 -0.087149106 -1.1653504 -0.5067045 0.41764426 0.5015819 -0.8448411 0.20816477 0.24243253 -0.0117217265 -0.036810424 -0.51018554 -0.9410541 -0.08067585 -0.9037251 -0.41102517 0.6590151 0.21631758 -0.064026445 0.17953885 1.4384109 1.2543246 -0.56035554 0.18369414 -0.8524367 -0.3907953 1.01568 -0.32774606 0.4425927 -0.39829847 0.74985266 -0.51850194 -0.32759324 -0.76316327 -0.1322262 0.46307707 0.33014274 0.07301289 -0.9218142 0.29471338 0.06586358 -0.1691225 0.56694335 -0.38928503 -0.17506486 0.36557817 -0.50453943 -0.018838307 -0.057699963 0.19042797 -0.049294684 -0.661138 0.54939985 1.1484343 -0.28599194 0.82668746 0.13034755 0.042524874 -0.45473617 0.0066692983 0.80848646 -0.716873 -0.5733045 -0.05612276 -0.30779594
睡觉 0.13343969 0.17763537 0.8631637 0.169195 -0.10009722 0.18185608 -0.05095439 -0.28329137 -0.6681847 -0.40461963 0.0020322008 -0.1986778 -0.65532756 0.22149546 0.19368345 -0.099881135 0.24484798 -0.33860487 0.8394357 -0.376242 0.23564047 0.650221 -0.34035677 -0.6364821 0.18228726 0.05437826 -0.19457033 -0.2979774 -0.09791866 -0.52160656 -0.0034059756 -0.7660021 0.06301557 0.7593184 -0.17313583 -0.36584535 -0.025346931 0.71802264 0.4848503 0.058531415 0.1853485 0.11282917 0.30636448 0.42424226 0.016598089 -0.6212683 -0.3868435 0.27298394 -0.24064502 0.11458903 0.66464245 -0.16055812 -0.5304052 0.21637137 0.66271555 -0.16171834 0.02760448 -0.26498297 0.44985035 0.8424771 -0.45397827 -0.14829965 -0.2518117 0.03945591
火锅 -0.35493302 0.8596969 0.3798185 0.93272114 -1.4931159 -0.37756914 -0.5727786 -0.9445755 -0.20472883 -0.1708369 1.6226827 -0.74596184 0.13166887 0.32209525 -0.31696168 0.29094285 -0.3306007 0.62686545 -0.26722467 -0.06989683 0.5856483 0.09263534 0.31085578 -0.31637672 -0.26731342 0.17895445 -0.7256555 0.23911072 0.2362416 0.14444149 -0.10863945 -0.42869925 0.08037461 -0.1532331 -1.2167023 -0.64067316 0.021989344 -0.5746575 0.42352486 -0.7770513 0.49019626 0.3212088 0.14337124 -1.1735481 0.48061416 -0.24189822 0.25426322 -0.09099575 0.12438635 0.8768099 0.23444064 -0.26361197 -0.10580204 -0.09533051 0.17968085 0.20388807 0.5685045 0.623512 -0.35244936 0.4647267 -0.26358736 -0.75908357 -0.70989645 -0.86750054
爱 0.4628768 -0.92337084 0.026156971 0.50092506 0.30030844 -0.68175113 -0.012987384 -0.10635856 -0.55646247 -1.7931912 0.45933613 -0.32026222 -1.3385311 0.28732672 0.6863561 0.74674076 -0.03275046 0.34453827 -0.7082052 -0.58405167 0.3033982 0.8545864 1.2812332 -1.1596508 -0.0074029085 -0.15629789 -0.023211863 0.085591055 0.49348614 0.7451226 -0.018671166 -0.14975297 0.43551916 0.40373382 0.35597557 -0.41343334 -0.3112646 -0.43485126 0.20119141 0.94898736 0.16292791 -0.23456512 0.001324316 0.20407659 0.0089333225 -1.7671012 0.6054563 0.20482367 -1.0254886 1.1036142 -0.37739906 -0.94384223 0.829628 1.4153491 0.19594327 0.23098189 1.0186539 -0.17059396 -1.6264929 1.004952 -0.51480293 0.26494688 0.0784688 -0.6807472
对 0.0032303203 0.16261764 -0.292452 0.6236538 0.03459938 -0.64180773 -0.31501567 0.034598514 -0.95304364 -1.3861016 0.56192994 -0.25605986 -1.5143161 -0.10189586 0.15880752 0.1255194 0.3927617 0.014500483 -0.06647332 0.44898906 0.18633907 1.2043575 1.2858255 -0.68244034 -0.53655386 0.107376605 0.11451486 -0.57741797 0.078016706 -0.11325202 -0.011003941 -0.6089923 0.6545593 0.16274412 0.79619676 -0.035688154 -0.48279858 -0.23822539 -0.1306779 1.0218028 -0.0064804563 0.050118573 -0.06902092 -0.34146348 0.018125286 -1.5268128 1.1274798 -0.23256615 -0.6328945 0.24912132 -0.90061677 -0.823083 0.7277882 1.2226431 0.38447142 -0.029523844 0.519887 -0.1106178 -1.5928874 0.15615879 0.23119889 0.33085564 -0.6010786 -0.454877
影响 -0.16665137 -0.11010361 0.061005756 0.3784951 0.22220784 -0.26842958 0.1798734 0.13013393 -0.15977564 -1.3757621 0.6175017 -0.4546936 -1.1893129 0.04785307 0.22395249 0.69282126 -0.107861206 0.16855341 -0.6588238 -0.25036964 -0.13142519 0.38941756 1.230925 -0.3402424 -0.031306386 -0.53403944 -0.10104775 -0.84131694 0.3704666 -0.1825403 0.69168687 -0.617893 0.25332212 0.4418082 0.035297867 -0.20055018 -0.01325523 -0.28263235 0.29153574 0.43987378 -0.2742697 -0.3107012 0.24829301 -0.4142569 0.40282738 -1.3043933 0.82485485 -0.0072154985 -0.8004695 0.5889612 -0.48863614 -0.68148047 0.059673104 1.4317349 0.09641078 0.32478637 0.42312586 -0.6735641 -1.3481889 -0.07645095 -0.39435926 -0.26774654 -0.016507227 -0.6322053
朋友 0.04814907 -0.31164867 -0.50942963 0.48567358 -0.8936792 -0.4973303 -0.1551464 -0.5048688 -1.0911053 -0.06684012 0.6346238 -1.1115483 -0.32991856 0.07797534 0.21846817 -0.0020358607 0.17846994 -0.2994565 0.36574304 0.4924936 0.7287892 -0.48052543 0.055339526 0.49594352 0.35526827 0.5191442 -0.6006092 -0.48711067 -0.07832805 -0.6761865 0.12686147 -0.500516 0.6577436 0.11680774 -0.41792923 -0.15324733 -0.5915558 -0.00021219879 -0.30477515 -0.4112028 0.12940241 -0.45686352 -0.23123348 -0.012179252 0.6292716 -0.746357 -0.045099914 -0.14280769 0.2532062 0.24492458 0.5410386 0.27990425 -0.16752273 -0.12765893 -0.19211473 -0.08963971 0.052973893 -0.95406216 0.23041335 0.4699434 -0.5525486 -0.38706517 -0.034287333 -0.33265632
健康 -0.03195311 -0.37138087 0.09816302 0.053280216 0.19265997 0.01692256 -0.7021706 0.6555999 -0.6929364 -0.20432256 -0.0169906 -0.37035432 -0.14219402 -0.0048025683 0.40421933 -0.56329906 -0.4064738 -0.051786836 0.3202111 -0.04846421 0.057055846 0.28352022 0.5875638 -0.24609526 0.22930528 -0.05058387 -0.109030806 0.14239016 -0.640554 0.24689832 0.3968415 -0.3609285 0.50007355 -0.17220229 -0.3276208 0.23217745 -0.15076639 -0.3652456 -0.08388977 -0.5325791 0.28304815 0.048357014 -0.12845477 -0.41635084 0.39518768 -0.41508764 0.2142726 0.10130744 -0.58675563 0.061521217 0.15922004 0.13851005 -0.9824435 0.5301335 0.07985557 -0.11706729 -0.12251841 -0.38339517 0.2078137 0.8790559 0.05103905 0.5160861 0.14437526 0.37639508
清淡 -0.17130628 -0.37831587 0.0116964355 0.4432657 0.02798549 -0.17495286 -0.7650486 -0.11765852 -1.223571 -0.19657548 0.7657425 -0.3735263 -0.27633777 0.0051325364 0.3907698 -0.23839876 -0.050060734 0.10717466 0.2624136 -0.38411385 0.5460319 0.40038386 0.510132 -0.20157167 0.4363045 0.03100762 -0.28756133 0.7528613 -0.21407947 0.036321953 0.505157 -0.08895354 0.12767912 0.30576226 0.10564543 0.5207492 0.19677016 -0.32546368 -0.33862373 -0.40692723 0.3760443 0.15810457 -0.37282994 -0.7615899 0.26346862 -0.39781767 0.51501465 0.51062167 -0.789626 0.5658066 0.22597662 -0.10264032 -0.45335793 -0.4056392 0.15662083 -0.34895775 0.10302851 0.027597968 -0.15438029 0.4504951 -0.16530548 -0.3845638 0.66709214 0.05171802
挡不住 -0.29834968 -1.5255313 0.029174898 1.2324737 -0.022493364 -0.26426595 -0.7155023 -0.24008977 -0.29514024 -0.8435478 -0.75892574 0.43072525 -1.4306048 -0.4884196 0.3470577 0.16720143 0.7850115 0.4977768 0.042534377 0.8702511 0.005546838 1.2361892 0.9321382 -1.4759433 0.30870503 0.20411271 -0.5231179 -0.82008165 0.29446322 -0.18600814 -0.7874841 0.5474728 0.20653719 -0.17418872 0.45066702 -0.45139068 0.69480944 -0.7772235 -0.21870723 0.39334223 -0.34592393 -0.31959134 -0.26014987 -0.77633107 0.85181046 -0.45673686 -0.55284053 -0.066887096 0.00070550607 0.3949642 0.4414356 0.021136787 -0.27337474 0.088721216 0.023349226 0.59984225 1.3346425 -0.65948755 0.31170708 0.037427437 -0.57051766 -0.15694991 -0.7325396 -1.1144273
诱惑 -0.1357545 -0.6923307 -0.41134006 1.2194176 -0.30438706 -0.81451815 0.08185463 -0.208791 -0.37864533 -1.0259469 -0.6960067 0.24171846 -0.94837064 -0.44184446 0.36550978 0.15133299 0.6252398 0.61951566 0.11191015 0.74023986 -0.2286156 0.8327367 0.9544809 -1.3030612 0.0709868 -0.071824975 -0.3313308 -0.4464056 0.198474 -0.46175742 -0.5197768 0.4462832 0.33908963 -0.5319826 0.7663427 -0.44552544 0.94791174 -0.6427286 0.2155584 0.6637372 -0.2212421 0.17801538 0.20452535 -1.0985042 0.36755595 -0.117911205 -0.62876606 0.15145537 0.58800197 0.39620212 0.42357776 0.09108127 0.11771091 0.3145243 -0.013576169 0.33075497 1.038796 -0.7940004 0.45955378 0.6369136 -0.6478539 0.116728924 0.20854366 -0.9299534
但是 -0.6591307 -1.5215565 0.23889235 1.2637901 -0.3428101 0.12358783 -0.7547938 -0.04009475 -0.12926021 -0.80889595 -0.5269796 0.12423358 -1.2188464 -0.37418985 0.20984128 0.47340885 0.28811324 0.26498777 0.39862496 0.867481 -0.23614228 0.9281531 0.07953593 -1.0978804 0.3005143 -0.23187396 -0.5270274 -0.24061407 0.0657029 -0.13532223 -0.8119676 0.5658371 0.070445105 -0.26958832 0.40811452 -0.46708918 0.12146174 -0.3649482 0.12932238 0.54520106 -0.36009073 -0.35092145 -0.4011334 -0.33572045 0.77825284 -0.43359596 -0.3486041 -0.12880886 0.5319141 0.26288024 0.21595502 0.47084618 -0.20430246 0.007907799 0.2539838 0.9981732 1.0504923 -0.6316073 -0.45272493 0.049656153 0.13029525 -0.65766066 -0.14979932 -0.56103927
宵夜 -0.30097255 -0.6347983 0.7090908 0.38850647 0.595345 -0.44741622 -0.7378893 0.32717085 -0.96590734 -0.44003752 0.5441606 -0.19282797 -0.5967282 0.12677513 0.32160032 -0.5912894 -1.090607 0.20937017 0.14159013 -0.08631063 0.2038228 0.399497 0.41503334 0.1796012 0.14076482 -0.032901205 -0.11953349 -0.49777266 -0.2217398 0.07408441 0.1349172 0.2914507 0.28783646 0.5154243 -0.37685823 0.5666232 0.33995423 -0.13411152 0.27474317 0.057751484 0.98977214 0.3069117 -0.14381349 -0.59512305 -0.0021840634 0.0031685496 0.63047844 -0.2053902 -0.2811263 0.28297937 0.68763405 0.11799279 0.106396884 0.09876488 0.3586076 0.23900443 -0.052182864 0.44589815 0.21427251 -0.09000902 -0.47595793 0.35449716 0.3311467 0.41989666
早上 -0.08502934 -0.0036849584 0.20683087 -0.4099614 -0.740477 0.14601637 0.030681498 0.081116624 -0.004075454 -0.29528704 -0.3193845 -0.04409464 -1.0232394 0.63643193 0.64750403 0.13196005 0.18697643 0.13876691 0.50633657 0.22746675 0.4313445 0.08190291 0.10318294 -0.6943835 -0.42295733 0.025470303 -0.41629887 0.041687082 -0.18116106 -0.19981423 0.38144898 -0.44393665 -0.81017196 0.2657077 -0.517088 -0.42260653 -0.14844474 0.42707276 0.72410446 -0.8956041 0.16469543 0.41532564 -0.11223962 0.0962796 -0.38240907 -0.053164374 -0.37787244 -0.068480715 0.23313764 -0.2562617 0.34827447 -0.2451851 0.50917053 0.21139383 0.9468277 -0.1403591 -0.31879258 0.072458476 0.8832024 1.2870909 -0.3082378 -0.09996176 -0.7585836 0.3138216
要 0.8244814 -0.29599527 -0.457341 -1.1947576 0.91135204 -0.526932 -0.26583913 0.1949583 0.03870138 -0.5201046 -0.27006918 -0.6018362 -0.3301765 -0.58804786 -0.033382837 0.7005862 0.6939917 -0.28767022 -0.5502123 1.2906926 -0.3189787 0.33319056 0.96206754 -1.1084881 -0.24016224 0.6621141 -0.88792634 -0.5422269 1.1486806 -0.46235317 0.21533112 -0.28130692 -0.10692404 0.34176666 -0.09871431 -0.84806967 0.06850141 0.043870885 -0.46221256 0.039898764 0.23588996 -0.050828993 0.16723707 0.13012736 0.49229893 -0.76620203 0.3909275 -1.1406637 0.6639949 0.3611892 -0.21177495 -0.6010039 -0.37603772 0.5908096 0.6973041 0.16315421 0.028397622 0.15640287 -1.1359868 1.1451386 -0.7166295 -0.018240444 -0.20889552 -0.43302515
就算 0.83843833 -0.58949876 -0.2899995 -0.99296063 0.051966585 -0.7973728 0.22654356 0.15583606 0.103199646 -0.60403156 -0.5711521 -0.8207154 -0.4506796 -0.18273163 -0.21377769 0.6074617 -0.13800244 -0.17251751 0.047919117 0.97338283 0.0023341444 0.3035253 -0.1542127 -1.0337367 0.018437127 -0.10770544 -0.20681551 -0.15429944 0.4575745 -0.55144924 0.32530478 -0.26928344 -0.44989264 0.20175293 -0.13083567 -0.83239824 -0.5597833 -0.30751908 -0.7585777 -0.005524365 -0.121224314 -0.78676856 -0.17006579 -0.19572425 0.5211429 -0.44483975 0.1603157 -1.103597 0.6966505 0.5529246 -0.07719099 -0.6144242 -0.420236 0.80365336 0.9990161 0.76043457 0.3324036 -0.12015422 -1.311517 0.79119545 -0.09801944 -0.6133471 0.35666782 -0.487897
还是 -0.18276939 -0.009674278 0.9361921 0.78707117 0.42265138 -0.099749744 -0.36716628 0.90655106 -0.69839966 -0.33829996 -0.50422126 -0.8819519 -0.7291313 -0.6430424 -0.6569361 0.90720403 0.14167549 0.53795165 0.2851001 0.69198185 0.28832927 1.7958015 0.46403742 -0.53947765 0.5987043 -0.22046012 -0.32063958 -0.7496775 -0.26365706 -0.60059863 0.24214083 0.49415976 0.7727842 0.015260572 -0.46525168 -0.26455346 1.0340751 -1.01592 -0.007056623 0.58460957 -0.2789644 0.9224418 -0.7403123 0.2404676 0.96146095 -0.4919839 0.7766906 1.3401661 0.5560792 0.44647303 -0.67026806 -1.536972 -0.11223085 0.52462184 0.11696117 0.37705258 -0.24760112 0.066188686 -0.0010591606 1.0105823 -0.5158284 0.28038618 0.42433095 0.19993131
但 0.8818068 -0.22913086 0.46115804 0.7350939 0.52623343 -0.17927921 -0.09371924 0.7229167 -0.7876609 0.036752023 -0.12895261 -0.6504199 -0.6367113 -0.49607512 -0.83345497 0.6302818 0.31798086 0.65402883 -0.5661765 0.67693514 -0.119980596 1.001585 0.35004348 -0.6220513 0.020932209 -0.5900923 -0.31787285 -0.26971734 -0.8001613 -0.83887285 0.5065173 0.22797844 0.6012006 0.3858081 -0.80694556 0.21156995 0.8797492 -0.56213754 -0.106395565 0.115185075 -0.37915942 0.5317732 -0.7015588 0.15591915 1.0013968 -0.5508321 0.3624303 0.795401 0.25224358 -0.30999437 0.2391067 -1.5645577 -0.20671466 0.6332488 -0.059196215 0.3645068 0.30360743 -0.5632131 0.18785949 0.88599277 -1.0783885 -0.044063527 -0.0025867347 0.29197615
虽然 0.1973867 0.052022744 0.48071033 0.6266559 -0.020963661 0.2269927 -0.071681775 0.65311253 -0.17098677 -0.34492564 0.008792231 -0.80265605 -0.36397928 0.038558967 -1.4124845 0.64094466 -0.50843453 -0.26732975 0.5510685 0.40954342 -0.03634991 0.9606896 -0.22614704 -0.6781115 1.0210054 -0.2206617 -0.37507463 -0.5196145 -0.5438727 -0.43702176 0.08583746 0.20496094 0.44620904 -0.0015851238 -0.34317335 -0.1896351 1.3028204 -0.8475514 0.19862942 0.40260953 -0.29713434 0.40178612 -0.6165173 -0.1771574 0.64524835 -0.5938708 0.22548984 0.49640942 0.7853007 0.19380258 -0.1568475 -1.1406448 -0.08031682 0.6095709 0.37735534 0.4851141 -0.2522718 -0.6143769 -0.43020836 0.8849121 -0.5375683 0.062071957 0.38213444 0.27441955
提神 0.68905824 0.1375798 0.67348784 -0.17893061 -0.44354108 -0.008687051 -0.15098557 0.15922563 -0.26211715 0.03341447 0.13801666 -0.53894407 -0.25758934 1.0997738 1.0727854 0.12968656 0.37133023 0.04231163 0.9080675 -0.21774752 -0.059659503 -0.36453915 0.20918658 -0.8458885 -0.35236207 0.015123677 -0.025912637 0.24264461 -0.3308713 0.24071813 0.7518586 -0.519134 -0.8033134 0.21610987 -0.5948994 -0.7659066 0.61006624 0.39929178 0.78100026 -0.063207574 -0.83824927 -0.09537493 0.0055668415 -0.5984266 0.25274196 -0.4545551 -0.24656217 -0.47982973 0.005058885 0.18064216 0.33668968 -0.37917948 -0.21154422 -0.20478974 0.40063062 0.101248406 0.20963402 -0.042935908 0.3481143 0.32285604 0.27590203 0.37608624 -1.2192713 0.8062607
暖和 0.25791326 -0.08493073 0.5385328 0.02409269 0.19407327 -0.20188554 -0.47172973 0.31864312 -0.6493344 -0.74117273 0.7373222 -0.5021632 -0.33706474 0.6777833 0.33734345 -0.45312312 -0.31971744 0.48465443 0.3311109 0.7899819 0.5585411 -0.45146316 0.62615937 0.1988931 -0.36875314 -0.41350532 0.33277136 0.033224005 0.20309189 0.114036575 -0.22200584 0.4439109 -0.12722805 -0.43131194 -0.2902261 -0.4391719 0.15087827 0.37961268 0.27815056 -0.41530713 1.0698979 0.047381267 0.18557698 -0.44714564 0.69628143 -0.33597833 -1.2728527 -0.6180043 0.46405125 -0.31007192 0.7254604 -0.02444353 0.28479323 0.5513561 0.03576594 1.2657682 -0.1708726 0.048650853 0.23918559 -0.102418914 -0.5089281 0.34806025 -0.67500615 -0.5853069
气 -0.2572168 0.2473338 0.4260722 0.002364566 -0.28576374 0.19187805 -0.51525396 0.25944602 -0.87696975 0.19800486 0.71573377 -1.1653811 -0.31427968 -0.09361168 0.045681793 -0.516268 -0.5223849 -0.6494943 1.1308059 -0.365802 0.7432806 0.2725682 0.5147149 -0.17647876 0.13535346 0.032749105 -0.08214825 0.5093779 0.61947733 -0.290387 0.42405227 -0.7824956 0.57718587 -0.07544074 -0.6701263 -0.3260643 -0.6952505 -0.60013014 -0.12355866 -0.40000096 0.29688022 -0.8574462 -0.13934353 -0.5739243 0.6325871 -0.23427773 -0.28649443 0.6567029 -0.6554879 0.3019968 0.31227925 0.005695678 -0.3072392 0.8680571 -0.27123117 -1.1358439 0.067393996 0.036098987 0.2296013 0.9805442 -0.81713945 -0.37738034 -0.007604567 0.62238634
烟火 -0.5468138 -0.09330695 0.36092937 0.65947175 -0.22275057 0.45193055 0.14829572 0.2552961 -0.4435782 -0.3582024 0.6711152 -0.8022377 -0.42026964 -0.091073334 0.44913045 -0.5836588 -0.89793396 -0.24892223 0.9616481 -0.34235328 0.57068545 0.45252204 0.085077934 0.05726516 -0.3202024 -0.2605348 -0.47431192 0.39959785 0.22037248 -0.60297036 0.6215083 0.020223727 0.773837 -0.10088362 -0.86761016 0.07187209 -0.6177068 -0.26031473 0.2075836 -0.6058297 0.5342463 -0.65385395 -0.21049838 -0.6774162 0.33573288 -0.78963023 0.02640014 0.42712668 -0.11884771 -0.18532927 -0.32826498 0.15575315 -0.15971361 0.58841157 0.3297648 -1.1505183 0.057027496 -0.07984886 0.341483 1.1251358 -0.6033328 0.15706761 0.019703208 0.3589266
就要 1.2276449 -0.0017681421 -0.94164616 1.2127196 0.73591185 -0.27721632 -1.1037596 0.674663 -0.7105375 -0.6646287 -0.12713201 -0.59207815 -0.8584637 -0.7911493 0.8116424 0.6088006 0.6720125 0.13766284 -0.2636999 -0.40093392 0.7305254 0.77816105 0.51095897 -0.56982166 0.5156487 0.35170823 -0.36014017 -0.5968365 -0.29849932 -0.11422255 0.22759944 -0.58335 0.3830676 -0.20862253 0.5413752 0.4344328 0.49291384 -0.84274536 0.9397409 0.25861028 -0.6889518 -0.032843485 -1.1592667 1.0592586 0.9456247 -1.6570271 0.56114185 -0.043670222 0.33981115 0.13827696 -0.667336 -0.32388517 0.27967098 0.99422455 1.2105489 0.7097036 0.3598012 0.17743962 -0.4320587 0.5288321 -1.070764 0.16951816 -0.16404463 -0.1142805
晚安 -0.3897326 -0.28325358 0.5081999 -0.040693156 -0.2468827 -0.08843741 0.27186105 -0.20110404 -0.09771455 -0.66223675 -0.27454466 -0.4146982 -0.29982075 0.5029003 1.5484242 0.38423178 0.79325765 0.099618815 1.0793076 0.44750628 0.22913718 0.0105788605 -0.08888184 0.12296745 -0.04053088 0.12081202 -0.11596551 -0.6148467 -1.005478 -0.5675683 -0.32996717 -0.6040744 -0.8858139 0.50899357 -0.04282506 -0.135499 -0.48311654 -0.33415762 -0.026885921 -0.2899036 0.37846452 -0.07150406 0.1388302 0.4789805 -0.24253997 -0.38035175 -0.7077464 0.6380656 -0.16603339 0.37230888 -0.0033056042 0.1295083 -0.64675486 0.4941036 1.1042943 -0.1285161 -0.5013998 -0.5544563 0.9442359 1.0148238 0.045318615 0.048721418 -0.2912298 0.36936593
管它 0.986592 0.12738365 -0.17909595 1.1471202 0.23895106 -0.14940038 -0.53112346 0.70923233 -0.24809277 -0.25047895 0.116121046 -0.90670633 -0.71565515 -0.10100129 0.018640894 0.39296857 -0.19999953 -0.08051467 0.012244179 -0.17615147 0.4998457 0.2112975 0.33490375 -0.5395316 0.546667 -0.05251419 0.032303683 -0.6044747 -0.09934762 -0.89999413 0.22866702 -0.9515293 0.105658285 -0.14088963 0.9951291 0.35998887 0.37202314 -0.7340886 0.48392344 0.2379311 -0.7180005 -0.524727 -0.9429101 0.5542989 0.5589138 -1.1248064 0.055591878 -0.11263126 0.027240705 0.39743268 0.09318913 0.40861818 0.034242388 0.9202014 0.974986 0.9597474 0.21609978 -0.5743011 -0.54036826 0.060958914 -0.5811969 -0.32434952 -0.24831538 -0.05877819
减肥 -0.08004594 -0.2741378 0.02375484 -0.17272134 -0.20354761 0.007336409 -0.32098597 0.21413137 -0.7029741 -0.064100176 0.7901237 -0.016934242 -0.3791966 -0.12439845 0.8265527 0.097091 -0.4640327 0.37292778 0.35117835 0.1575449 0.12584737 -0.19365402 0.48679355 -0.7237928 -0.124739654 -0.3310659 0.016835669 -0.13429016 -0.8442001 0.43712106 -0.0267354 -0.54087865 0.12652402 -0.19708665 -0.38152206 0.31335858 0.0029689756 -0.79786795 0.63017917 0.23011915 0.73862106 0.25774485 -0.6550766 -0.42183623 0.46577248 -0.24228959 0.7803719 -0.76204103 -0.42786914 0.25499505 0.9109002 0.7462074 -0.7036959 -0.13458031 0.40187433 -0.031252537 -0.3022986 -0.17274906 0.492041 0.6381826 -0.36079374 0.9559214 -0.1242413 0.7417991
面食 -0.07703221 -0.33889553 0.82520646 -0.46960193 0.9166635 -0.15120238 -0.5402823 0.6142053 -0.9282732 0.15311141 1.0177366 -0.2818617 -0.23697117 0.33022475 0.6200628 -0.3386985 -0.24823774 0.23597595 0.85029346 0.3928299 0.15433039 -0.20436183 0.4960007 -0.3050239 0.23046628 -0.37084287 0.39789733 -0.44793865 0.32296178 0.2913793 -0.5249306 -0.01933574 -0.6294546 0.37954372 -0.6076413 0.5047407 -0.47488472 -0.4156347 0.38809916 -0.20010206 1.3195157 0.031403933 0.6912241 -0.94674844 0.3561558 0.092455745 -1.2835304 -0.12384064 0.16935255 0.21896711 0.2111088 0.16215673 0.14193484 0.46769595 0.0068792747 0.78832525 -0.1723545 0.4878988 0.25878322 0.39668503 -0.368202 0.1282063 -0.5015495 0.24469793
晴天 0.2036513 -0.15032262 0.49349776 0.45300478 0.6691418 0.11116759 -0.48253894 0.019467806 -0.61311996 -0.7378399 1.2177626 -0.44923815 -0.30831444 0.32115066 -0.026277095 0.06927556 -0.7755586 0.42531383 0.34533867 0.3558769 0.21684879 0.25858143 -0.1552343 0.086584605 -0.12140228 -0.1634165 0.34025317 -0.2482039 0.31242642 0.5453076 -0.5486341 0.20964168 0.027434353 0.24584211 -0.53137493 0.37235907 -0.59450793 -0.026895782 0.55905247 -0.75422525 1.2355074 0.1914662 0.95626336 -0.6918613 0.08121329 -0.0786082 -0.5210587 0.003972553 -0.023185438 0.14013861 0.58866775 -0.4360459 0.26986292 0.5608662 0.6821839 0.6162142 -0.010586614 0.2783155 0.6456012 -0.14489412 -0.11751348 0.4319712 -0.19582585 -0.2087555
高温 0.20786151 0.12062004 0.2967228 0.0901121 0.4504025 -0.6271122 -0.07731758 0.13435936 -0.22977524 -0.642664 0.27755728 -0.38035122 -0.034598473 0.9010759 1.1900152 0.15603714 0.0731802 -0.3952678 0.5346532 1.118271 0.086084425 0.05317812 0.1710032 0.11965737 0.35613 0.648095 -0.5849853 0.2134608 0.35732538 0.08994897 -0.5397851 -0.07734515 -0.5617497 0.18968382 -0.7849147 -0.07098687 -0.67414945 -0.028580897 -0.7334353 -0.5872047 -0.888914 -0.1310432 0.84701425 -0.03433393 -0.110222116 -0.077105425 -1.0252128 0.14560999 -0.013713259 0.36766377 0.3472184 -0.7069648 0.16786532 0.4944989 0.5160428 -0.008235075 0.023214955 0.044077728 0.07344371 -0.2906336 0.3197681 -0.21588378 -0.638644 0.23664798
户外 -0.05324867 -0.035223976 0.1740358 0.12316157 -0.24376082 0.6124358 0.36981454 0.081046015 -0.4706805 0.32325056 0.6031129 -0.6982469 0.11944796 -0.25885162 0.39597857 -0.64879197 -0.12173101 -0.19955671 0.9825525 0.7703599 0.65731585 0.28859803 0.5379327 -0.11239927 0.059330437 0.35569325 -0.54783434 -0.16995718 0.066635944 0.020249028 0.107258946 0.22700378 0.8609128 -0.61801946 -0.6330436 -0.075202994 -0.487484 -0.2528697 -0.076633535 -1.1056836 0.4822125 -0.337048 0.123836845 -0.047522623 0.222224 -0.6955269 -0.4632723 0.46210125 -0.66174257 0.32761627 0.87875104 0.07049595 0.07209173 0.42465365 -0.22356488 -0.6501006 0.12350612 -0.132182 0.51373094 1.1932498 -0.10859517 -0.115362786 -0.19956416 0.30491176
健身 0.20343189 0.7108388 0.24043001 0.3636963 -0.278729 0.07408192 -0.21330296 0.575781 -0.3961094 -0.16117956 0.65256596 -1.0526172 -0.055932272 0.3735005 1.0025628 -0.23399583 0.1230675 0.48001307 0.22222553 0.6413541 0.15523843 0.3456799 1.0410421 0.18176489 0.26633358 -0.040948413 0.09986258 0.82306314 -0.74037474 0.8161504 -0.057530824 0.31810087 -0.18205042 -0.7470039 -0.7420217 0.052835137 0.47077262 -0.570296 -0.051594026 -0.19427983 0.073997915 0.5705073 -0.2504787 -0.5460283 0.16865845 -0.48482952 0.22235484 -0.6917591 -0.57350266 0.05120757 0.6252608 0.021031367 -0.94310623 0.28501937 0.36697453 0.29233816 -0.38756785 -0.62946254 0.76509434 -0.3763238 0.4532575 0.21364611 0.06603936 0.4040726
凉爽 0.13408113 0.27679428 0.60565734 0.7565704 0.31704727 -0.33817214 0.10660095 0.15468872 -0.6672092 -0.20587938 0.28594363 -0.55676746 -0.11146425 0.6309051 1.3926308 0.30054352 0.14979546 0.32832247 0.6822138 0.90637475 0.26264516 0.6392823 -0.03399028 0.55523837 0.17545064 0.41800535 -0.49569026 -0.3463903 -0.029478794 0.23063396 0.064854726 0.22753869 -0.24980256 0.07660319 -0.9155774 0.11385268 0.2812255 0.2600906 -0.049899388 -0.6333477 -0.6764397 -0.16186336 0.9650507 0.33953622 -0.36610144 -0.12785159 -1.1031543 -0.047602694 0.24236414 0.48309588 0.6313258 -0.4993049 0.07965034 0.27763256 0.48077884 -0.17117023 -0.5493371 0.16872841 0.07840817 -0.34803566 0.48326015 -0.29882735 -0.3481191 -0.17961149
解暑 0.20614593 -0.18060592 -0.52567714 0.5868617 0.21603711 -0.31563598 -0.31798857 0.039192665 -0.37889683 -0.36950073 0.050276034 -0.8503741 0.18187568 0.82940346 0.6659428 0.36749637 -0.45659435 -0.22586523 0.6447769 1.1823145 0.3612393 0.2283774 0.3731922 0.06853331 -0.10495203 0.1609108 -0.39613387 0.08469969 -0.31143275 0.52302355 -0.076350525 -0.05246438 0.3184021 -0.20902304 -1.1178678 -0.4343542 -0.60867363 0.22486998 -0.039375115 -0.8473494 -0.5110631 -0.22249752 0.59674263 -0.00057146396 -0.5861506 -0.043037098 -0.62603825 0.23583412 0.53295726 0.3154451 0.17465255 -0.6101044 0.8981763 0.11350678 -0.24516772 -0.11979446 0.21694428 0.27383253 -0.14898743 0.7208897 0.055836726 -0.1053455 -0.8461386 -0.20843166
聚会 -0.13672443 -0.08796915 0.0582834 -0.1118466 -0.61792314 -0.018177444 0.54068613 -0.304125 -0.359153 -0.1458673 0.51656723 -0.67667663 0.43600047 -0.13821723 0.36763588 -0.5673965 0.2767462 -0.47339004 0.771056 0.8503735 0.594354 0.19226262 0.72426754 -0.15138942 0.09228693 0.10771388 -0.43796936 0.14858559 -0.1688639 -0.05595648 -0.55379444 0.4094622 1.004492 -0.81537604 -0.89720595 -0.12287571 -0.06573373 0.2734398 0.25033388 -0.14699611 0.34984404 -0.25851285 -0.30352893 0.34283984 0.7339415 -0.046112362 -0.7746405 0.30673435 -0.40569657 0.726296 0.14959282 0.07488336 -0.22616988 0.32418784 -0.10919722 -0.68562335 0.09251669 -0.2993377 0.52790767 0.7274316 0.25282824 -0.29531127 -0.8206988 0.6467268
油腻 0.33804467 -0.3545974 -0.09829153 0.72359765 0.02900708 0.2029283 -0.29056272 0.0316241 -0.24349278 -0.6366236 -0.40323642 0.24737716 -1.1518677 0.29421294 0.3141192 0.17747499 -0.52215046 -0.09197564 0.27589056 0.30816978 0.11489188 1.0718226 0.2673535 -1.0927287 0.27384433 -0.15044123 -0.83191645 -0.40532503 -0.78647727 -0.41090083 0.1009398 -0.79578006 0.06398015 0.505542 -0.07797241 -0.17936043 -0.16044068 -0.5295876 0.22048438 -0.2932221 0.43825006 0.23263125 0.095384896 0.15797368 -0.4053032 -0.26976633 0.94207454 0.33976117 -1.0898516 0.6640038 0.44555193 -0.12978695 -0.8864774 0.12712798 1.1226572 0.36290142 -0.05505793 -0.5875101 0.4842535 0.8251203 -0.37649643 0.31036597 -0.03842889 0.041295417
冷饮 -0.33056116 0.17524332 -0.15956545 0.49826983 0.6903219 -0.5977442 0.07839255 0.41393664 -1.0613428 0.5911088 0.8073984 -0.84394115 0.20085482 0.8374235 1.5359783 -0.0131588625 -0.5582764 -0.31093475 0.2870148 0.8038401 0.7665861 0.33091742 -0.26735896 0.021827172 0.6873427 0.25137967 -0.34931147 -0.041027695 -0.2913788 0.22079013 -0.23189433 -0.5955074 -0.4700325 0.32507563 -1.2127264 0.80423015 -0.37114075 -0.29538015 0.2087164 -0.22834432 -0.4178297 -0.65641344 0.44358122 0.29573908 -0.76780087 -0.29726484 -0.22158116 -0.17242615 0.5815812 0.8616923 0.13035767 0.42551133 0.8169702 0.12509231 0.1976632 -0.17112423 -0.012928198 0.32934898 0.08564382 0.5112138 -0.28501034 -0.47630817 -0.1196282 -0.14029895
热 0.26710895 -0.068768226 -0.30495292 0.7872292 0.15005393 -0.29884404 -0.1489095 0.3974893 -0.41411594 -0.28193387 -0.08714454 -1.1855096 0.5022131 0.9461581 0.92455524 0.25737497 0.019013539 0.013886469 0.6933189 0.92550975 0.95286995 0.36234882 0.742188 0.29042095 -0.2769313 -0.0026533399 -0.1269575 0.19685276 -0.4735684 0.20716216 0.23937696 0.115587786 -0.16539817 -0.48992497 -0.84402496 -0.37614015 -0.14559153 0.22409031 0.15151064 -0.6146894 -0.28872266 -0.24015231 0.5218287 0.23986425 -0.6433541 0.021417147 -0.8690666 0.3695922 0.04438511 0.44131005 -0.054635655 -0.5025558 0.678842 0.12605752 -0.047444373 -0.24189748 -0.27824816 0.0948683 -0.105438106 0.1862046 0.57711583 -0.05236131 -0.49478972 -0.09671671
辣 -0.30633858 -0.69294685 -0.04102838 0.4391523 -1.1058524 0.1404625 -0.57408535 -0.80349594 -0.27463657 -0.41446632 0.84043807 -0.420151 0.37121382 0.591879 0.6905192 0.30234763 0.59723014 0.8894619 0.27583763 0.83197546 1.6144015 0.24547632 -0.16218823 0.3039777 -0.09233276 0.014663121 -0.28507617 0.39263764 0.36667284 -0.29271936 -0.09620778 0.30904213 0.7153076 -0.10015733 -0.9477029 0.47911003 0.6638586 0.48998758 0.19787504 -0.14997354 0.6447122 0.6846761 -0.0924333 -0.35886815 0.59804374 0.23727532 -0.62251425 -0.77786183 0.3098067 1.0014505 0.32740036 -0.65796995 -0.14016466 0.04326046 -0.16723675 -0.085551634 -0.20584835 0.3376201 0.11040285 0.53490853 0.12945119 0.0837095 -0.5745667 -0.42260453
熬夜 0.42333466 0.37024686 0.62603545 0.18688163 -0.19173948 -0.06815332 -0.38433874 0.12347528 -0.8633511 -0.18663305 -0.014049238 0.024356281 -0.7408533 0.7166722 0.99949884 0.071952954 0.18892044 -0.015221116 0.93958884 -1.1058534 0.6098482 0.5020328 -0.48185033 -0.8081537 -0.29791367 0.5973554 0.010205468 0.12289202 0.27351698 -0.53667545 0.45263088 -1.0959893 -0.53638977 0.71605426 -0.6206804 -0.648062 0.07063035 0.46486247 0.53534085 -0.28621647 -0.42438212 -0.19783765 0.2211965 0.1845631 0.05702043 -0.41975895 -0.16897434 -0.62291425 -0.07673871 -0.73832786 0.29257017 -0.3011097 0.35501072 0.48581684 1.0813843 -0.2605154 -0.26104116 0.14204144 -0.13914567 0.8094355 -0.50427645 0.12808119 -0.42007303 0.62510663
营养 0.20148832 0.36129382 1.081982 0.058525126 0.27787566 -0.16344544 -0.7039455 0.7663836 -0.5493629 -0.43249014 0.36561835 -1.2550694 -0.40279028 0.70220083 0.008271523 -0.4186694 -0.33797282 -0.1074486 0.1840675 0.47469538 0.3178463 0.11426213 1.3077568 -0.6166519 0.16088685 -0.6334533 0.37496692 0.7287988 -0.66127133 0.31040788 0.1912614 0.14132014 0.21916385 -0.5320267 -0.3965558 -0.43527725 0.20203681 -0.7824626 -0.3250082 -0.66727465 0.3532328 0.2731167 -0.6955624 -0.6664405 -0.14935745 0.25049928 0.08644098 -0.075482 -0.32428133 -0.0587288 -0.3440272 0.06564354 -0.23285773 -0.21470419 0.11985207 0.10635692 -0.27774677 0.045000028 0.6502237 0.69804066 0.08484328 -0.16809604 -0.046425026 0.4542035
热乎 0.71982294 -0.6748363 0.568761 0.7768972 0.1750675 -0.48718822 -0.822635 -0.23476073 -0.2554784 -1.0858704 0.43959644 -0.6734868 -0.99943507 0.39718464 -0.2424255 -0.11101595 -0.081691206 0.33508474 0.37363827 1.2319707 0.66987157 -0.5648921 0.6887624 -0.143345 -0.7177616 -0.3114353 -0.28130534 -0.23498872 -0.43453908 0.2325451 0.2192867 0.8835387 -0.111743525 0.07761271 -0.2602101 -0.29946032 -0.42325154 -0.43965235 0.5648136 -0.94879776 1.0629349 0.07901399 -0.049950574 -0.5256591 -0.11748413 -0.57683045 -1.1795866 0.14189903 0.25313082 -0.37970403 0.10599073 0.12764381 0.19712833 -0.18674134 0.058705196 1.0622544 0.033099737 0.048601046 0.46432707 -0.039558228 -0.3390289 0.4231048 0.25743297 -0.75132686
寒冷 -0.28919384 -0.4500805 0.78126085 -0.008509772 -0.8203504 -0.46885955 -0.22450556 -0.16031778 -0.5600722 0.071364865 0.5665418 -0.80410475 -0.26967487 0.7065488 0.10549424 0.4974123 1.1841606 0.14266245 0.40630826 0.8821343 1.6381841 -0.2410503 0.47069067 0.23886774 0.18445711 -0.032330524 -0.9289389 0.07929377 0.1922967 -0.7291777 0.8127841 0.23331869 0.1302092 0.69190353 -0.7952041 0.12917173 0.47420734 -0.20119272 0.18599913 -0.41880852 0.50628656 0.1890307 -0.22422086 -0.58380574 -0.11859138 -0.21072187 -0.7718879 -0.3712709 -0.026065981 0.7170286 0.0765481 -0.41006547 -0.70535785 -0.5552392 -0.49352768 -0.35033712 0.1815062 -0.43854612 0.2290722 0.13838819 0.49379867 -0.29509798 -0.5425084 -0.1308693
蔬菜 0.4615025 -0.0043943943 0.45805442 -0.29862306 0.4124768 0.31377438 -0.85907793 1.4087971 -0.44435948 -0.42518517 -0.20914085 -1.0628201 0.043987643 0.62500626 0.5322179 -0.43934745 -0.0843533 0.02409507 0.3614585 0.5944612 0.55876106 0.2871067 1.2375784 -0.088586725 0.119312756 -0.3039577 0.38760895 0.050824936 -0.9762183 0.45648375 -0.082120985 -0.29594168 0.08060165 -0.13015506 -0.5147014 -0.34718043 0.45181528 -0.25839224 -0.755196 -0.8329537 0.32452604 0.2879981 -0.06782338 -0.3455591 -0.3543741 -0.2791168 -0.36434832 0.03386662 -0.3727614 0.2619406 0.0540895 -0.17388754 -0.7978178 0.47965723 0.37354293 0.1221822 -0.1390047 -0.24415977 0.4704572 0.541105 0.4402269 0.4833591 -0.38545948 0.62614733
啤酒 0.07021452 0.22285464 0.7446245 -0.11250008 0.014629735 1.0959091 -0.59740853 0.32656306 -1.157383 0.08208907 0.7432188 -0.8109511 -0.17771453 -0.009033778 0.894269 -0.30728525 0.027557468 0.023882596 0.7167185 -0.047270626 0.4619988 -0.09000987 -0.0151405465 -0.439259 0.4132785 -0.19532505 0.28544185 -1.0153956 -0.071659066 0.063330084 -0.034225795 -0.35709122 0.9165787 -0.13265248 -0.6275302 0.4914299 -0.060685232 -0.7639549 -0.23954663 -0.24783339 0.6224386 0.03888015 -0.5932585 -0.753358 0.9094643 -0.97458595 0.1891505 -0.43848494 -0.17342731 0.7358808 0.07093698 0.13176818 -0.81082386 -0.10647749 -0.04517421 -0.25324878 -0.057590872 0.26154086 0.42587325 1.0122184 -0.6420339 -0.05522779 0.22614112 1.0458447
苦 0.1870907 0.04176319 0.21202902 0.013602708 -0.46491066 0.07403295 -0.7358011 -0.05580226 -0.63734066 -0.39536315 0.2753388 -0.6393593 0.22211702 0.9307657 0.9904834 0.21825989 -0.1512278 0.37559235 1.1296753 -0.27800167 0.73056513 0.13183478 0.53807145 -0.31565964 -0.73638135 0.26489398 0.16292453 -0.22621806 -0.25678948 0.165639 1.0194374 -0.14859733 -0.45443586 0.3389229 -0.29160365 -0.22946414 1.0471787 0.7104778 0.9875779 0.22771329 0.008340003 -0.11118389 0.5012579 -0.39938778 -0.9709358 0.25531995 -0.13616069 -0.38711995 -0.26821548 -0.56835043 0.20325212 -0.94100916 0.5505371 0.0756393 0.23058686 -0.18203984 -0.27455786 0.32194003 -0.68541753 0.45692477 0.14944011 -0.10522899 -0.685923 0.68804747
冬天 -0.068867646 -0.5207474 0.44742283 1.0002366 -0.3789001 -0.38331565 -0.45194066 -0.80370975 -0.31322372 -0.6030651 0.77997524 -1.0596832 -0.09555508 0.40471852 0.8979933 0.38141868 0.073849946 -0.2264727 -0.37552714 0.60830575 0.55115014 0.7579866 0.07896127 0.3528709 0.44029567 0.658483 -0.30989677 0.30540836 -0.2524887 -0.49365103 0.09679662 -0.91819084 0.67637 0.63342863 -0.63502383 0.4705759 0.19782768 0.1955073 -0.694454 -0.42414 -0.7830386 -0.17076288 -0.49026638 0.67151505 -0.43667397 0.56474257 -0.22914886 -0.40923667 0.4309527 0.79474473 -0.45481998 -0.6512997 -0.6156983 0.4010714 0.40088448 -0.91344625 -0.5036369 0.3216707 0.30020943 0.63466424 -0.22232811 -0.37770203 -0.046210777 -0.045874406
麻辣 -1.2845769 -0.17944609 -0.4634732 -0.034324177 -0.6213196 -0.39469194 -0.213893 -0.586788 -0.7976557 -0.30798984 0.8665645 -0.61890936 -0.46623433 0.18609054 0.76464826 0.030455356 0.17203136 0.10255361 0.49186626 0.23867339 0.8962683 0.2021174 0.32488358 0.054492194 -0.080914095 -0.17381014 -0.62429506 1.2592509 0.005442408 -0.20968464 -0.25385144 -0.29683274 -0.380706 0.19428901 -0.70989776 -0.18058014 0.26084802 0.5733892 0.2145719 0.29821545 0.82095987 0.47123 -0.082885504 -1.3849511 0.48417282 0.4329437 -0.39556202 -0.112147376 0.42352214 0.8385007 0.2853069 -0.2697541 0.23234668 -0.3116199 -0.21790951 -0.26313058 1.0430328 -0.5676172 0.42801523 0.9117922 -0.27746668 -0.8286536 -0.7055987 -0.49598417
咖啡吧 -0.4375642 0.2921681 -0.05181881 -0.08411456 -0.19797963 -0.57838994 0.22000653 0.9196211 -0.9164704 -0.09677458 0.5838771 -0.7288858 0.20462714 0.16801602 0.53981763 0.58633333 0.11229409 1.3252887 0.5363213 -0.47663644 1.6465359 0.0987649 -0.881553 -0.38070902 -1.4097505 0.9761414 -0.37848476 -0.24132699 0.77279425 0.44963297 -0.34670928 -0.73526573 -0.7486687 -0.22962312 -0.5360786 -0.52725106 0.6317305 0.09339929 0.7362738 0.00762555 -0.35579973 0.6789689 1.2603929 -0.40261018 1.5302069 -0.5866957 -0.36858073 -0.52071714 0.45817074 1.0261438 0.14961763 -0.5063986 0.97786874 0.554583 0.83720624 0.36773047 -0.27729163 -0.3963159 -1.0020868 0.83153963 0.41509473 -0.098076835 -0.904616 0.60645247
低卡 0.4921804 -0.0071922834 0.32649642 -0.026830936 -0.017548023 0.6484348 -0.542786 0.6970815 -0.08520896 -0.6787944 0.2389414 -0.3846564 -0.35196754 0.15797439 0.6411404 0.55383915 0.2465471 0.16025028 0.5287189 0.7173728 0.70485175 0.05952638 0.76889426 -0.5362208 0.19949746 -0.5319343 0.16641808 -0.15511316 -0.67046225 1.0857174 -0.23427749 -0.46722317 0.32689866 0.056261573 -0.7454734 -0.47689232 -0.17308804 -0.81223315 -0.35802397 -0.7186583 0.19243172 0.5088847 0.59489924 -0.6375117 -0.2624614 -0.6816604 -0.07333842 -0.5981746 -0.5283642 0.45938262 0.6292286 -0.08810219 -1.3502033 0.23845749 0.35759872 -0.18090232 0.16613597 -0.19334093 0.31394237 0.20655766 0.5787926 1.0079178 -0.3467194 0.39232194
加班 -0.16853376 0.03356388 0.24760693 -0.5825188 -0.34889752 -0.22423261 -0.14079817 0.32536304 -0.5948542 -0.13664858 0.172068 -0.41119173 -0.2171899 0.80961066 0.9300715 -0.25448376 0.11154908 0.34184915 0.8655089 -0.1593334 0.68156725 -0.3666631 0.09288718 -0.63794017 -0.58845496 0.13005544 0.035907604 -0.0034598398 -0.0011722159 0.037439756 0.42787609 -0.421483 -1.0811229 0.4731962 -0.4520216 -0.29651985 0.83043456 0.51712406 0.738699 0.13728614 -0.048848156 0.1522178 0.122985214 -0.5358232 0.4152868 0.32781884 -0.84421337 -0.43911135 0.12953591 0.26168934 -0.11823307 -0.18735018 0.5769327 -0.015361677 0.12770325 0.34799996 -0.16460687 -0.15609315 -0.26223922 0.4083125 -0.122620314 -0.20625903 -0.9287904 0.99585557
热闹 0.034918614 -0.66807 0.51442456 -0.028342031 -0.35438162 -0.33623976 -0.8890112 -0.2353188 -0.6126151 -0.40301156 -0.21284166 -0.8285252 -0.44777742 1.055083 0.24716924 0.28469813 0.678907 0.3204593 0.67156863 0.90083325 0.6659839 0.4802061 -0.17641976 0.012829976 0.52560574 0.40910712 -0.65399516 0.24334909 0.4158734 -0.545107 0.9913396 0.41002578 0.15354098 0.50997865 -0.5906883 0.4290742 0.080002114 -0.34290352 -0.7301139 -0.04890158 0.067942 0.36906713 -0.40996817 -0.7585711 0.03299664 -0.55969965 -0.06898905 -0.6388776 0.28877443 0.2709337 -0.05127023 -1.2377905 -0.54946417 0.057660367 -0.91818154 -0.15755948 -0.045872215 0.017039644 -0.11095016 0.52070177 -0.3650785 0.25458387 0.04144653 0.007870476
工作 0.68779874 -0.45278156 0.15637223 -0.58525467 -0.18496427 0.2963533 -0.2700825 0.4260144 -0.63341784 0.34819534 0.17855899 -0.27142537 0.15647638 0.274651 0.77329135 0.2566839 0.263809 0.43804577 0.71514994 -0.33906803 0.2118695 0.17220224 0.21588741 -0.5412845 -0.6372787 -0.22219789 -0.17191464 -0.22191408 -0.34328616 0.71435916 0.34359685 0.06679287 -0.36502385 0.083370656 -1.4931675 -0.25500882 0.7931717 0.20630972 1.1027228 0.13817678 -0.31794137 -0.1149665 0.47700974 -0.7927107 0.6568041 -0.09085559 -0.49750665 -0.37491637 0.26864758 0.43030387 -0.013557059 -0.51478034 0.13799718 0.12356572 -0.28709728 0.16215125 0.14362548 0.2061355 -0.049749948 0.4530279 0.48296332 0.3482304 -0.9960836 1.025626
甜点 0.36909464 0.25042424 0.6017297 0.5009704 0.31620443 -0.33459958 0.25840652 0.90302205 -0.57057893 0.11257809 0.39902854 -0.7913431 0.12662561 0.8030917 0.8272748 0.29085994 -0.030753924 0.15775207 0.61149657 0.8546851 0.49622935 0.53328246 0.5032881 0.44137928 -0.013893623 0.2884886 -0.26347953 -0.46650332 -0.20459118 0.33846703 0.15705958 0.48026642 0.19291621 -0.23020023 -1.0982984 -0.264035 0.50981927 0.16612552 -0.085363045 -0.81143296 -0.6814005 -0.10353174 0.7661769 0.3962404 -0.6005918 0.0053926357 -0.87650174 -0.047470994 0.30398148 0.677663 0.3644816 -0.57568085 0.11161986 0.34167036 0.3759601 -0.15311296 -0.34548658 0.17514521 -0.0059923637 -0.34388784 0.763883 -0.20494334 -0.64281356 0.21311307
聚餐 -0.71566004 0.41554314 0.29620716 0.47649688 -0.9094804 -0.30984828 -0.47163174 -0.27209023 -0.6969821 -0.03358242 1.2159424 -1.0712907 -0.61862147 0.9327057 0.6231231 -0.10737158 0.30990744 0.3870904 0.38169768 0.34079835 1.4708154 -0.010598223 0.16019712 0.31831008 0.6861682 -0.6182993 -0.13064384 0.7886723 0.4089182 -0.51786166 0.39893284 -0.10889325 -0.06746541 0.50164616 -0.8841251 -0.08524264 0.49150094 0.067800194 0.48252082 0.16067342 0.16673356 0.75003666 -0.125317 -0.9527571 0.08374732 -0.3314035 0.093430474 -0.49583724 0.12771697 0.3576036 0.37398544 -0.12905917 -0.5656607 -0.13568556 -0.29516512 0.3698224 0.47775924 -0.40490383 0.10089211 0.019829858 -0.26729533 -0.7743745 -0.31050482 -0.91035
困 0.61287415 -0.13956554 -0.057452824 -0.7991819 -0.2744829 -0.49956372 -0.3622846 0.15418006 -0.802314 0.37290382 -0.02926818 -0.47414097 -0.33320743 0.32163513 1.1172867 -0.450696 0.09248156 0.22194244 0.28060725 -0.24362469 -0.36729023 0.08688234 0.27062204 -0.5907135 -0.47351453 0.6287741 -0.6090395 0.584581 -0.2528844 -0.08526177 0.1019698 -0.2990992 -1.0998113 -0.12224659 -1.0683308 -0.3986869 0.35505685 0.6539087 0.8789819 -0.16340303 -0.31169963 -0.20293374 -0.2880805 -0.6988445 1.1201385 0.12846793 -0.30588904 -0.35861677 0.7796518 0.6268625 0.23003 -0.053187415 0.87744325 -0.19979997 0.7522177 0.45699686 0.081248455 -0.19751981 1.2217203 0.63942915 0.11065992 -0.14195813 -0.8399145 0.8466729
重 0.6254514 -0.2964267 0.33712995 0.76313245 0.038078986 -0.031183805 -0.026966285 -0.10275942 -0.15767072 -0.50365436 -0.39291313 0.2717517 -0.83696544 0.16832425 0.6810213 0.7349204 -0.3125909 -0.41795096 0.5800828 0.07590558 0.17201848 1.2753094 0.5286645 -1.3010359 0.20093079 0.10663461 -0.008144691 -0.31478798 -0.3382677 -0.3986931 0.7227038 -0.9306605 0.37367362 0.23701964 0.10540037 -0.0057540005 0.41185436 0.01596098 0.31928712 -0.14961818 0.588306 0.17808326 -0.1464464 0.060118612 0.53699076 -0.33715504 1.1218501 -0.2245674 -0.98866445 0.29267877 0.35304537 -0.3312759 -0.96482956 0.09167865 0.61180353 0.06298435 0.5183058 0.10386961 -0.6954683 0.6294445 -0.29184276 0.24620043 0.4663053 0.45693752
失眠 0.50969136 -0.6811962 0.20391677 1.0561377 0.2652136 -0.86398727 -0.24651209 -0.43669403 -1.1881211 -0.46975598 -0.2784682 0.58068657 -0.7030161 0.3162473 1.0101005 0.001764556 -0.27701107 -0.2947073 0.46502712 -0.27780288 -0.5047842 0.9680471 0.45739716 -1.7311798 -0.31856972 0.8085787 -0.23520786 -0.42551866 0.03830311 -0.23184429 0.49475026 -1.1238291 -0.32498845 0.72763175 0.3172659 -0.731853 0.2716212 -0.19516307 0.8012465 -0.043223795 -0.13789752 -0.51641876 0.14641723 -0.13256754 -0.02707593 0.3243555 0.027168142 -0.43774247 -0.04347944 -0.35074064 -0.020752152 0.1769992 -0.2807508 -0.14080475 0.8498118 0.17974004 0.54396474 -0.23716451 -0.648996 0.7419674 -0.92180884 -0.23809053 -0.35288212 0.37812105
炎热 0.028529624 -0.06431564 0.9334843 0.41904768 0.6385276 -0.72091734 -0.44240275 0.30528545 -0.92999995 -0.521801 0.19772014 0.23366964 -0.867612 0.32389608 -0.5693458 -0.19368495 -0.78540653 0.17800337 0.5068797 0.22634982 0.033558108 0.92540044 0.39529362 -0.9737759 0.15926282 -0.070339516 -0.14153925 -0.7562389 0.11357649 -0.073094554 0.16594245 0.38577116 0.22032247 0.75324595 -0.5095014 0.5397172 0.41849625 -0.06823988 0.3135488 -0.2013137 1.2686461 0.86397177 0.35133082 -0.45857498 0.4093757 -0.2753709 0.13582712 0.8104526 -0.5293228 0.3244056 0.45223498 -0.70414674 -0.030641947 -0.04891936 0.34924823 0.9199572 0.2854924 0.7389559 -0.68698835 0.46105763 -0.19771245 0.48073903 -0.0556662 0.05410063
冷 0.25772473 -0.24167024 -0.48669872 0.30665973 0.44815248 -0.7652146 0.27224275 -0.5066784 -0.4701377 -0.65891 0.2048444 0.1322601 -0.088811256 0.30547774 0.34385177 0.04175994 -0.19560315 -0.43910047 -0.15289418 1.4113637 -0.79636383 0.52015 0.90833795 -1.2247782 -0.15025444 0.41316983 -0.6469528 0.07941393 0.14556327 0.20787634 -0.43038762 0.14907199 -0.06694776 -0.062362272 -0.6218152 -0.9650713 -0.022525694 -0.029550957 -0.38739002 -0.46248683 -0.10114548 -0.08120217 0.35749817 -0.07958675 -0.015581362 0.61890626 -0.11184939 -0.6772326 0.38749123 0.23757719 0.35552377 -0.5560016 -0.425804 0.19288051 0.16038115 0.31857064 0.71515775 -0.40220717 -0.4653557 0.56917876 -0.33390605 -0.5461011 -0.79268783 -0.3208914
人 0.25397995 -0.4116627 -0.5811319 0.06032304 -0.025694145 -0.9732529 -0.038619835 -0.6842317 -0.6896737 -1.1375241 0.8427321 -0.71118975 -0.29357007 0.22200945 0.19556455 0.09052064 -0.18795954 -0.26796377 0.09532911 0.7478817 0.7313392 0.038731128 0.28877264 -0.17194845 -0.22820754 0.3788477 -0.59740204 0.65419436 0.49900734 -0.101821266 0.67172825 -0.63125974 0.24032597 0.38160306 -0.06378217 0.15195742 -0.4276645 0.15399402 -0.11851749 0.33513698 0.8636016 -0.03449076 -0.061464854 -0.3763271 0.7420773 -0.9637086 0.43797785 -0.72039074 -0.34999332 0.7489995 -0.09697762 -0.31523257 -0.48362216 0.5649472 -0.13206922 0.051885568 0.5158698 -0.34056708 -1.4321096 0.785862 -0.57597023 -0.032565773 -0.23964684 -0.370637
一个 0.35052595 -0.2453718 -0.09855496 0.1807418 -0.45657727 -0.6424066 -0.11336099 -1.0916305 -0.5357351 -1.2405728 0.43783355 -0.770782 -0.23785102 0.32419688 0.028123554 0.6915934 -0.1085633 0.08491943 -0.57046354 0.4317481 0.6286154 0.36192784 -0.016905854 -0.4704648 -0.20687081 0.49500215 -0.56138134 0.24947204 0.3799554 -0.35351124 0.30715466 -0.662586 0.27912465 0.016946288 -0.44452006 -0.11863651 -0.15588623 0.4373765 -0.16793409 0.16489449 0.55093527 0.15735014 0.038993996 0.12063484 0.710519 -0.6080965 0.75686944 -0.8438534 -0.16362904 0.56519306 0.17267796 -0.96774966 0.023333034 0.3042101 0.08878469 -0.050670933 -0.124883175 -0.0937098 -1.3242834 1.079428 -0.41904795 -0.022647709 -0.18035473 -0.56805736
冰 0.3687592 -0.9497874 -0.24504128 0.3254855 0.40912783 -0.24910802 -0.1865505 -0.39975494 -0.5666291 -0.78562146 0.0777349 0.52368706 -1.0121218 0.09435274 0.029198509 -0.23282808 -0.46435153 0.077663764 0.06007022 0.625147 -0.39575028 0.39798167 0.29720232 -0.96964765 -0.14286786 0.007140749 -0.34856173 -0.2177404 0.28969505 -0.22748521 0.060842823 0.19850637 0.034536876 0.39350274 -0.24379387 -0.18336903 -0.29280886 0.1636531 0.064078175 -0.7422828 0.7650261 0.14332105 0.024860488 -0.6513598 0.13915387 0.07656119 -0.1448646 -0.8460332 0.5168462 -0.5610777 0.31818208 -0.14181052 -0.13827088 0.4789673 0.5330086 0.27231908 0.40015343 -0.12465147 0.19521141 0.6169624 -0.84919894 0.14589632 -0.082660064 -0.26878068
胃 0.68749464 -0.04696507 -0.1835182 0.08456298 0.91669023 -1.1001549 0.2769606 -0.053951416 -0.7452663 -0.7914342 0.32787177 -0.33116248 -0.15975824 0.79073083 0.5483629 0.3071419 -0.47831583 -0.5530879 0.12532912 0.6878949 0.33855432 0.40069535 0.23764718 -0.3411597 -0.11010677 0.6319256 -0.17426234 0.34558627 0.43631962 0.25532845 0.4824811 -0.7261417 -0.3815984 0.47893482 -0.5030838 0.25790694 -0.38992882 0.069106795 -0.28954142 0.012045598 -0.16305657 -0.13739559 0.8153926 -0.1014378 -0.082364 -0.63375396 0.022813847 -0.5320944 -0.45323986 0.09818678 -0.15893373 -0.6948335 0.17865609 0.91624177 0.41147143 -0.039081994 0.15362528 0.1583528 -1.9028 0.3836379 -0.22686471 -0.2668085 -0.6914038 -0.21365185
暖 0.58476555 -0.23990917 -0.12958008 0.13128993 0.9934808 -0.9522829 0.05549001 -0.03515071 -0.7221471 -1.0119157 0.32058096 -0.33251086 -0.17166558 0.7870719 0.5669601 0.21017417 -0.32318577 -0.45561332 0.20852515 0.76189387 0.24611299 0.38063318 0.3384213 -0.4480582 -0.14389428 0.7735507 -0.28882295 0.2066441 0.39044774 0.23529024 0.42673385 -0.65710384 -0.25839305 0.56541866 -0.28855467 0.14904322 -0.28594774 0.07842824 -0.24734524 0.053760678 -0.00034914684 -0.12409631 0.6414663 -0.02157643 -0.13911898 -0.65408254 -0.038398348 -0.5175558 -0.4292677 0.08333447 -0.13513692 -0.78375137 0.13283972 0.92911196 0.4073973 -0.055029538 0.110356316 0.03523523 -1.737832 0.4621791 -0.40857244 -0.11637141 -0.600396 -0.22218223
