133 64
， 0.24604993 -0.05648266 -0.09761472 0.25255555 -0.12804097 -0.21205449 -0.118311934 0.11774471 0.00496322 -0.35262355 0.05623143 -0.30384156 0.15571229 0.3910003 -0.29257673 0.0924462 0.07021455 0.46882257 -0.47117153 -0.33099714 0.1305936 0.76244175 0.65885967 0.10391701 -0.044388015 -0.5188495 -0.23432797 0.69306546 0.16785152 -0.28176168 -0.13411579 0.49058473 0.36178058 0.08744093 -0.32492465 -0.259255 0.23760425 -0.23908004 0.065701164 0.49641958 -0.27452737 0.22824612 -0.4737179 -0.054988906 0.37815493 0.19920276 -0.46350256 0.018055236 -0.19562519 0.3376821 -0.037408523 0.17413695 0.16468892 -0.24579462 0.30815324 0.34113175 0.30961815 -0.3408675 -0.291163 0.16658007 0.2353499 -0.14541338 -0.6345461 -0.54714775
吃 0.4568571 -0.45108107 -0.15002838 0.23315048 0.48589197 0.12260484 0.37184238 0.16241841 0.12373083 -0.71594507 -0.053449333 -0.26921076 0.13205051 0.021160778 -0.3053169 -0.5114195 0.073042765 0.7050585 0.7795766 -0.05094887 0.2274881 0.58014643 0.6356008 -0.3048134 -0.6247275 0.60048264 0.3361792 -0.08516817 -0.38179603 0.48312455 0.24152 0.12599033 -0.66526276 -0.36788598 -0.2794207 -0.063453205 -0.57467115 0.09060071 0.5264807 0.6608628 0.30841473 -0.5122112 -0.3200605 0.014394184 -0.55662966 -0.64472777 0.2153112 -0.6777043 -0.7199928 0.44710717 0.20063731 0.43888217 0.6100992 0.35479352 -0.61690736 -0.0017286204 0.12175901 -0.10021148 0.12298396 -0.05368253 0.60254824 0.3330641 -0.7579607 0.23100396
的 0.13402708 0.034129214 1.0627224 -0.42209736 -0.5063477 -0.67540026 0.24108751 -0.2598233 0.13180918 0.38368922 0.4369776 0.4113759 0.6801069 -0.2935798 0.14878169 0.24237902 -0.58081883 0.39425516 0.21955076 0.7291867 0.5119837 0.4231603 0.45186993 -0.37091768 0.021000348 0.45428354 0.13222311 0.41302675 0.51051605 -0.11344766 0.10008219 0.257496 -0.42794245 0.60180926 -0.20876737 0.02780704 0.31876037 0.35984913 -0.12779298 -0.42410702 -0.12635458 0.012513231 0.09979839 -0.36963835 0.6740157 0.67212 -0.0336762 -0.13767351 -0.2497555 -0.35617474 0.19313961 -0.11761932 -0.116662055 0.34993598 0.05116818 -0.40087318 0.5114269 -0.31035954 -0.25708222 -0.4940198 -0.10427604 -0.36126646 -0.15011422 -0.089699246
又 0.035514504 0.09590933 0.063051805 -0.16483448 -0.21830846 0.12521309 -0.12700455 0.032823782 -0.17372389 -0.13840765 0.38400373 -0.27982774 0.31201473 -0.004387064 -0.46901172 0.0011652708 0.2506187 0.73713857 -0.35569945 -0.15447028 -0.03711977 0.52038485 0.39395097 -0.05071064 -0.06161636 0.37494138 -0.4378047 0.13664883 0.24059172 0.33460945 -0.2071073 0.2856301 0.7233967 0.16030017 -0.19325347 -0.09497214 0.079478405 0.010607223 0.18406172 0.26080596 -0.17270005 -0.20358737 -0.45440423 -0.51473004 -0.27830982 0.10559348 0.062251337 0.14411755 -0.18538138 0.34084272 0.09226404 -0.20453747 0.15542732 0.007964913 0.14744313 0.39628366 0.39298615 -0.33747873 -0.33470133 0.086492546 -0.22950429 -0.25368777 -0.2022622 -0.1753247
好 -0.0066523645 -0.8167045 -0.2301193 -0.21546604 1.0251842 -0.7987558 0.65361696 0.71525747 -0.33739677 0.4276895 0.4311186 -0.38624832 -0.22899692 0.8017115 0.010259362 -0.012580398 0.3774934 0.109711066 0.0031875027 0.20744516 1.4653764 0.11965607 0.21901469 -0.17784962 0.07965084 0.32629803 -0.6430049 0.27472028 -0.04793001 -0.22837375 -0.45525926 -0.19197766 0.40295282 0.084894374 -0.29447672 0.3074359 0.6035851 0.10869004 0.37359035 0.2011745 -0.07544271 0.020118397 0.097478576 -0.3892098 -0.37325987 0.5662027 0.08111487 -0.40717012 0.24149567 -0.2108076 -0.4076432 0.499709 0.15522581 -0.09032764 0.32577544 0.13655543 0.40648258 -0.096401535 0.08206327 -0.4042173 0.49204582 0.0636954 -0.43380368 0.88214916
什么 0.23458561 -1.0807666 1.3859557 0.8524051 -0.024219431 -0.7327223 -0.15315837 0.8297573 0.24766277 -0.97280675 0.30254275 -0.07570734 -0.9519588 0.3669741 -0.5470917 0.3932333 0.7513278 -0.30051282 -0.1409403 1.190891 -0.0032970668 0.8953952 1.0368348 -0.052928824 -0.10732716 1.1017867 -0.20261185 -0.67438215 -0.5665851 -0.8519111 -0.014046595 0.08222657 -1.3921556 -0.9116242 -0.7816211 0.035013873 -0.24682517 0.53627527 0.35062826 -0.2950578 0.22596566 0.18522128 1.6905541 -0.37731394 1.0444185 -0.3522667 -0.81032914 0.10134404 0.5720235 -0.14451514 -0.39266014 -0.27326226 0.013546156 0.42638546 0.10202772 0.24435982 -0.30053306 0.4795838 0.13923505 -0.15983377 0.07110642 0.8165244 -1.0277153 0.7698259
我 0.33079734 -0.4404032 0.30441242 -0.16967657 0.29923335 -0.40367872 -0.8358661 0.2996225 0.07327401 0.079103395 0.76601124 0.1205651 0.5123885 -0.46932334 -0.051401723 -0.049017206 0.19105674 0.19837154 -0.5890207 -0.7033511 0.14838924 0.524726 0.3686277 -0.621248 -0.38803905 0.051563002 -0.07183707 0.2399171 -0.26763338 0.1033893 -0.36293164 -0.34499034 -0.6615884 0.43150273 -0.010008572 -0.16600186 0.38526785 -0.2977304 0.92150307 0.585233 0.20607832 -0.26820248 0.11265704 -0.06741357 -0.37294003 0.043884035 -0.00465326 0.07838621 0.0800482 -1.0028571 0.7127753 -1.2163554 -0.2229508 0.63439333 0.59870887 0.10186217 0.1943873 0.10050177 -1.3927615 0.14892916 0.5696785 -0.24304323 -0.027221285 0.83900446
晚上 0.1443233 0.17905843 -0.05717009 0.02566528 0.09677261 0.10598866 0.11033793 -0.16201341 -0.76586145 -0.30920526 0.6188888 -0.25243527 -0.35465145 -0.12164745 -0.44116074 0.06527949 0.41705123 -0.11293313 0.65058887 0.52079403 0.06738559 0.9354834 0.5896586 0.14999263 -0.25449806 0.13453847 -0.108084135 0.4683219 0.42949653 -0.051772386 -0.15380391 -0.1231671 -0.022162596 -1.0179197 -0.27140394 -0.22300397 0.25106522 -0.27985197 0.02106911 -0.39008382 -0.73004913 -0.7557579 0.56227475 -0.38009652 0.029805986 -0.37792808 -0.11642119 -0.74335355 -0.042906947 0.48276138 0.50161004 -0.42855445 -0.42880952 0.1256476 0.11715931 -0.6218417 -0.018854655 -0.13719842 -0.17889714 -0.9171775 0.36584008 0.25264806 -0.43652773 -0.33316982
想 0.3487242 -0.8506792 -0.042663965 -0.7811379 -0.086720504 -0.8480326 -0.43083003 0.10306571 -0.79222846 -0.042372912 0.3976039 0.7002564 -0.502768 0.17466585 -0.9164641 -0.5724856 -0.16728717 0.9777926 0.15998031 -0.5057341 0.49786055 0.26151505 0.8552735 -0.2710396 0.61248344 0.111024976 -0.021999259 -0.025364084 0.24808194 0.044365495 -0.81774026 0.07330527 -0.06317488 -0.24821602 -0.320786 0.023088088 -0.40260565 0.27928704 0.72253937 -0.19805151 0.90669113 0.3031514 -0.45097756 -0.09747603 -0.13063763 -0.72272414 -0.32465568 -0.407401 0.19738908 0.48559493 0.06542424 -0.7164278 -0.062467713 0.54730636 -0.24977583 0.3813936 -0.79203665 -1.0595208 0.25571415 -0.26881677 0.91177756 0.38623035 -0.5554561 0.2500593
了 0.1061433 0.46716565 0.2353765 -0.18981516 -0.3208604 -0.26773986 0.24624564 0.20570256 -0.09907009 -0.01656262 -0.025694411 0.45675746 -1.038512 -0.639577 0.17482665 0.6172319 -0.7784985 0.8838573 0.9617535 0.5538171 -0.07801023 0.46031508 0.7622602 -0.91840744 0.44307053 -0.28789246 0.105297476 0.046317853 -0.67795277 0.55057544 0.29611138 0.3128478 -0.049953554 -0.026168324 -0.61560893 -0.29764888 0.7523651 0.27358553 0.7150127 -0.7905925 0.45293066 0.109223016 -0.08606711 -1.0536313 -0.025216643 -0.38725087 0.8149074 0.3850713 0.51556164 0.34748098 0.37068212 -0.3459653 -0.52501935 -0.10363322 0.73049664 0.5260913 0.6508746 0.23281638 -0.5764886 0.25239238 -0.29205617 -0.61768174 -0.115424946 -0.22650981
今天 1.3767885 -0.6266205 -0.01776717 -0.5571387 0.46913657 -0.53840435 0.041484293 -0.41179553 -0.4308104 0.17313467 0.20391287 -0.36721444 -0.12128168 0.63387203 -1.1420804 0.3764542 0.1586076 -0.26583946 -0.2071557 -0.21542808 0.9727262 -0.027051846 0.9630276 -0.47465435 -0.13773954 0.6503345 -0.66387683 -0.54203814 -0.9309512 0.0557714 -0.34547058 0.7344133 0.05721845 -0.06926457 -0.11809156 -0.22682393 -0.058721844 0.8916248 -0.21330024 -0.30539405 0.60135186 -0.37857097 0.058025308 -0.11131288 0.27360985 -0.8526355 -0.23395382 -0.012912205 0.3195222 0.32530132 -0.46919447 -0.17377365 -0.56629497 0.8275823 0.333787 0.044960976 0.75248754 -0.77473897 0.048680797 -0.21374044 0.46087635 0.4033762 0.45313305 0.82298493
有 -0.23755138 -0.47816458 1.5659218 0.4342618 0.40139127 -1.1879854 -0.07495988 0.14098878 0.25235057 -1.0159951 0.39153135 0.34649095 -0.37982813 -0.37327173 -0.4189606 0.74357986 1.2780645 0.26466292 0.96590626 0.90942675 -0.3022609 0.63338274 0.45017788 0.39025825 0.45850933 1.6573113 -1.0588306 -0.6121065 -0.2722138 -2.066309 -0.7499617 -0.39011827 -1.4362011 -0.39455494 -0.774401 0.49390164 -0.0137804635 0.32943726 0.11543729 0.26000664 0.56545055 -0.4832071 0.6661696 -0.10188821 0.587868 -0.2689392 -1.0819275 -1.0027031 0.7079569 -0.16008216 -0.54171056 0.3270899 -0.9913699 0.62471116 1.0596195 -0.20367217 -0.30622032 -0.28265008 0.25919667 0.15257284 0.113649435 0.2705285 -1.1562797 -0.0910464
不错 0.58105326 -1.7366817 -0.56987846 0.92461395 0.39139295 -0.44729722 0.37364203 -0.27066544 0.055704214 -1.2888516 0.3861959 -0.8837244 -1.0142817 0.8438743 -0.33512405 0.2463147 -0.7294872 -0.9611288 0.3532409 0.7917281 0.841226 0.6025258 0.699812 -0.9706221 -0.30998525 1.26355 -0.9331082 -0.9573428 -0.99122655 -0.9954637 -0.7405691 -0.49026927 -1.3282667 0.6212423 -0.22956586 0.99409306 -0.16769627 0.20178501 0.86909014 0.32189882 -0.56040263 0.8919099 0.43623245 -0.68560994 1.4397559 -0.36132133 -0.09549233 0.25485063 -0.11305951 -0.52855396 -0.571493 -0.0012677244 -0.10883401 1.3362488 0.83975613 -0.13728198 -0.20396249 -0.40818644 -0.89292103 0.88276285 -0.11491648 -0.9465155 0.9599928 -0.043142308
天气 0.39922848 -0.109671876 -0.19860424 -0.0106268 0.054544672 -0.3079344 -0.37006345 -0.047447607 -0.09615235 0.5770453 0.5460726 0.017595446 0.14422224 0.1242551 -0.38442194 0.58958334 -0.082493246 -0.3126214 0.08691081 -0.38448685 0.3801824 0.20658924 0.65374035 0.25622323 0.35768595 0.843471 -1.0051668 -0.07115822 -0.22280177 -0.3648748 0.8184491 0.22126211 0.005008753 -0.05311591 -0.031514466 1.0998652 -0.114498205 0.5265763 0.54179174 0.32043773 0.14081761 0.961841 -0.71350724 -0.22834058 -0.9266759 0.11033563 -1.0818325 -0.41616228 -0.57854426 0.12513644 0.09592541 -0.18801996 -0.041296247 1.0872357 -0.016136585 -0.40591767 0.07873704 -0.4991371 -0.5446737 0.5305283 0.7252932 -0.794343 0.36510342 -0.45413876
冰淇淋 -0.20811686 1.1190052 0.31961468 0.17201021 -0.16882129 0.13722481 -0.46652037 0.3903581 -0.59516954 -0.8682235 0.6428925 -0.059976704 0.11881349 -0.43298945 0.14107737 0.27532318 -0.90155554 0.84886223 0.02858742 0.98296803 0.08031721 -0.6068668 0.5341752 -0.62447494 -0.9528643 -0.19788963 -0.7608457 -0.34141704 -0.5063892 -0.75026983 -1.0108962 0.6869855 0.8336837 0.1624174 0.16270454 0.06599034 -0.25902367 0.080309816 0.1340004 0.7723213 0.19114912 -0.20782788 0.014641702 0.11082576 -0.74677414 0.051400915 -0.18321359 -0.09922549 -0.09468587 0.065848425 0.3019297 0.06335134 0.7851228 0.41634676 0.8687944 -0.19573417 0.062011708 0.015026969 0.034636848 0.5274966 -0.2183383 0.05802643 -0.040092744 -0.5722307
牛奶 0.13618541 0.093092345 0.6268933 0.072209604 -0.45649248 0.047258705 -0.49157017 -0.3495333 0.055232514 -0.91178393 0.25642028 -0.27983946 0.3447008 -0.51171124 0.08546543 0.21320459 0.6453777 0.5935272 0.30571124 0.7904025 0.5341436 0.15466046 -0.4847471 0.042576842 -0.0800643 -0.33237785 -1.04258 0.10437913 -0.22113138 0.19815508 -0.041211173 0.119385555 -0.036771424 0.072703876 0.86479914 -0.44899827 -0.9742604 0.08312453 0.7137726 0.1979666 0.19817007 0.5901491 -0.0021152885 -0.9590649 0.37890416 -0.21644701 -0.02601162 -0.16948904 0.23476124 -0.39166906 0.8728695 0.06757969 0.6213052 -0.2637705 0.90698767 0.4358572 0.7405998 -0.13064103 0.50546163 -0.08051036 -0.22593233 -0.3300307 -0.19365633 -0.25758892
烧烤 -0.20701216 0.15728678 0.51288736 -0.25539863 0.06793602 0.41359904 -0.39895263 -0.53151655 0.41854602 -0.013929952 0.4575869 -0.25742623 0.17992747 -0.2059889 -0.6525731 0.7043086 0.0074115293 0.4122201 -0.4483765 0.8871163 0.5503877 0.3433364 0.23476757 0.07225256 -0.7177837 -0.50058395 -0.63011646 0.033304844 -0.17184925 -0.25569642 -0.17556135 0.08346982 0.052878927 -0.06917559 0.8316986 0.60542727 0.15605986 0.61486226 0.015945956 0.14314987 -0.6184947 0.49146044 -0.36636728 -0.32777473 0.10367849 -0.55242336 0.4644035 0.19066204 0.52198064 0.780714 1.0531433 -0.47925743 1.1281531 0.004333633 0.2123054 0.11269522 0.13968088 -0.19576949 0.4358214 0.037864987 0.34957874 -0.2481468 -0.9589444 0.44127554
沙拉 -0.09640038 0.5424569 0.7284716 -0.1826954 -0.03313819 0.5412736 -0.19948465 0.48575956 0.4420663 -0.19990994 0.8069021 -1.0257858 0.88580996 0.058097605 -0.042617545 1.0146327 -0.03301487 0.60348666 -0.08015419 0.43778235 -0.104124874 0.15824799 0.92241025 -0.071534775 -0.25669393 -0.5061447 -0.31611645 -0.8701327 -0.39789793 -0.22231385 -0.5033247 -0.7235847 -0.17729937 0.033529755 0.25616792 -0.109413214 -0.17461331 -0.36248907 0.18324721 -0.14725667 0.4304269 0.99379736 -0.67278993 -0.7085175 0.16784042 0.043484528 0.23200293 -0.43421832 -0.27376693 0.37115493 0.3422101 -0.372179 0.40317696 0.046117473 0.23274234 0.6056673 0.50266194 -0.4545453 0.74313086 -0.70464295 0.06731564 -0.37412325 0.2755779 -0.08817248
感觉 0.24095963 0.018492624 0.3664388 0.3772548 1.03425 -0.5093702 1.0403464 -0.3822083 -0.010170703 -0.94682467 -0.1057841 -0.4091957 -0.41573074 -0.18677875 0.3441186 0.85380375 -0.2840139 0.4470545 -0.398567 0.2169066 0.53980833 0.22999302 0.49064377 0.55648726 -0.13986103 0.5125034 0.090001985 -0.067636885 0.041211322 1.097975 0.5069532 -0.16381755 0.11752623 -0.9522164 -0.5449564 -1.0836073 1.6993474 0.10622945 0.68569106 -0.57141805 1.0987533 0.42519328 0.21588784 -0.34737682 -1.0934148 0.39461568 0.06294152 -0.028579298 0.29514587 -0.16898426 0.051545523 -0.35118243 0.10731975 0.80898887 -0.5489687 0.61852646 0.78975034 -0.19375314 -0.29442146 0.44994357 -0.36323887 -0.46593526 -0.9009856 -0.3699553
咖啡 0.57671356 0.63929784 0.45653906 0.14167023 -0.3433605 -0.43382797 -0.71292347 0.17900115 -0.38669434 -0.12444798 -0.52866757 -0.0830523 0.053119157 0.20139474 -0.17124714 0.3153536 0.23151454 1.1259047 0.47343612 0.54777855 -0.4785194 -0.23414733 0.101328716 -0.6247149 -0.4063434 0.42621088 -1.3397498 0.5100879 -0.32403502 -0.43830913 -0.09944132 -0.33867136 -0.093497224 0.07883937 0.36283323 -1.1793447 -0.6639242 -0.78262776 0.26219684 0.036599513 -0.64732814 0.0792089 0.42766476 -0.17257284 -0.38151273 -0.1863466 -0.012286879 -0.17910956 -0.6300159 0.45662966 0.98417985 -0.522336 0.9028142 -0.025813743 0.5396773 0.7755132 0.9344336 -0.2021428 0.717222 -0.1275254 -0.2510367 -0.10513664 -0.5739097 -0.76856095
面条 -0.54791534 0.021867571 -0.45630655 0.33744484 0.094874635 0.053831242 0.011842238 0.10756287 -0.88402665 0.046507694 0.55468625 -0.18091767 0.84332055 0.2031716 0.032683536 0.5241741 0.08046601 1.4456253 -0.19237974 0.7696363 -0.36683676 0.35335836 0.05475245 -0.1259448 -0.74614716 -0.3997354 -0.8772887 -0.45921868 -0.3588836 0.213762 -0.60112536 0.3333119 -0.3171107 -0.61767286 0.5314688 0.4861861 -0.16740945 0.119785786 0.21586438 0.04139531 0.66656166 0.18185394 0.8764699 0.026920497 0.260849 0.4462096 -0.5504565 -0.54759526 0.32356322 0.44175333 0.67823935 0.15361261 0.894454 0.18231098 0.49586365 0.16249236 0.46426806 -0.08977286 -0.8238604 -0.67192096 -0.43408707 0.21319439 -0.1280402 -0.24064682
刚刚 -0.09381431 -0.9850422 0.103896834 -0.30448043 0.6076077 -1.3345057 0.15539385 0.7463125 -0.08341776 0.17040186 0.0902402 -0.8206622 1.0905234 -0.46293437 -0.14976421 0.53733754 0.26272812 0.6729247 0.5655218 0.6508789 0.97101575 0.28879604 1.2597262 0.24289753 0.89653087 0.698436 -0.6485814 0.15069298 0.38193354 0.0035922406 0.34300458 1.5178083 0.37286237 0.61394787 -0.096502915 -0.19591217 0.45875317 -0.248097 0.42988694 0.0507547 -0.33104357 0.18040246 -0.021750057 0.057892427 0.10883113 -0.38513777 0.08704417 -0.14174545 0.19240946 0.37083852 -0.959331 -0.52330464 0.4631206 0.5747569 -0.054822534 0.4142606 0.3183069 0.20752032 -0.445829 -0.057498947 0.054116536 0.15486407 0.16142294 -0.01635752
上 0.89556354 -0.9776737 0.2701507 -0.05695347 0.22097544 -1.2267598 -0.105519034 0.81317943 0.48216093 0.15775603 0.6317752 -1.1212835 0.95340323 -0.17278837 0.039958242 0.04866236 0.09720434 0.06870292 0.54810506 0.9705525 0.8255873 0.2228372 0.25898856 -0.16735317 0.5098334 0.46310633 -0.9638358 -0.09413431 0.749117 0.27309644 0.23125234 0.9928096 0.5118654 0.066706486 -0.43456796 0.1394749 1.1440781 -0.0069549414 -0.005940415 -0.5503408 -0.013467581 0.24641936 -0.055221543 0.2939471 -0.46988377 -0.24046922 -0.08486819 -0.37283868 0.30630133 0.54549366 -0.75865245 -0.24740651 -0.025938869 0.3323789 0.1693588 0.41985947 0.27753782 -0.24640419 -0.46417892 0.18209745 -0.28250974 0.10105137 -0.17921501 -0.28074196
配 0.36814573 -0.5057738 0.17012906 -0.23098294 0.8100096 -0.9837113 0.16275474 0.5231324 -0.19954711 0.018773241 0.155001 -0.72938377 0.82249975 -0.757075 0.045950677 0.7349257 0.44160485 -0.44716042 0.35132942 0.6503028 0.7271342 0.30471662 0.4744475 0.033546813 0.47877806 0.569544 -0.9977156 0.62860954 -0.1471986 -0.30709323 0.20079026 1.1076628 0.10513854 0.02475339 -0.23559473 0.14655256 0.38996044 -0.10444519 -0.009223496 -0.7191262 -0.22905578 0.4577974 -0.3963096 -0.27267438 -0.9273438 0.31648046 -0.038790084 -0.08419727 0.25463903 0.41697037 -0.6775645 -0.5238358 -0.0040885652 0.32947525 0.062177297 0.46573734 -0.03306776 -0.69756407 -0.86676276 -0.01671528 -0.104409076 0.7605458 -0.16250817 0.31040373
心情 0.3326571 -0.35849977 0.11112542 0.17768125 0.68060106 -1.3939911 -0.03554873 0.5832613 0.33043563 0.53902465 -0.15297039 -0.47807717 0.34166643 -0.55561507 -0.6654886 0.2887531 0.6125016 0.5079166 0.31983203 0.7182493 1.2529117 -0.04082546 0.5640069 0.5408402 0.4086502 0.19438243 -0.6592054 -0.23632158 0.4287051 -0.42562547 -0.098149255 0.7213564 0.1584032 0.2070877 -0.28060764 -0.15249266 0.80045164 -0.46984395 0.3033831 0.025442088 -0.30935884 0.28838903 0.04020192 -0.36696866 -0.37640586 0.14937747 -0.22179718 -0.14085129 0.1561239 0.3865335 -0.43941358 -0.5543385 0.13477106 0.6640197 -0.3388756 0.18676029 0.17203109 -0.476457 -0.6729839 0.1145645 0.2135588 0.42737052 0.4141735 0.30046314
口味 -0.15219238 -0.46549127 0.9749502 0.29013133 0.22352518 0.74956614 -0.8426161 -0.6900913 -0.29678902 -0.9847154 -0.13913587 -0.97007453 -1.2516 0.26094168 0.13534619 0.7269334 -1.3612317 0.39204305 0.8464535 0.4425131 -0.124365635 0.15195702 0.05878208 -0.6975459 0.02279894 0.47509366 -0.08535356 -1.2461327 -0.61306375 -0.15923747 0.34212038 -0.80335814 -0.7559733 0.48424554 -0.110943966 -0.4517948 0.4567248 0.33691788 0.19141674 -0.40165085 -0.009166786 0.390771 -0.98087275 -0.62132627 1.2332505 0.62619865 -0.52111113 -1.4360416 0.27953282 -0.6666317 0.71121216 0.08527454 0.47156557 0.5805813 0.79458946 0.271078 -0.05183954 -0.21367823 -0.14260742 0.99369216 -0.3578974 -0.109797485 -0.003886533 0.43236223
就是 0.3503431 -0.45203447 -0.19958836 0.664358 0.112187065 -0.98523223 0.06664488 0.79550576 -0.2707943 0.16282798 -0.035298165 -1.1543725 1.2195921 -0.8328751 0.39588192 0.20181942 -0.118710615 -0.5932114 -0.642071 -0.8794212 0.21484284 0.43125468 0.18773668 -0.7604703 0.24201939 0.78789693 -0.102329224 0.6994522 0.78504246 0.1505188 -0.5495083 0.5173852 -0.16440631 0.121554345 -0.9122223 -0.06540239 0.52240413 0.1625742 0.8728244 -0.39401078 0.10124234 -0.4627932 -0.24600075 -0.07981493 -0.03040492 -0.57580084 0.03056099 -0.84659994 0.8120316 0.26916668 0.67601246 -0.7742584 0.24026898 0.72928256 0.6694511 0.08158441 0.40125766 -0.35723263 -0.05994396 0.35292554 -0.069292895 -0.24619395 -0.32159287 0.12046535
想到 0.04684538 -0.23275323 -0.06859104 0.53847873 -0.5671817 -1.0668063 -0.16723889 0.4157115 -0.28691107 0.28797984 0.13680339 -0.6647025 1.4238868 -0.61997086 0.038604986 0.781439 0.23355146 -0.18086328 -0.3570398 -0.5632799 0.5263241 0.39450932 0.9251371 0.3025316 0.5995212 0.6590262 -0.1934492 0.33512774 0.46314624 0.10317007 -0.58008826 0.2479065 -0.037251048 -0.08746619 -0.6689255 -0.14397688 0.699433 -0.1828057 0.7343425 0.3935011 -0.17456922 -0.60842055 -0.11285261 -0.10233753 0.26337343 0.12818216 0.12472882 -0.19707786 0.38586932 0.2141414 0.90683156 0.01368296 -0.15413421 1.5654821 0.53008217 0.10773944 0.40283167 0.46251464 0.1616698 0.8143475 0.4876116 0.4880226 0.42081094 0.62869835
第一个 0.7670857 -0.3737546 0.010106558 0.644898 -0.20024633 -0.8394432 -0.18281172 0.491257 0.23664379 -0.044389687 -0.35120267 -0.516466 0.95219386 -0.6913194 -0.15562254 0.9838984 -0.057896495 -0.15590148 -0.8190641 -0.09680677 0.43934438 0.504777 0.44605437 -0.41556206 0.43621787 0.71023965 0.084245116 0.44161987 0.42730322 -0.052453306 -0.539512 0.16483396 0.27797273 -0.36077487 -0.6454319 0.27654478 0.37679482 0.19597134 1.0710444 -0.11455665 -0.18266608 -0.077649616 -0.18927623 0.19677095 -0.38732845 -0.3829786 0.5478739 -1.005952 0.054445434 0.13334548 0.5119439 0.09825838 -0.12564549 0.6991732 0.12559846 -0.26926848 0.9288406 -0.18617348 -0.5048266 0.39171007 -0.28639945 0.3230302 0.23667358 0.62098956
啊 0.4238643 -0.6238455 0.39611685 -0.21873485 0.47425634 -0.55791926 0.47218862 0.9255784 -1.2488265 0.08810285 0.2618442 -0.30247617 -0.35345536 0.10728968 -0.25009117 -0.3844104 0.26485342 0.23974265 -0.2934697 -0.397925 1.1309506 0.79715407 0.17633778 -0.33474004 0.21139587 0.4208958 -1.0985754 0.061620124 0.27972552 -0.20884643 -0.30030724 0.612633 0.24331163 -1.0103761 -0.16612929 -0.41577464 0.21646315 1.5139797 0.82351106 -0.019473804 0.5287435 0.1783212 -0.42088503 0.07629935 -0.12950149 -0.37612325 0.37084487 0.16156831 -0.18758252 0.5253545 -0.51650053 -0.20837311 -0.64966923 0.46324027 -0.4017097 0.57701105 0.12349953 -0.15624587 -0.091310196 -0.25639793 1.2892549 0.3362905 0.4539167 0.17731135
少 0.38481426 0.21345137 0.14448202 -0.78451973 -0.54589546 -1.0717837 -0.34515738 0.5270134 -0.35201523 1.1636826 0.285287 -1.0506717 0.0041387463 0.6793128 0.07587672 0.1628635 -0.23767143 0.17576486 -0.27236357 0.1335065 0.40059796 1.0576483 1.245805 0.20607772 0.6908165 0.81126887 -0.3268409 0.36626515 0.74859804 0.73378116 -0.15125944 0.4937591 -1.1318312 -0.53954536 -0.17362642 -0.1600621 -0.09473264 0.36455068 0.80329317 0.11119338 -0.26975334 -0.007961219 0.061773263 -0.14799677 -0.5194126 -0.5421112 0.0014877847 -0.68239206 -0.19943203 -0.117412 -0.55159646 -0.7334817 0.4089437 0.8111611 0.38721916 0.19854152 -0.41155523 0.03554305 -0.50182104 0.39976773 -0.41371778 0.34498915 -0.4510768 -0.017967347
不能 0.67519486 0.013847659 -0.028764466 -0.9996433 -0.12622835 -1.3818678 -0.18037821 0.6951938 -0.30388153 0.89813364 -0.35417393 -0.7525537 -0.28598812 0.4507621 0.16570978 0.29145995 -0.4837866 0.3504135 -0.39548323 0.5670179 0.39823163 0.44613153 1.037248 0.08162631 0.44325078 0.27666867 0.15019318 -0.008843262 0.37636098 1.0182391 -0.014231808 0.2879103 -0.3961583 -0.085766174 -0.10883256 -0.31055284 0.2278606 0.7091113 0.052826986 -0.3070167 0.016805151 -0.12482056 -0.17221397 -0.45498708 -0.17633338 -0.7377186 0.2892421 -0.29720142 0.030857064 0.24250264 -0.12264558 -0.36053416 0.16688737 1.205135 0.7957118 0.71288395 0.1394343 -0.660353 -1.1286014 0.35675457 -0.54740006 -0.23676632 -0.3899642 -0.6089828
季节 0.3105169 0.53008854 0.12137262 -0.24969625 -0.31909075 -0.68634367 0.20172554 0.621457 -0.19893067 0.6915471 -0.042328093 -1.2835307 -0.28803384 0.47622707 0.48497966 -0.023831392 -0.13883412 0.5191884 -0.21216442 0.29011884 0.56989527 0.7045037 0.7727531 0.34547737 0.2953569 0.71062315 -0.21180509 0.43758127 0.062937655 0.88769597 -0.11978188 0.56722224 -0.8050574 -0.6268427 -0.20552397 -0.44008437 0.20765615 0.5892669 0.42809913 -0.11947266 -0.4339892 0.40645123 -0.25108284 -0.052071933 -0.41430467 -0.044865407 0.4734345 -0.09823139 0.1582794 -0.03634398 -0.42785674 -0.47712928 0.049388837 1.0646906 0.64561087 0.5205214 -0.0393206 0.17654178 -0.89522094 0.27587 -0.43900988 0.2586955 -0.099943265 -0.22064315
美食 0.00035409085 0.16654514 0.5256977 -0.114370055 -0.2723195 -0.437823 -0.35665542 0.07390694 -1.0116184 -0.5437006 0.45769578 0.29475707 1.2118006 0.1452351 -0.34940267 1.0232987 0.62136805 -0.36125955 -0.6764117 -0.51717144 1.1305959 -0.01669451 -0.2653471 -1.7525957 -0.29287964 0.56016135 -0.6206661 -0.93460757 -0.62442595 -0.46721908 -1.1193407 -1.5992339 -1.5647541 -0.6567658 -1.1608335 0.13211901 -0.44682497 -0.15169875 1.4111893 0.2344474 0.26010486 -0.7786632 -0.6599468 0.12008707 0.3103379 -1.0128586 -1.1745055 -1.389383 0.08451504 -0.104497634 0.92475903 0.51616883 0.00665206 1.536217 0.6993932 0.22492416 -0.07316107 -0.81652445 -0.4630885 1.1304146 0.66306114 -0.55596197 -0.52281034 0.19761795
喜欢 -0.26655465 1.0994235 1.0734218 0.90254676 -0.93002874 0.45502004 0.34281892 0.18162738 -1.209728 -0.9889063 0.3015037 0.07203755 -0.07364485 0.015758155 1.2526397 0.6775412 -0.2256785 0.40800512 -0.13050485 -0.24568446 0.38405204 1.0392648 -0.65302837 -0.56642526 -0.14243786 0.2207219 0.17983222 -0.024699502 -0.28769496 -0.12463798 -0.65241885 -1.7622008 -1.6902705 -1.707299 -0.7647959 -0.36762685 0.32460514 0.67203283 2.1856067 0.6737056 0.24283586 -0.21232325 -0.004640754 0.037832055 0.40869057 0.22105354 -0.2670095 -0.50902486 0.49861962 0.07398944 0.37271166 0.31791767 0.4561112 1.3099309 0.87328315 0.49799305 0.21333052 -0.2567888 -0.8631693 0.49205896 0.8792068 -1.0506212 -1.1311197 0.099462844
真 0.8428326 -1.3705784 -1.0141455 0.5870885 -0.22069086 -0.77149487 -0.6343601 -0.94018734 -1.0244677 -1.010536 0.54627866 -0.7267213 -1.7024677 1.5464634 -0.5011788 0.73032856 -1.532391 -0.53047943 0.61219263 -0.41387114 0.26223657 0.90944993 1.6676421 -0.8832756 1.0284523 1.1284971 -1.4152732 -1.1234 -0.8354275 -0.4850532 -0.6035602 -0.06026035 -0.39152762 0.095847376 0.45139083 0.6923772 -0.43228197 1.2443882 0.23731785 -0.05312567 -0.40779626 0.6030311 0.51199144 -0.83665556 0.8579162 -0.7016623 -0.6874204 -0.25087476 0.3733159 0.5396544 0.35954016 -0.47541478 -0.060776643 1.1135547 0.6678976 0.19177426 -0.18228686 -1.0462009 -0.16956969 1.105541 0.031907264 -0.39911467 0.7118585 -0.30906385
必须 0.03854552 -0.00083011057 0.0147995725 0.22836615 0.2660654 -1.1639372 0.3102482 0.06860427 -0.38466135 0.7069875 0.50889516 -0.17342831 -0.0014848314 -0.77064335 0.7095861 -0.12811312 0.9152839 0.9127389 0.28595927 -0.31546405 0.27367792 1.0034231 0.35665825 -0.16070393 0.6216315 0.28478104 -0.33700994 0.75768495 -0.32762977 -0.023273274 -0.26340368 -0.458645 0.43910825 -0.6570097 -0.45502168 -0.34839144 0.8607108 0.7648174 1.1843032 -1.2029296 0.4503044 -0.3851053 -0.57356983 -0.1316984 -0.57646054 -0.27333817 -0.092985176 0.41659686 0.22329947 1.0026404 -0.774973 0.27296618 0.4582493 1.3000365 0.5894591 -0.049542002 -0.53438324 -0.069193535 0.13288839 0.5543773 0.35352302 0.12567058 0.08434777 -0.24642925
这么 0.33290774 0.12481234 0.35728982 0.6732175 0.029020498 -1.235168 0.77703655 0.04537373 0.08127091 0.3955139 -0.099462256 -0.5400955 -0.56216806 -0.2841414 0.60109633 0.30340824 0.45070875 0.739829 -0.11507959 0.2718731 0.19153202 0.9234939 0.48963726 -0.54627955 0.22945412 -0.30774003 -0.74602395 0.88315564 0.42132875 0.32391348 -0.10259375 0.024312252 0.0032483083 -0.4376398 -0.02913805 -0.44012108 -0.13556002 0.24430433 1.3324839 -0.25028524 0.7249012 -0.70248985 -0.5765464 0.44436744 -0.6365024 -0.20621635 -0.7991772 0.17371048 0.08774257 0.9343611 -0.67577636 -0.039998107 -0.4689103 1.112441 0.23988834 -0.19832411 -0.47724512 -0.06529779 0.06472684 0.18471879 0.17297964 -0.40997165 0.20955066 0.8487693
推荐 -0.48192027 0.6546746 1.4349836 0.33893698 -0.054061998 -0.7211822 0.49012408 0.06503424 0.4822726 -1.1645576 0.34842846 -0.20903298 -0.35156432 -0.22661676 0.297775 0.85082644 1.5741137 0.3514173 1.0476727 1.675157 0.6038848 0.63252944 0.43487367 0.53670806 0.2738228 1.4566915 -0.74288297 -0.28091154 -0.23598646 -1.078113 -1.1895788 -0.951563 -1.3926446 -1.0396713 -0.9577257 -0.7489388 0.1915598 0.60721743 0.4915189 -0.3429126 0.4553768 -0.46594182 0.8589434 0.5543588 -0.43001634 0.33233395 -0.7382842 -0.0062962 0.42803875 0.23185748 -1.0611652 -0.3032633 0.0048875157 0.62242424 0.5517582 0.5607952 -0.19747363 0.28582478 -1.2631948 -0.18966608 0.34532014 -0.55119556 -1.4222766 -0.9404901
东西 -0.015206639 -0.9998074 0.86948156 0.057756804 0.8501351 -1.2963669 -0.14903073 -0.74587965 -0.6612258 -0.56130254 0.29238617 0.6990107 0.79201055 0.39131498 -0.85572755 0.20582607 0.107236385 -0.09302493 -1.0069904 0.5432203 1.1100953 0.088464 0.7676832 -1.3320775 -0.6912394 0.9455772 -1.6881193 -0.564577 -0.5124976 -0.95429903 -1.7906319 -0.8187028 -0.9243807 -0.36451405 -1.067133 -0.53722245 -0.6924582 0.6653028 1.3051026 -0.4903135 0.9118385 0.17003888 0.075011365 -0.3490692 0.4717981 -0.14291526 -0.92826813 -1.1167356 -0.46244577 0.14492802 0.34853733 0.4110086 -0.09147709 0.87063354 -0.6624044 1.0005466 -1.1909889 -0.628808 0.57584107 0.7281787 0.6399441 -0.2773909 -0.7097078 0.264136
点 0.011043783 -0.79223776 1.2159426 1.1858405 0.65441537 -0.66384023 0.24034809 -0.84847593 -1.2491757 -1.4676126 -0.14744781 0.10627676 -1.2068803 0.040808257 0.14495099 0.106293246 -0.8498275 0.7540807 0.09465264 0.6270517 0.5967527 0.84895974 0.7054532 -0.33223593 -0.48677856 0.46763107 -0.7562204 0.12014243 -0.70727503 -0.9166388 -1.0451907 -1.1323978 -0.20905195 -1.1340076 -0.42518666 -0.8738359 -0.22077186 1.6221763 1.410954 -0.30549207 0.9278762 0.13515395 -0.06870706 0.24191786 0.7789296 0.761903 -0.13544501 -0.12035156 -0.434138 1.251925 -0.28437558 0.5072544 0.3715578 0.47302184 -0.04996237 0.9539081 -0.5852028 -0.5043673 0.9124081 -0.20909825 1.1601596 -0.37757546 -0.64949614 -0.017074598
好吃 -0.01180824 0.045053855 1.9333031 0.22203356 0.030646838 -0.18230939 0.21519275 0.4100918 0.14808863 -0.5460422 0.19119437 0.121861935 -1.1788216 -0.10770616 0.83569473 0.9279755 0.69149816 0.22156048 1.0309408 1.3670715 -0.08485241 0.4247303 0.18542917 -0.095753066 0.531571 1.3640335 0.096977144 -0.5585163 0.14036043 -1.2629541 -0.19794692 -0.45584086 -1.5682625 -0.6031941 -1.104097 -0.028163802 0.6825271 0.01483551 0.6813907 -0.013635795 -0.35085115 -0.1500615 0.5040642 -0.36640447 0.54963344 0.19182336 -0.90000695 -0.8651867 0.91575503 -0.9901566 -0.74740046 -0.34979278 -0.13622707 1.3454105 1.4012758 -0.060047895 -0.072089255 0.44307163 -0.8402742 0.5676431 -0.19685987 -0.007584079 -1.5439464 0.15244545
现在 0.40727845 0.21865216 1.3987927 -0.26682004 0.4811993 -0.7812831 -0.2670033 -0.21370491 0.17557512 -0.45114544 0.15389964 0.822778 -0.20800376 0.35699567 0.57328206 0.93499136 0.44278514 0.0420284 0.6471077 0.7105715 0.24633236 0.054456618 0.42647135 -0.27727276 0.58438927 1.1623868 -0.22618334 -0.9049156 0.29609433 -1.1809287 -1.0559661 -0.448418 -1.5454807 -0.69611907 -0.8364242 -0.11206067 0.19084589 0.6272626 1.078532 -0.34451804 -0.13460378 -0.26569232 0.5784001 -0.6476316 0.020827975 -0.15758109 -1.3082501 -1.4316903 1.3252783 -0.4888778 -0.51468056 -0.33876586 -0.35274777 1.5516076 0.8721214 0.5522538 -0.7184528 0.37613687 -0.9229886 0.51549816 0.047931828 -0.038560376 -1.5740278 -0.16495441
呢 0.21216673 -0.65642935 1.7789195 0.07182662 0.4662475 0.076942556 0.36529532 1.5789107 -0.7191192 -0.81387115 0.76863605 0.32876197 -0.92684144 -0.038878094 -0.0031213171 0.5443403 1.6036546 0.6087671 0.40733674 0.7039767 0.9376733 0.3005954 -0.29334882 -0.71584237 -0.21730267 0.29014516 -0.6027689 -0.91302913 -0.16893408 -0.9961521 0.30729935 0.27536112 -0.0055992026 -1.3288231 -1.0370952 0.1381797 0.1729894 0.39335865 0.8062128 0.15464342 0.33247885 -0.24667692 0.818557 0.02127429 0.51382995 -0.5643899 -1.5015562 -0.27743936 0.6324421 -0.21480654 -0.9570999 -0.1847191 0.16150996 0.9849795 0.6893639 -0.21224028 0.18471485 0.35498616 -0.041439306 -0.5387376 1.0030017 1.5775921 -1.7467998 1.0119702
中午 0.7902921 -0.65926844 1.7441794 -0.047374196 0.47813225 -0.001910365 0.22458184 1.4736216 -0.57090205 -1.0803927 0.420252 0.14821176 -1.5110744 0.48953554 0.22154069 0.9981841 0.84573054 -0.064076304 0.34569925 0.47341955 1.1905358 0.042933334 -0.20104378 -0.88335097 -0.5450495 1.0448054 -0.18622625 -1.1487507 -0.6591564 -0.5943988 -0.025512226 -0.69262046 -0.048160326 -0.5518605 -0.76149195 0.19218233 -0.15307502 0.4915045 0.69935715 -0.6960307 -0.016521538 0.41254473 -0.22964384 0.37937853 1.2241578 -0.5944739 -1.3226912 0.34559488 -0.12410252 -0.19787419 -0.8901053 -0.49912325 0.51821154 0.9999246 0.7844974 -0.2356255 0.38585627 0.24484785 -0.23695058 -0.9352414 0.6118968 0.78953093 -0.9059901 0.64302874
家店 0.31914577 -0.6550554 0.27921155 0.6341897 0.103240654 -0.968236 -0.24477065 -0.65352213 0.07714615 -0.71893036 -0.4318646 -0.7470554 -0.71952504 0.47705024 -0.2260438 0.8721603 -1.434057 -0.39836812 0.1924553 1.4280427 0.29352713 -0.05257598 1.2080352 -0.20256779 0.07132078 1.3796557 -1.0276806 -0.7651939 -1.0484487 -0.55436426 -1.1521392 -1.0562046 -1.2213681 -0.030311894 -0.35033497 -0.40076604 0.6912709 0.21504448 0.7462043 -0.86067235 -0.22159141 0.6417792 -0.12300191 -0.3637847 0.88170063 0.7425791 -0.31188715 -0.36192092 0.21109913 -0.041183632 -0.5129695 -0.027140172 -0.28637442 0.85825616 0.7905149 1.4132468 -0.59103 -0.19670081 -0.6742072 0.91629213 -0.7492874 -1.2047579 -0.205575 -0.41348618
这 0.29813394 -1.2943636 0.8279807 0.5934693 0.2387221 -0.92862254 -0.09945327 -0.29191843 -0.21447547 -0.45198336 -0.17714676 -1.2161802 -1.193048 0.30572426 -0.6072773 1.0335196 -0.70631915 -0.75057673 -0.015077026 1.8193748 0.3017884 -0.23838802 1.0254223 -0.3187739 -0.5464042 2.0009665 -0.94085133 -0.72431284 -0.98516387 -1.2292722 -0.5368948 -0.9581714 -0.6565475 0.5566758 -0.44483766 0.29783955 0.5186775 -0.7738091 -0.16946669 -0.6386593 -0.3194424 0.65544236 -0.9015581 0.02077719 1.4567733 0.17610808 -0.20588586 -0.6075846 -0.5576279 -0.3239823 0.14440838 0.107261606 -0.048095472 0.48725417 1.0864698 0.26746514 -0.4730872 -0.52373445 0.5050199 0.86837834 -0.7125133 -0.67857087 -0.10410226 -0.25345835
饿 0.5122488 -0.36637375 0.10125342 0.26702327 -0.09838563 0.36431646 0.36627495 -1.7821194 -0.8830253 -1.0545925 -0.07370933 -1.057424 -1.017629 -0.13286987 -0.07164434 0.98519945 -0.84575635 0.5206213 1.1542279 2.0446875 0.8558706 -0.338645 1.5140861 -0.7156464 -0.07377679 -0.1412083 -0.22667013 -0.727931 -0.7925686 0.4569924 0.25918332 0.10048905 -1.0010011 -0.28526264 -0.9798518 -0.63437116 1.5711421 0.23255152 1.0321102 -0.7703571 0.55860853 0.71219397 -0.036040425 -0.26495892 -0.2977066 1.4991733 0.2624255 0.8644042 0.22848593 0.013994652 -0.20989794 -0.6919232 0.7203965 -0.057482462 -0.78928393 0.5929168 0.5179391 0.061678335 -1.265888 0.96484864 0.5728028 -1.7965567 -0.6431381 -0.34585884
有点 0.3003694 0.011747886 0.1796954 0.32461208 -0.63040334 0.5739712 0.32928628 -1.3218787 -1.0077257 -0.28704336 -0.6678117 -1.0479342 -0.95581466 -0.10000753 0.75669825 0.6334882 -0.26909417 0.895025 0.5988589 1.6362002 1.0240995 0.3638414 1.5683508 -0.20899265 -0.32379043 -0.68414694 -0.80815667 0.06625068 -0.19403985 0.308706 0.32891703 -0.00034125574 -0.7450271 -0.56889504 -1.0251327 -1.5536437 1.4625001 0.7731839 1.0300938 -0.3933464 0.66152114 0.48231006 0.3513674 -0.60485667 -1.0451262 0.7515305 1.1050801 0.63693434 -0.032023966 0.8070752 0.11721186 -1.2071728 1.0866185 -0.004519533 -0.8808277 1.1848238 0.2555622 0.57493323 -1.3471209 1.0643759 0.4786822 -1.2633154 -1.1352965 -0.5759006
火锅 -0.06995256 0.13714106 0.5987388 -0.23975486 -0.8852816 0.44837633 0.064498745 -1.0363783 0.35017195 0.6106877 -0.119389884 -0.6621227 1.1313915 -0.7728749 0.6336232 0.9276808 -0.38012177 0.39835304 -0.8504677 1.2204803 0.27874678 0.26678443 0.15994745 -0.1231259 -0.03668308 -0.029214533 -0.80746394 -0.9284445 0.4257974 -0.937348 -0.9933245 0.5699809 0.5798575 0.83173335 -0.2627759 0.23840202 0.58895105 0.26075763 0.38180363 0.104866706 -0.35197043 0.8343495 0.051278125 0.0060967053 0.36103642 0.25113535 -0.31533927 0.5645133 -0.15454286 -0.31110793 0.14010873 -1.2179146 0.6347774 0.7595683 1.0035074 0.2996926 -0.69018734 -0.63280654 -0.30796644 -0.3058313 -0.22166915 -0.38092947 -0.46943387 -0.1612944
自己 -0.037408452 -0.47614846 0.2842116 -0.11418776 -0.40548244 -0.8778993 0.35046872 1.2883332 -0.50557214 -0.28754455 0.9307122 -1.2782578 -0.9065461 -0.24335375 -0.5278439 0.5741539 0.75699884 -0.39462256 0.1891656 0.040531397 0.6565708 0.788001 0.78854686 0.076003395 0.0029545492 0.33242977 -0.35370463 0.9080847 0.21238606 0.3974032 -0.13563931 -0.70356405 0.51644605 -0.9434082 -0.061444264 -0.34234577 0.46479383 -0.22147135 0.34023395 -0.46628565 0.5900866 -0.8542704 0.14501965 0.18752159 -0.26128057 -0.78862584 0.6301229 0.09114986 -0.27523786 1.1170919 -0.27757728 -0.8601126 0.56014967 0.2918209 0.7135444 -0.65974534 0.15788957 -0.24844246 -0.43889675 0.09337869 0.6339708 0.40053266 -0.16432032 -0.66236156
犒劳 -0.18608457 0.056762703 0.9195735 0.4589844 -0.66439 -0.40773684 0.8804442 0.71486205 -0.54354256 -0.25177157 0.14841369 -1.316055 -0.6969167 -0.28616834 -0.8528808 0.03208162 0.7065972 0.14651445 -0.23080882 -0.066332914 0.7171027 1.2012033 0.6089473 -0.037315566 -0.009965993 0.7820129 -0.2627955 0.46714672 0.2878867 0.18012542 -0.056291018 -0.20376976 0.31490183 -0.3716208 0.0777162 -0.28303862 0.9497143 0.045812435 -0.11382636 -0.41975188 0.31390235 -0.72296786 0.60661864 0.07170785 -0.8010727 -0.7348321 -0.0838351 0.39620945 -0.42961553 0.47735602 0.123475924 -0.5140747 0.08235272 0.089170896 0.56128716 -0.4426977 0.17194705 -0.79399806 -0.2694748 -0.3742418 1.1193342 0.25841728 -0.13621931 -0.70848596
都 -0.014682989 -0.31992346 0.86506873 0.14638701 -0.22524585 -0.8971982 0.52611965 0.88008946 -0.5646009 -0.061678518 0.2621025 -0.9686914 -0.58042717 -0.4696149 -0.75672257 0.36011413 0.60904855 -0.017097948 -0.11538701 0.2872827 0.54727656 0.55753785 0.5029247 0.6825367 -0.3978818 0.35904062 -0.19918095 0.49582353 -0.18685251 0.0693958 0.2033031 -0.2824545 0.24588399 -0.82583773 -0.04317791 -0.06475115 0.47244745 -0.0846769 0.3323329 -0.3814641 0.3343488 -0.5661886 -0.07274883 0.15592487 -0.5771307 -0.19115813 0.34488755 -0.050917402 -0.6642141 0.58206886 0.16836694 -0.32879755 0.10482529 0.31277752 0.55516446 -0.76396805 0.31122324 -0.24712966 -0.30407983 -0.21068941 0.88412523 0.33630827 -0.3558344 -0.7985049
一整天 0.230747 -0.08140187 0.39614072 0.23924634 -0.3320835 -0.4856789 0.59307146 0.62866265 0.07892747 -0.35336256 0.12454828 -1.0667044 -0.5712994 -0.27902701 -0.83941746 0.70917785 0.45002976 0.013323006 0.051263962 0.26690742 0.78223425 0.98720443 0.82918453 -0.17409831 -0.37177387 0.35806677 -0.27204463 0.4490865 -0.10217067 0.28269887 -0.17066656 -0.21117623 0.22424297 -0.60667133 0.07486693 -0.6944968 0.28614002 -0.21368411 -0.4424775 -0.00026675814 0.32277066 -0.78352326 0.09230663 0.31379893 -0.48664 -0.6872983 0.03455164 0.32910207 -0.0060717193 0.6369303 0.054263163 -0.8216929 -0.019903935 0.44622484 0.4386166 -0.68873453 0.11049963 -0.5345324 -0.41792563 -0.32101327 0.2780401 0.14937647 0.17718206 -0.27700076
绝配 0.27881104 -0.89728993 1.1475377 -0.14644217 -0.21149452 -0.64581543 0.5136263 0.47386026 -0.9783588 0.25417575 0.5995552 -0.69447947 -0.98327667 -0.7469548 0.7226332 0.14610884 0.49069574 0.19248086 -0.20244865 1.0907083 -0.3345103 1.0870752 1.0808388 -0.016373863 0.45573595 1.0564975 0.3121879 0.4902466 1.2850556 -0.27884287 0.29789048 0.98837036 0.026314473 -0.25258425 -0.24945755 0.11361137 0.832006 -0.93686897 0.02651042 0.113365375 -0.058108605 -0.40023816 -0.7216264 -0.6309787 0.14680842 -0.81136656 0.64792705 -0.30571878 0.009137021 -0.076477475 -0.070470914 -0.3940515 1.0122125 0.46981865 0.7898393 0.08562994 0.20105638 -0.28611913 0.30166605 0.84454286 -0.52966976 -0.2160271 0.13362168 0.27847692
是 0.52641463 -0.50383717 0.8223308 0.30537504 -0.3595322 -0.63667893 0.8406142 0.5683401 -0.87361467 0.22474909 0.6500392 -0.98437935 -0.71624726 -1.0542284 0.40157047 -0.32595518 0.32197875 0.18709332 -0.6849621 0.76959556 -0.32871476 0.73817366 0.6097472 -0.39606553 0.5840955 1.0866133 0.05949933 0.018732358 0.8301765 -0.62941086 0.49551877 0.7984102 -0.5686641 -0.35024792 0.30444622 0.078878835 0.8014948 -0.6746053 -0.030804163 -0.27959844 -0.3428721 0.18568887 -1.0599734 -0.58285695 -0.451704 -0.07065578 0.5836835 -0.28851396 -0.220345 -0.34881908 -0.20138219 -0.40418342 0.32233015 0.22787717 0.8780904 -0.3295447 0.27683398 -1.0287641 0.1322165 0.6050012 -0.16075553 0.24754937 -0.70574313 0.2272541
里 0.3028659 -0.68329644 0.9166326 0.36820176 -0.043385126 -0.32929063 0.5255797 0.034988433 -0.63286567 0.56506735 0.18766116 -0.85146695 -0.51103765 -0.52847093 0.21527697 -0.18086873 0.6843873 0.657862 -0.57802564 0.7085058 0.18921646 0.78000206 0.9868524 0.23310888 0.18867645 1.359465 0.22933798 -0.084607475 0.5558371 -0.45972422 0.5149885 0.9460323 -0.110826604 0.1633339 -0.14621899 -0.09791797 1.0312705 -1.2239671 0.24131629 0.4684037 -0.18312527 -0.19854635 -0.56715107 -0.37841982 0.047758836 -0.5376111 0.43817496 -0.17610069 0.11494443 -0.3684452 0.16036835 0.24189529 0.49049562 0.8398788 0.85872304 -0.33707583 0.03070822 0.10748423 0.5523379 0.084376924 0.31546113 -0.31045583 0.2619507 -0.13183963
日子 0.6230676 -0.29346275 0.54787123 0.07572288 -0.2409166 -0.70416427 0.24377255 -0.12495439 -0.5268007 0.26373073 0.8682917 -0.86515766 -0.35775086 -0.8001055 0.19710338 -0.33114973 0.5243017 -0.019508382 -0.5741259 0.83473843 0.016090814 0.30377242 0.6621905 -0.14808117 0.24580912 0.94704306 0.24958757 -0.066017024 0.4432361 -0.81995314 0.80569214 0.8006162 -0.1712747 -0.4579572 0.08324898 -0.32578555 0.76985735 -0.95354414 0.4592923 0.14885332 0.22234978 0.0117234625 -1.1475428 -0.024886357 0.5266025 -0.16515212 0.40084353 -0.18678667 0.20291515 0.43191242 0.034084395 -0.22197138 0.36265326 0.6226926 0.799612 -0.4684391 0.26414743 -0.381138 0.2597815 0.35530895 -0.41614872 0.28382215 -0.1470216 0.15537909
也 -0.5124114 -1.0194305 0.54832846 0.43937945 -0.26231492 0.2017388 -0.13837667 -0.4592252 -1.0475448 0.26330215 -0.008743737 -0.16224498 0.36298427 0.028440299 0.0063840244 0.14822315 0.2669997 0.30808392 -0.18671931 0.510674 1.297576 0.014676564 -0.53826004 -0.76114655 -0.27733654 -0.22605783 -0.66223866 0.058132023 0.22348978 -0.2323041 -0.17473327 0.26367402 0.651255 -0.064398855 -0.032223776 -0.41352132 0.61832064 -0.24780346 0.5094213 -0.44103956 0.20027125 -0.500218 -1.2526555 -0.029562917 -0.07844022 0.05800815 0.020173568 -0.48369178 -0.22027743 -0.3896895 0.44028717 -0.37804422 -0.32503656 0.7312726 -0.35616338 -0.30692467 0.027554812 0.1013108 -0.9272053 0.92504305 0.3833868 0.1383253 -0.4363263 -0.07758965
夜宵 -0.22812214 0.08580284 0.25117072 -0.31238988 0.3782759 -0.0071461275 0.21059759 -0.37044877 0.23632042 -0.525491 0.31991538 -0.21296714 0.01350189 -0.13078515 0.32316348 0.14796643 0.57940346 0.27814695 0.042728577 0.2588996 0.20680453 0.61812246 -0.1193012 0.21123773 0.12905693 -0.42030543 -0.7568053 -0.00060835097 0.16334033 -0.16620742 0.16318507 0.29506853 0.24110126 0.070073605 0.57131916 -0.12594333 -0.22058392 0.49109864 0.42164436 -0.08000288 -0.29304317 0.72920525 0.18256205 -0.28845623 0.51086175 -0.6378803 0.27407312 -0.4611635 0.33931908 0.1292904 0.9329322 -0.19696444 0.6093092 0.43585297 -0.017056733 -0.023815496 0.49622855 -0.5207052 0.63864744 0.23013446 0.19396846 -0.047683418 -0.42654684 -0.02319904
适合 0.25423238 -0.09314896 0.6203622 -0.33678067 -0.38042715 -0.5113914 0.91121304 0.0011201641 -0.41146234 0.7403275 0.4970903 -0.49723992 -0.15474187 -0.7367917 -0.37924942 0.396189 0.8377093 1.0707245 -0.2429273 0.80158514 0.31873366 0.27850136 0.69978976 -1.1190915 0.19563286 -0.6621055 -0.48952782 0.40939963 -0.63072985 0.8160236 0.4366477 0.5288519 -0.7778287 0.22251058 -1.4249003 -0.5317164 0.781049 0.15973596 0.8095063 -0.840396 0.067811765 0.016319295 0.31201905 -0.5540132 -0.069162 -0.4643901 0.19180804 -0.0034919241 0.60533345 0.5691771 -0.27096686 -0.014163344 -0.3639732 0.25454244 -0.62159413 -0.81278706 0.11482834 0.027990388 -0.14493224 1.5957232 -0.26830882 0.36111522 -0.122263156 -0.37497047
最 0.07270769 -0.21155186 0.05772907 -0.8107914 -0.39059636 -0.5672951 0.8190385 0.56245357 -0.19463056 0.60189146 0.2122787 -1.0619802 -0.2286805 -0.5053097 -0.5618922 0.68278265 0.63571244 0.29162183 0.13252068 0.32977834 -0.10017452 0.587306 0.49796718 -1.0833433 0.074440636 -0.2267663 -0.6557353 0.06780573 -0.28862923 0.4153296 0.32639664 0.31751993 -0.60343254 0.20357013 -1.41643 -0.6982939 0.29188251 -0.2900261 0.65884364 -0.41824132 0.59780186 0.21999675 0.056452163 -0.6973929 -0.5958271 0.29446316 -0.38380703 0.22041892 0.5156488 0.67394847 0.2504869 0.18981205 -0.34041524 0.0021814317 -0.21815275 -0.8584978 0.535106 0.17148703 -0.2602985 1.3274913 0.14760907 -0.4487382 -0.038576808 0.13285482
时候 -0.018040115 0.2321101 0.1767218 -0.44218066 0.41709346 -0.24435015 0.3783203 0.4049285 -0.05196446 0.648585 0.054832757 -0.63758105 -0.08183285 -0.35076514 -0.5091647 0.33288875 0.7983882 0.96056026 -0.13200681 0.6593778 0.24382716 0.9657229 0.4028699 -1.0106997 0.11490462 -0.17164525 -0.46039754 0.6360647 -0.6088316 0.76416487 0.25293368 0.4545508 -0.680978 -0.089849025 -1.2376369 -0.6151425 0.5885048 0.053727124 0.34350428 -0.8715303 0.44510108 0.031693775 0.18857497 -0.44443965 -0.4888256 0.13737392 -0.022843312 0.037757836 -0.1478049 0.23502912 -0.021944735 0.47865424 -0.40350586 0.73031485 0.2542466 -0.71966 0.60133046 0.06637313 0.011017263 1.5916545 -0.5717625 0.057986137 0.07191336 0.14716302
吃火锅 0.36874422 -0.38123846 -1.2502176 0.41331258 -0.48089552 1.0860649 0.083617344 -0.4719442 0.35845277 0.36702347 -0.3314106 -0.8657868 0.19267909 -1.1136371 -0.2476444 0.14647979 0.30848488 0.8580254 -0.16068457 1.1956948 -0.04868394 0.945532 0.5477473 -0.0040558027 -0.87921786 -0.4005622 -0.6611875 -0.6153184 -0.42665815 -0.22816278 -0.8714253 -0.2191075 0.4004655 0.2554619 -0.7393949 0.55015516 -0.1535008 0.68093586 0.8581728 0.6630289 1.0676887 -0.43860176 -0.11581449 0.1221427 -0.4950835 -0.42258266 0.2583341 0.2704048 -1.1383302 0.374114 0.14480112 -0.42143238 0.9139225 0.4563013 0.21768574 0.3196496 -0.74868566 -0.40571627 0.41486686 0.14931461 0.52523625 0.232945 -0.4916639 0.44365588
不 0.17084584 -0.66090786 -0.033338692 -0.4682032 -0.5802899 0.21921901 -0.31696662 0.64110494 -0.4156031 -0.15848258 -0.10959547 -0.7593932 0.30902258 -0.016922371 0.097180866 0.5344651 -0.18019037 0.808569 0.2059782 -0.24277845 1.0280318 0.3094887 -0.5857473 -1.3273386 -0.31856385 -0.07864879 -0.49165043 -0.30943647 -0.49337658 0.09699206 0.14617997 0.18422206 -0.23672934 -0.10873474 -0.6471175 -0.13361026 0.6348834 -0.65324646 0.4197736 0.33375406 0.36715755 0.370953 -1.132845 0.06703878 0.6509729 0.13924277 0.1422445 0.7010114 -0.28927174 -0.35707065 0.5245543 -0.59269476 -0.53580743 0.70130014 0.7934698 -0.10591969 0.8261635 -0.022741092 -0.7618126 -0.034727857 0.16281201 0.318134 0.17642488 0.59955764
早上 -0.03856687 0.15840751 0.13351157 0.062098157 -0.35410893 -0.6174991 -0.17836285 -0.46322736 -0.76138824 0.015944622 0.29249698 -0.24394214 -0.45615622 0.2769276 0.66524965 0.091224596 0.7082434 0.6051409 0.54041374 0.8609847 0.39583713 0.4462965 -0.2820084 -0.07278795 0.3817677 -0.048859052 -0.7401726 0.020039696 -0.28223613 0.5565663 0.7204194 0.4872445 -0.36680168 -0.25534886 -0.04943279 -0.70685035 -0.8087441 -0.5796547 0.3756532 0.4314618 -0.33374107 0.4846457 0.7334556 -0.4854841 -0.40971768 -0.17345287 -0.19686766 -0.06828036 -0.23866026 0.111918725 0.47136113 0.06836529 0.77927715 -0.13305734 0.31259328 -0.02842481 0.4953585 -0.5526098 0.5057094 0.3676866 -0.28377107 -0.08362779 -0.3466798 -0.494657
来个 0.5188378 -0.5718421 0.15831736 0.11181969 0.45192018 -0.76384896 0.46715826 -0.3952056 -0.30131242 -0.0715621 0.7906271 -1.5461203 -0.5297261 -0.45047545 0.14377348 0.72290665 0.15443501 -0.16095243 0.49666107 -0.63395 0.8528643 -0.2626272 0.9906722 0.259831 0.13107634 0.9610687 -1.1329633 0.62384665 0.25146037 0.5561043 -0.13780765 0.5851867 0.5070524 0.28100544 -0.36670965 0.40556696 0.4403885 0.39387634 0.051879473 0.084189706 0.039115362 0.76537293 -0.7351013 0.15340473 -0.15711154 -0.20177925 -0.92486316 0.20547795 -0.54032195 -0.08061674 0.31285256 -0.919293 0.7436767 0.75600463 0.027021613 -0.9686658 0.115630835 -0.029634055 -0.7229663 -0.03914463 -0.055449452 -0.43405196 0.82698625 -0.34981632
不如 0.42941105 0.12605387 0.3611929 -0.009312029 0.21679296 -0.894579 0.5489791 -0.18192503 -0.5511191 -0.37659195 0.29061675 -0.14984639 -0.4996374 -0.51814085 -0.18559015 0.79628795 0.21697211 -0.23298033 -0.40069753 -0.68726474 0.80185366 0.10610439 1.7312914 -0.61507815 0.5783708 -0.037169624 -0.07476981 -0.12827848 0.51181704 0.7142108 0.7868005 0.2360664 0.751903 -0.9722469 -0.682751 -0.8602135 1.4333243 -0.2212307 0.6816791 -0.8201779 1.1009288 -0.14342408 0.09306928 0.054269575 -0.5008648 -0.2853819 -0.12049331 0.33087465 0.5126518 0.2538426 0.08115107 -0.5516791 0.9639529 0.78214836 -0.34739658 0.7690905 0.70154047 -0.11594226 -0.50337744 0.0985971 -0.24420924 0.024293283 -0.3748025 0.5123113
吧 0.4462351 -0.1279195 -0.23357584 -0.018938774 0.2738391 -0.7787143 0.8384161 0.44196936 -0.8393052 0.18396764 1.1839219 -0.84945273 -0.55265856 -0.40565777 0.1987935 0.80598116 0.3897944 -0.6416815 -0.10945529 -0.4720658 1.4769984 0.31462014 0.9611746 -0.15548946 0.6061819 0.58352745 -1.186993 0.01417181 0.34453958 0.48283598 0.3966941 0.4936175 0.6270524 0.36018747 0.117347345 1.0237951 0.8487056 0.55268973 0.8185574 0.32336807 -0.27357647 0.5804482 -1.0095303 0.62440735 -0.30953795 -0.69275916 -0.18148826 -0.028618764 -0.5799749 0.38874632 -0.36768273 -0.080153055 0.44999474 1.247312 0.8827678 -0.64970267 0.011509785 -0.6941328 -0.81343573 0.3555025 0.21782832 -0.9283091 0.5038778 0.1267883
清淡 -0.5706957 -0.47739547 -0.36160305 -0.5701781 -0.2469144 1.283753 -0.32217345 -0.023231436 0.3272626 -0.15871103 -0.17603 -0.3568609 0.06564608 -0.44295514 -0.14136471 0.522536 0.19813094 0.5575964 -0.22663249 0.46955812 -0.14242108 -0.035902247 0.6413054 -0.55799663 -0.22269033 -0.0605959 -0.77152205 0.13551888 0.72157335 -0.39188066 0.21691754 -0.41719332 0.13172215 0.37891328 -0.930506 -0.11897088 0.37790897 -0.054971844 -0.04554052 -0.56216455 0.069317445 -0.022230068 -0.18940386 -0.56006795 0.24230877 -0.090291545 0.16040318 -0.70432323 -0.37699148 0.06406099 -0.059149116 -0.3693394 0.5076331 0.17516655 -0.012545643 0.3114424 -0.040762864 -0.5259825 0.03984188 -0.13015418 0.63499063 0.09541656 -0.08780545 0.17563565
要 0.23300529 -1.3456486 0.010175371 0.92644614 -0.9909121 0.04683088 0.022790907 -0.36667714 -0.49359238 -0.35422897 0.40543237 0.14098494 -0.8068077 0.3735124 -0.123476684 0.3820507 -0.08760259 0.10254083 -0.7326004 0.0877747 1.0559534 0.7855605 0.18188994 -1.8093349 0.17234598 0.28237787 -0.48352027 0.20123576 0.16393709 0.23231064 0.45317224 -0.3583179 0.89366096 0.2048878 0.581227 -0.6507196 0.77017045 -0.29164147 0.4692655 -0.45721814 0.59993047 -0.33119607 -0.53475624 -0.124031134 -0.02580603 -1.1198406 0.41042405 0.33794597 -0.42556554 0.066287756 0.20598522 -1.1923133 0.25663006 1.0230135 0.08619173 0.09169294 -0.013064162 0.09769684 -1.0879589 1.0807196 0.13898447 0.43218434 0.19648924 0.21819337
就算 0.17756186 -0.8568884 0.1843051 1.2003739 -0.44664848 -0.41218182 0.34308416 -0.9066612 -0.91486716 -0.42817736 -0.16109835 -0.61333185 -0.14873248 -0.061590202 -0.357028 0.14164051 0.08072547 0.50205433 -0.5749834 0.196266 1.0670191 0.4276935 0.21468846 -1.3957789 -0.23471606 0.33947685 -0.36234197 0.2535963 -0.6978941 0.44106367 0.22029877 -0.29753274 0.3742447 -0.306716 -0.037809487 -0.5263473 -0.114937976 -0.48828286 -0.021187583 0.04129259 0.7263929 -0.008833175 -0.5970276 0.09532356 0.19844855 -0.44097927 0.84099895 0.49144977 -0.53167516 -0.37850893 0.07329321 -1.2021744 0.22723748 0.93690836 -0.453896 -0.3984027 -0.056758553 0.24993102 -0.642346 0.73084176 0.4926133 0.21893951 -0.0033369001 0.23476715
减肥 -0.5345392 0.16587305 0.17129935 -0.27770016 0.78829175 0.89234084 -0.30439863 -0.23588082 -0.6762531 -0.58453256 0.3083135 -0.69273114 0.2929687 0.92439085 0.18202764 0.40750384 0.2497068 0.7517262 -0.04638507 0.21986675 -0.09387859 0.36028203 0.51216984 -0.68230706 0.377066 -0.37185162 -0.30573198 -0.39841977 0.5592456 -0.3854598 0.19575179 0.03900518 0.036335554 0.3126261 0.3191558 0.14363828 0.9292425 0.17339045 -0.33827004 0.20926765 0.21652582 0.41784805 -0.18066028 -0.0026896033 0.3126808 -0.00092352636 -0.69305533 -0.2768106 0.03810386 0.44594824 0.12954246 -0.20938852 0.6291723 0.7312388 -0.8254275 0.8161671 0.42464343 -0.7353486 -0.46167985 -0.22417507 -0.3720795 0.2930331 -0.122908846 0.4846249
朋友 0.6374344 0.66699374 -0.18768089 0.026379453 -0.088525385 -0.26340756 -0.086555146 -0.76488984 -0.48685572 -0.1899549 -0.018632092 -0.2507522 0.07461924 0.035529476 0.24117152 1.0943416 0.48247954 -0.021017177 0.11609111 1.0639651 -0.10864569 0.5941668 0.01064894 0.47512826 -0.04292587 -0.3913568 -0.15571901 0.31304464 0.31911278 -0.24536547 0.44668296 0.0633383 0.34868547 0.7807305 -0.4414581 -0.003319661 0.18984577 0.86527896 0.19451128 -0.046129487 -0.05077318 0.1144483 0.35068431 0.3361375 0.059874512 0.07154024 0.31139326 0.4784511 0.15051734 -0.19502522 1.055656 -0.86680347 0.71459 -0.23799527 0.611413 0.0003186651 0.11856812 -0.6006484 0.35912138 0.3298822 0.34378713 -0.1649555 -0.4960479 0.3312488
还是 -0.3199669 -1.0710014 0.117367215 -0.21307836 0.099191666 -1.4219904 -0.5329637 -0.07759534 -1.1386095 0.006251128 0.11391087 -0.69776136 -0.7244923 -0.40406308 -0.7220378 0.31338158 -0.24352817 0.5010976 -0.28485078 -0.6146455 1.0887284 0.39377645 0.97898716 -0.9813136 0.5944227 0.19177324 -0.9027999 -0.62222135 0.0017793959 0.29873964 -0.5764373 -0.16932842 -0.11354228 0.4810491 -0.9485247 -0.0014352921 0.50231874 0.17559342 0.16585256 -1.021341 0.6430999 -0.92125636 -1.0422966 0.60892534 0.14635393 -0.70712906 -0.4680188 -0.5142844 -0.56648284 -0.08116511 1.2194804 0.18694828 -0.53875047 -0.31862155 -0.011171302 1.0272897 -0.1354729 -0.08616541 0.9827402 0.35183334 0.10875689 0.6961127 -0.032603875 -0.6475277
但 -0.43950132 -0.874968 0.31616703 -0.0025278209 -0.099002324 -1.4744918 -1.2525666 -0.4568569 -1.1142377 -0.16275111 -0.061168093 -0.56842786 -0.07003393 -0.39359492 0.03475608 0.005468572 0.11985715 0.12041187 -0.3069832 -1.1197528 0.5263844 -0.04544033 1.3916477 -0.90543187 -0.047377206 0.3467896 -0.81696343 -0.31457442 -0.69575673 -0.12904362 -0.11259314 0.04216426 -0.21709625 0.33737707 -1.0427809 -0.48058954 0.040340893 0.4506466 -0.21898323 -0.6192758 0.7378673 -0.32467028 -0.8044403 -0.15681562 0.27356654 -0.94840413 0.009078305 -0.3787856 -1.0022871 0.3132127 0.8246452 -0.29798353 -0.6752923 -0.5428195 0.64502615 0.0627432 -0.48167118 -0.29850933 0.019091738 -0.02872613 0.011662286 0.6587354 -0.41665894 0.33755904
虽然 0.06572601 -0.79712546 0.44703287 -0.11221767 -0.0549807 -1.3193154 -1.0959295 -0.26879132 -0.7528107 0.12882526 -0.1707884 -0.12371616 -0.3709794 -0.874073 -1.1212087 0.2777663 -0.022197776 0.30046418 -0.53317004 -0.17190461 0.5967545 0.24756576 0.9177485 -0.68900096 0.30396777 0.13852166 -0.8872492 -0.9003127 -0.59611547 0.39020696 -0.19404666 0.20948485 -0.33997035 0.044229604 -0.69040686 -0.09380193 -0.016375856 0.09426083 0.20457679 -0.48849982 0.5101855 -0.12955576 -0.73544145 0.5176068 0.13278052 -0.7923302 -0.111936964 -0.4834989 -0.9015455 -0.19805294 0.92653793 -0.2726922 -0.51610523 -0.22449976 -0.2061653 0.64682525 -0.2637511 -0.04810614 0.15329367 0.25213715 -0.32940096 0.6529492 -0.37164837 -0.43553975
睡觉 0.41287577 -0.15139672 0.23358348 0.15036632 -0.09578462 0.031584617 -0.32535794 -0.3549856 -0.20146316 -0.31008267 -0.0070270267 -0.091841534 0.0011976177 0.011698976 0.8789477 0.040276032 0.53791153 0.5819924 0.53770375 -0.021164067 -0.23438023 0.101404056 -0.3354314 -0.080352135 0.32207313 -0.03432792 -0.95468456 0.15326677 0.19028588 -0.2368485 0.21419585 0.2892639 -0.1415189 0.26916936 0.20415565 -0.79399973 -0.2570444 0.0712447 0.56962365 0.13340762 -0.28384963 0.29698986 0.12711254 -0.95038235 0.19518347 -0.10656805 -0.6402353 -0.4229544 -0.06953335 -0.13295169 0.99921364 -0.13498646 0.14755829 0.16510567 0.39385656 0.39085788 0.93351436 -0.3892331 0.7326757 -0.04388447 0.100600004 0.16672301 0.07529465 -0.4397789
挡不住 0.28630853 -1.3674301 0.96855944 0.7082565 -0.23762503 -0.8896504 -0.7340352 -0.643295 0.1860316 -0.61780167 -0.87714374 -0.91341954 -0.8831489 -0.92075944 0.13779336 1.4097238 -1.0506085 1.3150904 1.2271394 0.057619832 -0.2251858 1.035545 0.9677471 -0.019027608 0.8150048 -0.3309126 -0.49889675 0.2627018 0.37393752 0.0023261493 0.1964546 0.3407247 -0.46794274 -0.11350946 0.29305294 -0.4339651 1.187786 0.12624386 0.6098357 0.3389033 0.9702773 -0.19541532 -0.573157 -0.7779181 -0.1880422 -0.021799026 1.0857171 -0.62421995 0.8496632 0.35175285 0.43699375 -0.74867296 -0.90340394 0.15810823 0.5960619 0.30674258 0.18178874 0.18150882 -0.17470835 0.509619 -0.3985844 -0.124808155 -0.11095657 -0.07541775
诱惑 0.5791269 -0.4589055 0.7098835 0.84886146 0.20687169 -0.8525841 -0.014495729 -0.59409493 -0.68894756 -0.41492563 -0.47720408 -0.9258975 -0.37556422 -0.9264596 0.07652375 0.38658372 -0.8482023 1.2704829 1.0298532 -0.49971163 0.093590856 0.5898495 0.879474 0.088361695 1.2666867 0.1673103 -0.48388025 -0.29351524 -0.4140696 -0.10217049 0.43228835 -0.3070016 -0.25930944 0.79401416 0.30557194 -0.07066892 1.4642669 0.5730337 0.6430123 -0.3142919 0.38744828 0.4327274 -0.20706975 -1.0545515 0.12714456 0.17325725 0.9994512 -0.23879015 0.18876104 0.710254 -0.22354844 -0.88651687 -0.7880132 -0.09704897 0.6664919 0.45639452 0.117982775 0.41432562 0.12800355 0.80029553 -0.3830561 0.41212618 -0.86406577 -0.28445798
但是 0.45769748 -1.1548162 0.68946403 0.502598 0.42650607 -0.8203754 -0.32615912 -0.4909538 -0.11915922 -0.5725143 -0.89188296 -0.8394774 -0.37011588 -0.71881866 0.3813594 0.86150616 -1.1905783 1.5576991 0.97648346 -0.3264524 0.12011558 0.81275433 0.69820964 0.08935407 0.8199489 -0.3421192 0.0094336625 -0.016781032 -0.046470277 0.22507253 -0.08963422 -0.0068631102 -0.13481584 0.2817319 0.029926434 -0.47284922 0.4820695 0.3012808 0.68930674 -0.00828817 0.37294844 0.35106856 -0.8653831 -0.32509282 0.14472182 0.24346377 0.8178737 -0.3240326 0.36716643 0.9734114 -0.10439273 -0.40541735 -0.22884776 0.031701397 0.43799058 0.39846954 -0.017003004 0.051165007 0.2991667 0.3933163 -0.39494407 0.11467287 -0.46872136 0.17477533
冬天 -0.3612012 0.30189025 -0.48034117 -0.4462775 -0.22637959 0.33893153 -0.26111892 0.04518606 0.61327785 0.20726608 0.21484096 -0.49858215 -0.22098234 -0.5723718 0.42346117 0.46124172 -0.24083667 0.2031452 0.2728007 0.44951293 0.35028303 0.15313797 0.61340094 -0.21536043 -0.0639344 -0.352336 -0.51351595 -0.17430812 -0.03458044 -0.71695685 -0.7914846 -0.3480801 0.16586863 0.8804874 -1.0552777 0.21613476 0.016569713 0.58826613 0.58505684 0.21919078 0.49890494 0.296207 -0.28769597 0.4347257 -0.32253745 -0.07864584 0.33404413 -0.06467215 -0.8152084 -0.5435605 0.29010752 -0.37595466 -0.114031576 -0.43371272 0.8245976 -0.076377496 0.05947445 -0.5736832 0.2694812 0.026231129 0.5470979 0.10654227 -0.19021723 -0.5299682
晚安 -0.08371326 -0.24479474 0.024700055 0.2100043 -0.34309703 -0.6322791 0.35945064 0.09293495 -0.041233663 -1.11233 0.12165354 -0.33535776 0.15378724 -0.49810416 0.50110763 0.40785673 0.21091947 -0.5073769 -0.25045148 0.44098464 0.93837756 0.6448561 -0.16327207 0.5244512 0.16055727 -0.12077268 -0.8706197 -0.54291743 0.40607455 -0.14120279 0.32352602 0.25211808 -0.27624652 -0.8320528 -0.26074842 -0.70167667 -0.58517945 -0.29428324 0.23079649 -0.069548525 -0.56764436 0.39052755 0.9615953 -0.6030233 0.5132372 -0.8940964 0.3355481 -0.20785743 0.3405078 -0.48640773 0.38738135 -0.13591221 1.0317585 -0.1288889 0.49928027 0.5383641 0.91284955 -0.8603039 0.58118683 -0.060907193 0.29910544 -0.2156903 -0.14230663 -0.23037632
就要 -0.13841376 -0.79855543 0.8218387 0.76999944 -0.29018953 0.049579706 -0.56058645 0.6647079 -1.465304 0.19447789 -0.3195378 -0.36542806 -0.17945747 -0.14250529 0.10772963 0.57682645 -0.15086117 0.6153269 0.29890803 -0.62546384 1.0492581 0.5834569 -0.43354332 -0.9958052 0.32455012 0.11518144 -0.34451702 -0.28881228 -0.8642065 0.22153933 0.31439915 -0.59009343 0.96595335 0.6521982 -1.2764649 0.4845871 1.031885 -0.23280336 0.91895914 -0.32549387 0.48646492 0.14131057 -0.82897246 0.2726863 0.6211772 -0.21947138 -0.07728346 0.64037627 -0.081995554 -0.03816711 0.2624057 -0.62171996 -0.33356008 0.47943884 -0.14370556 0.8836915 1.1702567 -0.16178603 -0.1734655 -0.5245822 -0.2196301 0.70658094 -0.16396736 0.5813647
管它 0.45939943 -0.611348 0.9995158 0.5203766 -0.0069840807 -0.048079275 -0.31584075 0.49931198 -0.7959039 0.43567196 -0.47531864 -0.9053945 -0.26975182 -0.11890246 -0.18895622 0.57606065 0.0904324 0.846746 0.047339883 -0.23636393 0.88876414 0.3489647 0.20338489 -0.64915323 -0.25965998 -0.15743181 -0.19808201 -0.45218006 -1.1852272 0.34248653 -0.19208524 -0.30494615 0.63140875 0.25494128 -0.5027552 0.7171555 0.24507554 -0.3223642 0.62906253 -0.008131142 0.32496184 0.4524046 -1.149571 0.2894139 0.56808686 -0.23444945 -0.35506237 0.29248723 -0.5872898 -0.33210653 0.58334094 -0.6930872 0.032915503 0.7412225 -0.6277921 0.32277682 0.8898836 0.5650471 -0.38001278 -0.44731778 -0.48710755 0.41763332 -0.5820828 0.71889406
夏天 -0.3213334 0.28986046 0.19088376 -0.08364259 0.30050287 -0.08413076 -0.259166 0.2027374 0.19056301 -0.5534219 0.26973444 -0.44686994 0.18459803 0.16403106 0.18132897 -0.31613803 -0.36006844 0.5304995 -0.1259139 0.58959067 -0.18889953 1.0034052 -0.17652823 -0.4952608 -0.16378802 -0.44831198 -0.35911435 0.54071593 0.37370294 -1.4039786 0.32256767 -0.12624237 0.5997637 0.33528835 0.2261853 -0.20792903 0.35329372 0.10447773 -0.06804005 0.06552057 0.07364631 -0.2158962 -0.2859509 -0.005959572 0.23236775 0.22654186 0.2672736 -0.2494195 -0.21402983 -0.09335648 -0.102330916 -0.22481462 0.7514283 0.6202163 0.8748911 -0.12835772 -0.20093654 -0.40441257 -0.0134914955 0.7004875 0.80231285 0.4877026 -0.044371255 0.28990465
熬夜 -0.38370207 -0.019135399 0.39589432 -0.20657864 -0.21463485 -0.053188898 -1.0159773 -0.3975916 -0.00202417 0.042048696 -0.41089705 -0.86983 -0.15118119 0.58334833 0.83077425 -0.32106367 0.25525627 0.35439488 0.57621986 0.28363886 0.37328684 0.55912125 -0.30935967 -0.67685336 0.30524415 -0.12154457 -0.5207419 0.15618883 -0.114192344 0.13620363 -0.116367504 -0.68464464 -0.15218125 0.26673937 0.24060251 -1.0300642 -1.0018688 0.22403945 0.43381107 -0.027313117 -0.6376411 -0.61000323 -0.09171089 -0.8270786 -0.73463005 -0.30111614 -0.32875055 -0.8002331 -0.4888744 -0.2747774 0.9921447 0.01022483 0.82104313 0.45933437 0.3753569 0.15485214 1.0150886 -0.22328526 0.09747 0.62986887 0.17722152 0.11358668 -0.5360629 -0.8202417
凉爽 -0.050421536 0.80399805 0.58015376 0.28108674 0.22744809 -0.25305268 0.25853798 0.25689426 -0.82210493 -0.30166486 1.11465 -0.24585666 0.45025223 -0.39454645 1.1116952 0.23401757 -1.1579219 0.15395947 0.13725832 0.89610755 0.08902296 0.20664142 0.53355503 -0.2781553 -0.28043813 -0.49991786 0.07264192 -0.6136408 -0.2653236 -0.55370355 -0.43644127 0.64747995 0.46885222 -0.009698098 -0.38136902 0.43533918 -0.15341929 -0.11583296 0.96883076 0.2392172 -0.22319156 -0.04889186 0.62964875 -0.38075396 -0.59582347 -0.09401852 -0.39067614 0.21094055 0.47716966 0.52993774 0.1260475 0.36626422 1.0054601 0.93354064 0.1284815 -0.4220175 0.21251892 -0.70476973 0.30247843 0.48961788 -0.47453308 0.017717404 0.26477885 -0.3646225
苦 -0.57528967 -0.1775075 0.18940032 0.6355006 -0.8249947 -0.41303885 -1.2303187 0.37362868 -0.18307757 -0.18756947 -0.63729316 -0.45071265 0.15153812 -0.21934299 0.03368438 0.13243969 -0.032213397 0.45682275 0.70023996 0.71142566 0.6368141 -0.2728405 0.4326666 -0.69289064 0.61325485 -0.1405552 -1.1178 0.38803226 -0.44024825 0.011057259 -0.062899396 0.029301705 -0.3832413 -0.112999246 0.7403936 -0.110379815 -0.4635391 -0.20756875 0.5358932 -0.2122495 -0.9317279 0.03744962 0.7656831 -0.5672428 -0.247302 0.08437138 -0.38358316 0.3771474 -0.5957673 0.68134934 0.35952964 0.16416156 0.26840234 -0.053519424 0.63011503 0.18848172 0.1959071 -0.42583364 0.63407683 -0.17339201 -0.04161243 -0.58508915 -0.7471152 -0.7912857
解暑 -0.42199823 0.8470224 0.38028538 0.51421106 -0.12604187 -0.663146 0.0013830938 0.8498241 -0.43350902 -0.6219746 0.9683528 -0.4087762 -0.05058419 -0.27067038 0.579963 0.017185949 -1.0875297 0.12691085 0.24549653 1.0416945 0.34131366 0.13974157 0.55885637 -0.40292105 -0.33526278 -0.1865558 -0.4925799 -0.13516141 -0.6688892 -0.56807846 -0.33540332 0.7482108 0.6334401 0.28194106 -0.6120288 0.053122614 -0.5187377 -0.26012436 0.4618609 0.43380103 -0.39211863 0.16382298 0.43673772 0.2208493 -0.7061775 -0.46055084 0.1580346 0.20614512 -0.15160185 0.19701506 -0.10670331 0.2155171 0.6306243 0.39721936 0.45831525 -0.40794626 -0.043598164 -0.5690717 0.75476956 0.6684597 -0.09516454 0.103798494 -0.035412535 -0.45509222
爱 -0.1388768 -1.0563816 0.18620417 0.047519583 -0.42776737 0.1872268 -0.080025144 0.066962436 -1.41169 -0.118121766 0.09662606 -1.1542361 0.76337075 -0.6599608 0.6727526 1.0505011 0.83173573 0.9158389 0.7307302 -0.35646993 1.188184 0.8281642 -0.50887644 -0.7690245 0.804153 0.05164768 -0.5925679 -0.8350126 0.13800244 -0.4679375 -0.3776351 -0.35034156 -1.0297524 0.86400056 -0.19416073 0.9017817 0.9899492 -0.83642817 0.56161934 0.8152615 -0.0077613415 -0.8355363 -2.0734649 0.6258869 0.40950337 -1.4205766 0.3762699 -0.8642771 0.17178993 -0.61013514 0.63847536 -1.2167835 -0.5884038 0.7443556 1.1258729 -0.19111492 0.20321736 -0.3964314 -2.1599119 0.99277735 0.16934894 0.10380704 -0.7629129 -0.39463583
对 0.23263499 -0.99770075 0.34734443 -0.10596944 -0.39639533 0.05321916 -0.31934795 -0.29633608 -0.79606736 -0.22995643 -0.13804968 -1.2267008 0.6010961 -0.03796019 0.09599135 0.9431714 0.91956043 1.0801295 0.9088626 0.310566 1.322468 0.19280075 -0.83438826 -0.49526083 0.09547188 0.25039187 -0.14407071 -0.21988599 -0.093961075 -0.3233099 -0.7599398 -0.037139364 -0.34156176 0.37980384 -0.8344568 0.35053247 0.7018722 -0.58399326 0.14618616 0.9211645 0.4312418 -0.7242352 -1.6905434 0.34548214 0.333511 -1.2946343 0.0002844774 -0.36296806 0.72681993 -0.5690246 0.12531829 -1.1288939 -0.7703594 0.627368 0.67352945 -0.6170165 0.7275017 -0.4835137 -1.4694784 0.57032716 0.24913731 0.62532485 -0.23871535 0.0857862
影响 0.60781604 -0.3307578 0.38418564 0.4091041 -0.009619922 0.13934793 0.7599296 -0.17572288 -0.7250281 0.14362255 0.36971498 -0.7652332 0.7398756 -0.65877104 0.4305333 0.943274 0.9279968 0.6519583 0.7468711 -0.067729674 1.3101131 0.19722079 -0.28622985 -1.2713774 0.16978332 -0.43592107 -0.39458168 -0.4613246 -0.30236727 -0.27743766 -0.36078757 -0.036523826 -0.4554442 0.60477656 -0.39439112 0.5664998 0.49657005 -0.7308696 0.074676804 0.24266851 -0.17044313 -0.5946091 -1.4009533 0.085181184 0.83994347 -0.9261148 0.29514125 -0.15356416 -0.14686494 -0.4213639 0.12667598 -0.62412703 -0.0051400866 0.38642895 0.7400043 0.049946114 0.14805955 0.36901927 -1.7385997 0.32518008 -0.14888118 0.46022093 -0.70761967 -0.040002435
健身 0.11242269 0.10046532 0.83290726 -0.06078194 0.31078592 1.0881324 -0.49010912 0.97728014 -0.68130016 0.5175857 0.82412815 -1.2442979 0.13260141 -0.09053209 0.40368202 0.5752161 -0.51809895 0.24907102 -0.5587611 0.77848387 -0.017094161 -0.26363134 0.8836664 -0.11737283 -0.8148012 -0.5424863 -0.22379906 -0.527393 0.07477041 0.12981963 0.0316824 -0.25403354 -0.4030344 0.20229752 -0.593941 0.19013572 0.7400297 -0.05683597 0.19970159 0.48791197 0.3376693 0.66206133 0.025951348 -1.1915933 0.39315858 0.19141248 0.02559847 -0.72470504 -0.09975037 -0.1803608 -0.21105976 -0.3761968 0.65434957 -0.123193234 -0.11688011 0.9629421 0.39552164 -0.3702799 0.64751315 -0.25265908 0.20095435 0.45091364 0.07323255 0.5248074
热乎 -0.40105528 -0.024050849 -0.6799202 0.73133147 0.12338461 0.6753452 -0.4496069 0.8021377 -0.7863213 0.25656813 0.17664176 -0.7998177 0.30731645 0.19840758 0.3309993 0.70225686 0.5315409 0.45899054 -0.27076256 0.2715678 0.16444424 -0.031676207 0.74697787 -0.1626419 -0.078043714 -0.36963418 -0.7100601 -0.4095083 -0.5033193 0.27652898 0.0051900465 -0.36366874 -0.70856273 -0.2988753 0.09426514 1.0054042 0.005402576 0.4078686 0.29050317 0.17439248 0.90948766 -0.09063917 0.8938137 -0.10216894 -0.36800668 0.36215788 -0.88589597 -0.2415557 -0.18863092 0.20888254 0.17489709 0.19906972 0.94644344 0.33105937 0.04898623 0.27258384 1.3377521 -0.06983754 -0.46214315 -0.18813728 -0.08889847 -0.266654 -0.102945276 -0.18199073
宵夜 -0.58026105 -0.36069846 0.032312945 0.5130619 0.3837699 0.6045295 -0.7428203 0.6889284 -0.14618348 0.507171 0.6342313 -0.6416698 0.7028056 0.2557643 0.42670816 0.66251326 0.13104267 0.78135306 0.2081203 0.28031403 -0.06872505 -0.03702715 0.4210931 -0.45323592 0.42328334 -0.5258723 -0.0792758 -0.29689768 0.04602305 0.102818176 -0.72228247 -0.55968803 -1.4733552 0.44759187 -0.0915287 0.20291987 0.094158985 1.1385636 0.43280068 0.0015356897 0.2191834 0.2701873 0.5201883 0.10304392 0.044554953 0.15320148 -0.3704397 -0.15709127 -0.11069156 0.5153714 0.8055664 -0.2686608 0.11027184 -0.25903544 0.08364432 0.27908424 0.7765138 -0.53393 -0.15416113 -0.48993227 0.57657284 0.1696004 0.020406537 0.16058637
困 0.42994276 -0.020062199 0.11742197 -0.059597794 -0.4685278 -0.08686262 -0.5505339 -0.033110544 -0.75744486 -0.26981038 -0.0055884104 -0.2904291 -0.049139183 -0.53402746 0.55649453 0.5120531 0.29626033 0.029257968 0.07975456 1.0200175 -0.04058297 0.4839614 0.48819032 -0.51168203 0.04540779 0.21849065 -0.16251618 0.24132071 0.015431929 -0.28674808 0.17125064 -0.72479296 -1.0824748 -0.65384585 -0.34274745 -0.9178404 -0.3523186 -0.76806337 0.3371081 0.011517573 -0.5719969 -1.0179566 0.70515466 -0.49357742 -0.30585745 0.02934944 0.3957507 0.41508636 -0.31312725 0.5387413 -0.009267518 0.10398839 1.0698152 0.20900097 0.32068294 -0.20914361 0.84095883 -1.1872777 0.669423 0.41519374 -0.062008906 -0.8787612 0.47680983 -0.60575354
聚会 -0.3406784 0.37840256 -0.20247427 -0.38636604 -0.22917368 -0.2637304 0.22629768 0.37663865 0.12377995 -0.2613344 0.04566883 -0.8185507 0.19046491 0.18326023 -0.25925952 0.47691274 -0.21047287 -0.19283369 -0.37961233 1.0040252 0.9984348 0.5991142 0.07417857 0.2999229 -0.22652319 -0.07919519 -0.5209642 -0.12587707 -0.10658194 0.15708621 0.32809603 0.39877003 -0.100924194 0.23466137 0.06620514 0.6704719 0.095468104 0.9360284 0.026291862 -0.55830556 -0.6670903 0.86352134 0.94488716 0.33245656 -0.18047844 -0.5270348 0.18055156 -0.43321154 0.27433863 0.18780085 1.0128515 -0.3215921 1.1184547 0.4009106 0.11886117 -0.52235883 0.20361094 -0.41864634 0.29593936 0.62812465 0.8490236 -0.5049169 -0.80140615 0.5743453
热闹 0.33659595 -0.32174438 -0.5577143 -0.50866455 0.04448624 0.7257702 -0.111435555 -0.012892503 -0.24047297 0.5341359 0.13772245 -0.11750099 0.10372202 -0.6060138 0.71946037 0.64692146 -0.26493216 0.6383449 -0.5005227 1.4076858 0.15157463 0.052284654 -0.124239214 -0.12669116 -0.6136143 -0.07114519 -0.962027 -0.11701934 0.42190453 -0.2328337 -0.47371212 -0.04918748 0.34481278 0.47268334 -0.65364647 0.29298508 -0.054163598 0.56637025 0.72746485 -0.19412518 -0.43544245 0.30950326 0.37230462 -0.39590427 0.48396543 0.5483417 0.24641833 -0.24018541 -0.6125377 -0.3638929 -0.34858572 -0.58980006 0.2985145 0.25488198 1.1166205 -0.33990666 -0.0978156 -0.0039465064 0.3260681 0.25386274 0.44500524 -0.04590928 -0.18499146 -0.029210487
营养 -0.07574999 0.5296642 0.73026973 0.82622635 0.027064748 0.355471 -0.13656935 0.36732888 -0.08357055 -0.5389475 0.65517735 -0.97813386 0.62709945 -0.2123534 -0.5161529 0.81934 -0.012672156 0.09439717 -0.4000357 -0.107800625 -0.021877147 -0.31978887 1.055281 0.21682346 0.9373255 -0.5077854 -0.8421871 0.042337555 -0.22245203 0.16814396 -0.012199021 -0.5582594 -0.743327 -0.018578222 -0.12679742 -0.1282616 0.22154988 0.33581528 0.0029509608 0.03545173 -0.34037724 1.0862188 0.097632565 0.13264595 0.52774006 -0.4130175 0.56824684 -0.6577176 -0.085557766 0.26935935 0.053534444 0.21921387 1.0156112 0.23380028 0.47842053 0.25254086 0.57427055 -1.0446804 0.36624715 -0.67781115 0.07282607 -0.74025697 0.44304729 0.059434284
加班 0.03800182 -0.3609432 0.19185458 0.2048606 0.13797863 -0.3842343 -0.80084175 0.2226287 -0.6576281 -0.02701918 -0.19249532 -0.08939107 -0.1522857 0.6896841 0.83473533 0.45022243 0.3135504 0.98692703 0.28443527 0.65409184 -0.23592058 0.14417213 0.21969642 -0.72305995 0.1661099 0.3907328 -0.20115651 0.20509677 0.10654541 -0.48052993 -0.2120404 -0.006567257 -0.3741668 -0.4105801 -0.21986434 -0.9684207 -0.5947049 -0.635698 -0.34974405 -0.019196369 -0.7945713 -0.41269794 0.69325805 0.29180974 -0.5240541 -0.1048995 -0.025020938 0.02816854 -0.43373272 0.79679894 0.654767 -0.6556474 0.6758787 -0.26733607 0.25652042 0.17463051 0.84570384 -0.5333874 0.8927714 -0.03392309 0.44085827 0.15351062 -0.73616636 -0.7944715
热 -0.74136275 0.6665004 -0.16191202 0.45808965 0.014381424 -0.25220338 -0.34744623 -0.50552213 -0.6068979 -0.7053797 1.1554669 -0.51498514 -0.1940702 0.25562912 0.7926643 0.23676668 -0.4013171 0.25466433 0.2931491 0.70283467 0.18011168 0.3517404 0.11156376 -0.372718 0.100579984 -0.23033862 0.13712777 -0.49637592 -0.12033969 0.1465017 -0.40500492 0.10888897 0.37604704 0.14333348 -0.1777484 -0.07940777 -0.8894921 0.7155061 0.39324242 0.5458144 -0.20294034 -0.45557612 0.29918543 -0.19918238 -0.8063163 -0.27207384 -0.292228 -0.3762316 -0.034491654 0.34799406 0.6798979 0.26744202 0.6253662 0.32022828 0.4000028 -0.8691733 0.24719448 -0.44677973 -0.20561296 1.142361 -0.06761756 0.47472373 -0.17687513 -0.90848476
辣 -0.14869522 0.2750978 -0.88186514 0.1940548 0.47766376 0.2913781 -0.40419605 -0.34999132 -0.29989868 0.61682016 0.5275498 -0.47192693 0.18776296 -0.15458256 0.71894675 0.8485131 0.30902547 0.69047415 0.091692366 0.98173136 -0.54083836 0.8223436 0.29422182 -0.24130689 -0.03732545 -0.20013979 -0.6529759 -0.00751482 0.33254644 -0.20337817 -0.30621356 -0.17480767 1.0399859 1.135429 -1.076536 0.4189913 0.2542926 0.46522543 0.79111326 0.46768862 0.104652606 0.32099068 -0.031793952 0.44043696 0.02401342 0.28033352 -0.07062876 -0.2100648 -0.8978637 0.32841277 0.46161208 -0.6627378 -0.19227377 0.41203895 0.53050977 0.23216566 -0.4669735 -0.5371492 0.60597354 -0.1581252 -0.0956468 0.27896473 -0.5416609 0.2162008
健康 -0.13484207 0.3739695 0.56136507 0.50105697 0.24578251 0.060340792 -0.84500027 0.19831628 -0.8221635 -0.46798727 0.22298944 -0.07119856 0.72996086 -0.6035802 0.029817615 0.69540644 -0.3467256 0.27886552 -0.12880504 0.40520838 -0.29020482 0.021406924 0.8740662 0.097840786 0.36232913 -0.65938133 -0.28443542 -0.089172915 0.27273586 -0.19162564 0.633435 0.6259586 -0.07031675 0.3558088 -0.7017669 -0.1603263 1.0317178 0.20800248 0.13683921 0.22810113 0.6071931 0.25912392 0.024534168 -0.0999819 0.114722855 -0.14609563 0.34196988 -0.77720433 0.33967686 -0.023560675 1.0498894 -0.26496992 -0.032242626 -0.15117116 -0.08156051 1.1241007 -0.020345688 -0.7859838 0.99779916 -0.16548501 0.377269 -0.053504724 -0.49512365 0.37380555
聚餐 0.12903821 0.065117665 -0.7381673 0.78205585 0.1407552 0.17135754 0.2528275 -0.5935841 -0.54725957 0.9055773 0.5337066 -0.32067865 0.5064544 0.36953607 0.72316766 1.0384077 -0.078772135 0.41319436 -0.17197074 1.406349 -0.090205595 0.25036177 0.121813186 -0.21394078 -0.117937066 -0.09410163 -0.27124673 0.03895879 0.44437054 0.08099633 -0.23129167 0.3245301 0.97115326 0.8923748 -0.9533241 -0.019093925 0.24480179 0.44849825 0.51180923 0.69653404 0.15040709 0.47504222 0.33916977 0.10880422 -0.060509186 0.3955578 0.23041575 -0.1499681 -0.77654505 -0.14295384 0.39413312 -0.7624192 0.30826977 0.6577662 1.014226 -0.28304365 -0.57772166 -0.7782968 0.49253872 0.121759884 -0.09728901 0.46844667 -0.7958642 -0.08674985
麻辣 0.6923844 -0.3584704 -1.4785694 0.0147912 0.3335199 0.1287475 -0.2684816 -0.46424893 -0.49881366 -0.122560166 0.02945659 -0.0318109 0.06753671 -0.5550197 0.86356044 1.0790801 0.09178463 0.16802458 -0.35019407 1.1278315 0.6860081 -0.3429565 0.34425047 0.26221278 -0.45426175 0.0748792 -1.2597166 -0.21899438 0.30294818 -0.07902398 -0.056677643 0.05645139 0.77721494 0.09073904 -1.1422702 0.2962199 -0.20830317 -0.19123243 1.0283904 0.036135696 -0.3835633 0.079747885 0.27999583 0.20439388 0.055632077 0.2773927 -0.3008223 0.36942536 -0.4777409 -0.06957268 -1.0101072 -0.63480556 0.96937674 0.5478156 1.08104 0.12688327 -0.28685653 -0.4866497 0.25708625 0.20258524 0.06427423 -0.75016433 -0.18839918 -0.03826632
高温 -0.3526501 0.44458356 -0.31117564 0.36178467 0.24172917 -0.044990547 0.0766322 0.21580243 -0.6127961 -1.2714597 0.7461929 -0.21822993 -0.1585818 -0.24156564 0.95903885 0.50069106 -0.7202925 0.25552937 0.021838259 0.028729212 0.07628757 -0.25216046 0.74142784 -0.45179695 -0.70622253 -0.13597257 -0.5470993 -1.0453 0.53980416 -0.63145643 -0.70217705 0.7028497 0.45657906 -0.8907076 -0.6061574 -0.3588633 -0.04466345 -0.24663143 -0.43727317 0.65203404 0.036698166 -0.44706365 0.67542964 -0.20632958 -0.45156062 -0.27707887 -0.56406033 -0.63916856 -0.19907111 -0.57179636 0.13068154 -0.008004148 0.74218714 0.18716884 0.4338756 0.15908568 0.35660055 -0.39172775 0.057154484 0.25563017 0.15831019 0.8102849 -0.10715369 -0.7501888
啤酒 0.24303521 0.7780892 -0.16529444 -0.38736057 0.30210853 -0.6192189 -0.04074121 0.14089482 -0.120939225 -0.54060924 0.014355781 -0.8450233 -0.16279188 0.5745252 -0.22666976 0.14527129 -0.013592055 0.11934879 -0.19324762 0.8018173 0.6296793 0.95656484 0.30291784 0.6235141 0.049391925 -0.4003014 -0.6110466 0.11571602 -0.28188407 0.14032045 0.5966789 0.13711414 0.34205678 0.066190585 0.10087545 0.25192007 -0.04463662 0.5498509 0.048944112 -0.23854525 -0.48747948 0.59828913 0.3239395 0.64648753 -0.413829 -0.7594009 0.084052846 -0.07997452 0.11513457 0.042274203 0.33463186 -0.26542625 1.5544428 0.6570893 0.47947195 0.22019215 -0.30196014 -0.66845673 0.45293042 0.6171512 0.53082293 -0.51364833 -0.78189725 0.5364272
寒冷 0.15933691 -0.2742165 -0.85370797 1.2706947 0.16440769 0.22721466 -0.021198025 -0.26385203 -0.46972233 -0.0230338 0.2620447 -0.12603103 0.24338704 -0.07293565 0.44053802 0.6119423 0.4812464 0.34167174 -0.2550271 1.1285869 -0.32199097 0.4051373 -0.1968907 0.008308024 0.20914865 0.23300211 -0.87613016 0.44644216 0.56266946 -0.7895271 -0.0849844 0.16233979 0.8636903 0.591656 -0.73731804 -0.08357976 0.038579233 0.39404818 0.38067693 0.4266214 -0.09550493 0.24537303 0.21670102 0.63494605 0.18274395 0.13285312 0.4364724 -0.19494961 -0.55476624 -0.033689488 -0.39644 -0.68812996 0.4106655 0.2700625 1.263849 -0.03275257 -0.32190922 -0.74094224 0.26226595 0.17052305 0.45464048 0.19859 -0.12847215 -0.13036758
冷饮 -0.44326845 -0.27590352 0.050862055 0.16482711 0.20288579 0.53453445 0.20362821 -0.0974105 -0.5965653 -0.98824733 0.5619606 -0.17400843 -0.06086395 -0.6358005 0.9410309 0.22433753 -0.27658573 0.36679286 -0.33178878 0.13063106 0.48530376 0.23995847 0.14406228 -0.039379083 0.1601296 -0.6185719 -0.9550818 -0.92596704 -0.058045417 -0.87590206 -0.70033866 0.4411576 0.88266754 -0.2654687 -0.21699172 0.11057208 -0.60372794 0.0891599 0.66816944 0.7463054 -0.041057065 -0.29499054 0.48850328 0.1881557 -0.5451453 0.11313187 0.12226975 0.21974944 0.3112771 -0.11472861 -0.5978591 0.07571629 0.7397647 0.4349047 0.62086886 -0.61883414 0.3406724 -0.50380194 -0.15198348 0.30773947 0.043066856 -0.1117467 -0.050715096 -0.636936
低卡 -0.21454729 0.027025787 0.20681989 0.10379631 0.35416684 0.7592213 -0.46281 0.7724136 -0.49439704 -0.0611129 0.6472144 -0.44829598 0.4902056 0.12412267 0.235516 0.5572815 0.09838471 0.5353364 -0.5323427 1.2683 -0.07651156 0.1596037 0.67285514 -0.23403068 0.41911343 -0.5540679 -0.1600078 -0.14653026 0.182664 -0.17941763 0.47967702 -0.43429458 -0.7443419 -0.25446963 -0.39891645 -0.49841276 0.008486031 -0.053702287 0.042254414 0.33004275 -0.025737585 0.44223386 0.10573778 -0.17083184 0.14250265 -0.3496967 0.942849 -0.871258 0.07423129 0.2652537 -0.45091504 0.13516818 0.92400444 0.036709182 0.20843953 0.6430527 0.32370326 -1.2355744 0.40183902 -0.29385453 0.7385374 -0.17692123 0.16549331 0.20232902
晴天 -0.22301574 -0.34821513 -0.7059052 0.8103412 0.081386365 -0.082639575 -0.306809 0.6219746 -0.6973447 0.30708683 0.105426356 -0.4445173 0.7860679 0.06794805 0.33050355 0.5967781 -0.016043685 0.47182488 0.04032646 1.0813012 0.3424709 0.6075509 0.13539594 -0.109889716 0.117915206 -0.39102712 0.0809278 -0.14268917 -0.22905837 0.18844855 -0.37434494 -0.24414021 -0.8223277 -0.4808765 -0.13167825 0.5721922 -0.28166124 0.6666054 0.5628455 -0.36996442 -0.20429051 -0.13528985 1.1453956 0.02207586 0.19563949 0.2391195 -0.21544716 0.25599506 0.17364335 0.9627868 0.19037098 0.08650525 0.49889433 0.08874688 0.38532847 -0.028162599 0.6574736 -0.6597477 0.166327 -0.42383394 0.38487518 0.041844103 -0.36528093 0.11660832
暖和 -0.66353947 -0.5762839 -0.9797671 1.2081203 0.08202017 0.297753 -0.18278192 0.32889906 -0.7415457 -0.26165125 0.10478082 -0.28521094 0.9911433 0.4039614 0.39423546 0.7072204 0.4501568 0.49064326 -0.07275291 1.3218681 0.2408456 0.24123949 0.25625455 -0.2724314 -0.018660188 -0.28379342 -0.14261976 -0.15414305 -0.17625497 -0.06306087 0.2750309 -0.05540513 -0.21736655 -0.39820006 -0.06417378 0.35840008 0.094829656 0.19228373 0.06037447 0.0076437294 1.0311805 -0.42358232 1.1557087 -0.046337716 -0.22544329 0.07487041 0.10109789 -0.054480914 0.2639129 0.538745 0.11310879 -0.26149374 0.6885438 0.22116335 -0.09616765 0.3454913 0.77550167 -0.42558604 0.00275781 -0.06752141 0.45484865 0.25765458 -0.4916137 -0.05879498
面食 -0.16319577 -0.13615935 -0.78890556 0.51016456 -0.030105872 0.11359219 -0.41360325 0.51307344 -1.1201421 -0.074832626 0.2935019 -0.51588464 0.8904303 0.22787817 0.43758246 0.4895188 0.039295655 0.22404015 -0.093439676 1.4326411 0.3822458 0.42594984 0.4563437 -0.06830673 0.081420496 -0.32203516 0.23244913 -0.4847864 -0.09630481 0.106708795 -0.22138679 -0.2401995 -0.9574236 -0.48882633 -0.41717178 0.23821354 -0.25760353 0.29902333 0.34409156 -0.059046246 0.12000818 -0.5488054 1.1227542 0.12411667 -0.2716665 0.23906063 -0.2844298 0.2573562 0.15365429 0.79421777 -0.13657136 0.19326149 1.0561308 0.027383339 0.15965721 0.46494693 0.5738765 -0.89371586 0.13695177 -0.061419655 0.2903046 -0.0857464 -0.05492714 -0.023931054
油腻 -0.79172593 0.3087647 1.2714052 -0.46967426 0.5261995 0.36990434 -0.6251266 0.048339237 -0.72232574 -0.3213775 -0.1054873 -0.9037747 -0.539328 -0.7560206 0.36445126 0.4484255 -0.29540128 1.3638444 0.7830955 -0.5774279 -0.56455517 1.1210319 0.18878593 -0.7850639 0.2967742 -0.45038098 -1.0605931 -0.5653878 -0.07444097 -0.3665036 0.38133228 -0.6496727 -0.77938235 0.3864913 -0.5172753 -0.06662098 0.73666793 0.40860084 0.3628947 0.527561 0.8658664 0.5146642 -0.2555774 -0.6396008 0.31734866 -0.06769835 -0.1471098 -1.3426706 -0.015399712 0.31473312 0.2968073 0.28087175 -0.036537904 0.2014441 -0.27965897 0.8359289 0.27378172 -0.39353213 0.56385493 0.18194702 -0.25306278 0.039692022 0.11963425 0.7251531
户外 0.034590002 -0.032409202 -0.16566664 -0.27756205 -0.050186846 0.38271683 0.16326557 0.15426745 -0.95952624 -0.6414944 0.3457955 -0.81716925 -0.6245 0.549569 -0.008113553 0.44486406 0.10139055 0.701005 -0.5670846 0.81290126 0.27716774 0.53198373 0.31309664 0.37456587 -1.0796864 0.09938698 -0.7414669 -0.51395565 0.2756 0.48346478 0.6241813 0.52033144 -0.22887823 -0.5608489 0.35969406 -0.14273502 -0.12190037 0.6427585 -0.2568706 -0.099176586 0.3761985 0.572791 0.68137115 -0.6053142 0.4711305 -0.74772286 0.48597613 -0.57379144 0.08390437 0.27044722 0.64596236 -0.6081823 0.9976332 -0.33899355 -0.17211372 0.044192307 0.15177132 -0.10392579 0.37760296 0.6307127 0.30897048 0.19960186 -0.20164591 0.8933209
提神 -0.4637397 -0.45500797 0.10802887 0.6917617 -0.48277226 -0.12531424 -1.495537 0.863537 -0.052673876 -0.03391509 0.016616661 -0.90165836 -0.26550663 -0.64354384 0.24858323 0.28659907 0.99520177 -0.07020883 0.30394343 -0.36174205 0.7231532 0.58844244 0.26835945 -0.26062328 0.96018845 0.08683724 -1.2006578 0.14564748 -0.52951723 0.24666287 0.17231432 -0.5164818 -0.053652517 0.22884572 0.11888168 0.50721204 -0.69580305 -0.038583476 0.7101055 0.03574986 -1.0136061 -0.0665585 0.20715375 -0.5024962 0.14928038 0.20943674 -1.484136 -0.008454539 -0.7908929 -0.17016712 0.88111603 0.32142997 0.677044 0.047184028 0.82526433 0.23702665 0.8325683 -0.43913254 0.60650474 -0.6015128 -0.08390435 -0.15482241 -0.40215102 -0.28322333
蔬菜 0.24117056 0.48798347 0.18825783 0.3052538 0.41188607 0.080462165 -0.36581886 0.50416505 -0.46131203 -0.040629163 0.67531276 -1.3406414 -0.25860366 0.3112237 -0.21241856 0.49243957 0.2839693 0.24548969 -0.2092797 0.89004165 0.20123532 0.43874034 1.2049598 0.56214345 0.75389475 -0.4690003 -0.73797274 -0.20541464 -0.08303954 0.38462332 0.30084708 -0.73464304 -0.53788316 -0.223133 -0.6699049 -0.95230085 0.073523276 -0.10996348 -0.075979844 0.113917165 -0.2638215 0.557795 0.26497638 -0.28352854 -0.12516744 -0.38275835 0.60057557 -0.5366673 -0.08324636 -0.012840896 -0.64490455 -0.14550202 0.7966581 -0.3267883 0.52304524 0.9822025 -0.13026631 -1.526332 0.9706357 -0.65275234 0.18562192 -0.096942686 0.23422503 0.26589984
重 -0.73295605 -0.33687693 0.5220114 0.26920632 0.16100223 0.44403878 -0.7785123 -0.4130022 -0.35617945 -1.2213753 0.024809476 -0.8421706 -0.11861058 -0.4608893 -0.049540173 -0.03341787 -0.7281446 0.7923332 1.4278873 0.11834094 -0.05017548 0.7504651 -0.271756 -0.89570427 -0.035776958 -0.14028421 -0.96960545 -0.2983249 -0.25108793 -0.48801965 -0.35208604 -0.89350694 -0.54500085 0.7775093 0.048754387 -0.7267887 0.6554306 0.37194514 0.38699907 -0.1569511 0.6348322 -0.1496023 -0.9736416 -0.1692002 0.77407664 0.17466454 -0.2537135 -1.1220092 -0.27154118 0.2636647 0.5772023 0.16690564 -0.13290906 0.24527214 0.019419052 0.66630405 -0.11211049 -0.19003682 -0.56031305 0.4007255 -0.058961477 -0.23372005 0.6094452 0.36835557
甜点 -0.5716492 0.3724235 -0.4068647 0.03957935 -0.1695755 0.10881552 0.11172056 -0.19678675 -0.54281956 -0.9905022 0.68692404 -0.20887102 -0.07434563 -0.7198912 0.6725051 0.074930795 -0.30905363 -0.22344019 -0.24002253 0.03564866 0.08825336 0.110672295 0.59724396 -0.11920877 -0.04275545 -0.11967963 -0.86061203 -0.8659844 0.30737638 -0.51337576 -0.7239106 0.6643938 0.5994623 -0.18801863 -0.7971645 0.00084978866 -0.14110994 -0.19321027 0.6155954 0.17988019 -0.7320831 -0.10513159 0.70067096 0.024647918 -0.15889429 -0.46080828 -0.5014285 -0.13122648 -0.15362966 -0.025713054 0.12185049 0.1275564 0.6462618 0.19825476 0.5695225 -0.0055652247 -0.23729408 -0.55275065 -0.38711575 0.14332342 -0.16004826 0.07843489 -0.02466813 -0.91809577
气 0.2751928 -0.8700152 -0.2257553 -0.050511856 -0.6240813 -0.022216452 -0.14271164 0.18700941 -1.1148117 -0.73481256 0.27249342 -0.9450482 -0.3933868 0.876216 0.11585012 0.43185985 1.2231663 0.17863327 -0.4676482 1.634713 0.420057 0.40180165 -0.21631491 0.13543075 0.076432936 -0.29936334 -0.9913878 -0.4320759 -0.23572136 -0.8108981 0.56299067 0.5870618 -0.02965138 0.5287045 0.62578696 0.32933334 0.1304592 0.42842838 -0.382283 -0.4606158 -0.4368572 0.69942576 -0.058132023 0.344771 0.025742471 -0.3424214 0.041785456 0.08707643 0.20560816 0.9203859 0.6489821 -0.80615216 0.91200995 -0.4955373 0.12080319 -0.06760159 0.11655474 -0.38181284 0.39722568 0.21767995 1.2644566 -0.448188 0.27618825 0.48352247
烟火 -0.20451623 -0.07238334 -0.40955693 0.25695267 -0.26263413 0.45246807 -0.22303563 0.1868124 -1.0391818 0.04962516 1.0765572 -0.7220891 -0.7113952 0.5375214 -0.22879367 -0.033190433 0.8666739 -0.22446977 0.40642834 0.96233195 0.63862467 0.47358167 0.27370825 -0.18884301 0.21671492 0.31300288 -0.81972206 -0.51133186 -0.076984644 -0.9412762 -0.0648496 1.0489694 0.50734574 0.2621353 0.37111953 0.20561227 0.47590557 0.38277036 -0.13764401 -0.09335921 -0.3917244 0.8924157 0.3123076 0.5120045 -0.07025551 -0.55398077 0.7246339 0.42496985 0.16054757 0.71816796 0.6992727 -0.5682529 0.8285776 -0.61060905 -0.08696418 0.12507968 0.29074657 -0.01977795 0.32302877 0.48579863 1.1060786 0.05313515 -0.63692397 0.36012578
人 0.5004984 -0.6053756 -0.7669613 -1.0271327 -0.36179903 1.1203264 -0.7316929 -0.7582622 -1.0590335 0.028688058 -0.46368593 -0.8267132 -0.68488216 -0.32807618 0.2843465 0.6967644 0.15254831 0.5332057 0.76920295 0.32648945 0.54412067 0.48634306 -0.36003065 -1.2635146 -0.34234905 -0.35333312 -0.64816004 -0.644449 0.097274385 -0.5546839 0.036540758 0.1471979 0.078012265 0.41711712 -1.0161272 0.27960607 0.3068677 0.47172645 0.5918305 0.105492994 -0.22029158 -0.8481911 -0.5478506 0.3247794 -0.12506635 -0.19290362 -0.52728677 -0.08082801 -0.69817984 -0.20692773 1.0408204 -1.0526512 0.97464776 0.07015968 0.45627937 -0.65532845 0.12963477 0.043818776 -0.34969366 0.4088171 0.61840063 0.0951064 -0.72129583 0.19141646
一个 0.20701052 -0.6084429 -0.83654535 -0.2680126 -0.6762004 1.1345344 -0.6866024 -0.9610006 -0.8379183 0.16678913 -0.18912481 -0.568601 -0.6931938 -0.53168714 0.46936774 0.5837026 0.31919542 0.78271824 0.60756594 0.15072568 0.5593074 0.78909016 0.1376244 -1.2393775 -0.26244965 -0.63650924 -0.48201096 -0.9581299 0.16880141 -0.18494418 -0.21074337 0.11504108 0.1474999 0.7413995 -0.8921637 0.24403761 0.5612395 0.6992629 0.2985093 0.08598173 -0.12940818 -0.51093245 -0.6927289 0.34209806 -0.38360733 -0.11231178 -0.4666983 -0.13926914 -0.41863662 0.06793432 1.2409741 -0.7327929 0.48804125 0.24309242 0.6218108 -0.4943365 0.6601924 -0.06146765 -0.48244852 0.45076188 1.0569435 0.3055636 -0.6330065 0.40225944
工作 -0.14043324 0.21500184 -0.11320908 0.24420275 -0.54595 -0.18451741 -0.8318754 -0.13820711 -0.9447978 0.26821795 0.28738362 -0.6251052 -0.7451384 -0.22400966 0.3967747 0.43796587 0.4459724 0.47290662 0.19657326 0.62159264 -0.3390775 0.37888885 0.8307945 -0.46600378 0.028755127 0.2576877 -0.61515385 0.20629263 -0.35901386 0.48438418 -0.18374738 -0.12430568 -0.6504561 -0.11577162 -0.12098 -0.27655283 -0.39930907 -0.45495954 0.36063313 -0.17996718 -1.1058776 -0.35965803 0.50286025 -0.22938085 -0.08824715 -0.062027175 -0.5286597 0.40237796 -0.75693226 1.2533395 0.8759568 0.023506656 0.5397895 -0.39126185 0.62325495 -0.034207527 -0.112271346 -0.63391626 0.8011465 0.15945804 -0.5743856 -0.6717311 -0.2031663 -0.57639897
失眠 -0.45909575 -0.2907214 0.71597654 1.2674596 -0.41312551 -0.0058727944 -1.0799693 -0.35347274 -0.77794963 0.08088214 -0.9929209 -0.944836 -0.2818187 0.5222751 0.34990013 0.31771314 -0.13224474 1.1565496 0.78329885 0.105662465 -0.0322098 0.6196985 -0.03391074 -1.3512641 0.5636015 -0.026253063 -0.82148474 0.8509152 -0.23516883 -0.6259381 -0.09836157 -0.8043313 -0.17980035 0.48310897 0.60870117 -0.69111073 0.2936178 -0.018501991 0.2662533 0.16690625 -0.28323245 -0.40695482 0.05099995 -0.30577934 -0.18930061 0.3511782 0.22474577 -0.31391206 -0.39089262 0.49113637 0.82076085 -0.53219724 0.076961555 0.4203511 0.10676227 0.21907958 0.8832626 0.31859708 -0.35978252 0.42790928 -0.29770562 0.4440127 -0.34974882 -0.68495977
冷 -1.0204546 -0.35520536 0.3161086 0.7598158 0.16885605 0.23837118 -0.23676233 -0.1645787 -1.1269056 -0.42097208 0.81766 -0.48384807 0.17331024 0.12346973 0.46140537 0.11264873 -0.4820334 0.89214987 0.11609918 0.4101816 0.40870562 1.0467222 -0.61321145 -1.6749674 -0.47972593 -0.37193224 -0.97433996 -0.10889295 -0.49996746 -0.4777326 -0.12268624 -0.09036647 0.5181851 0.45666403 0.12798518 -0.11842302 0.2362047 -0.21195531 0.4728836 0.3930632 0.370471 -0.31125343 -0.3521175 0.31294185 -0.032567836 -0.2796643 0.21187074 -0.2730622 -0.3796352 -0.25455135 0.76346475 -0.30854157 0.2315326 1.082302 0.24150617 -0.5817521 0.20724076 -0.31428772 -0.6832051 0.9982501 -0.21026824 0.80323094 0.39746118 0.06737975
咖啡吧 0.72884005 0.41527548 0.11266939 -0.61564255 -0.050105106 -0.5438496 -0.2469 0.4734131 -0.89011616 -0.066485755 0.33365017 -0.8193895 -0.5329341 -0.2366674 0.060413368 1.0166554 0.8094653 0.3698456 0.56018436 -0.7936012 1.4545037 0.13326946 0.1901256 -0.32361415 0.8125366 0.8863466 -1.9999301 -0.27422187 -0.26585355 0.59843415 0.19311745 -0.10758362 0.469306 0.045858216 -0.20925206 -0.21091305 -0.37501368 0.12393795 0.3097085 0.27572942 -0.9408989 0.30471754 -0.7541088 0.51630706 -0.43395698 -0.6445654 -0.75536823 -0.08607108 -1.1535037 0.15190776 0.019426323 -0.28280467 0.33036408 0.89449924 1.1664304 -0.26141474 0.7257901 -0.97674733 -0.03553102 -0.851829 -0.09390021 -0.53598624 0.32337067 -0.5103886
感冒 -0.64001155 -0.0715119 0.42620295 0.33145267 0.17515625 0.6235681 -0.0025971502 -0.14720473 -1.3244463 -0.5821407 0.6414974 -1.2502854 -0.46296564 0.032688525 0.18383192 0.13921848 -0.55717474 0.52453125 -0.3224866 -0.5301419 0.15578784 1.1457927 0.33996183 -1.4721059 -0.64587414 -0.03641844 -0.52373827 -0.5841135 -0.2007864 -0.46291372 -0.29533702 -0.43592995 1.0395766 0.36716032 -0.40781093 -0.030589217 0.22028443 -0.29802853 0.25422716 0.6122566 0.8194808 -0.52010226 -0.39146495 0.030674605 -0.74847335 -0.3073668 -0.11075203 -0.6607791 -0.5416967 -0.28641042 1.0650516 -0.28264385 1.0311906 0.977645 -0.4151956 -0.5584896 0.6223559 -0.2492184 -0.3043818 1.1612252 -0.025557367 0.50601906 0.2992653 0.08984254
胃 -0.38187072 -0.45855397 0.49631774 0.8466549 -0.08355314 -0.6925173 -0.4949474 -0.9099622 -0.4212143 -1.0951465 -0.29437628 -0.22968423 -0.87207115 -0.8096069 -0.027646052 0.7586128 -1.4211234 0.66584027 0.3334199 -0.47240186 -0.075969644 0.4164473 1.2659035 -0.2686429 0.4713751 -0.2585718 -1.0379941 -0.86457163 -0.15326528 -0.32775047 -0.3366062 0.64345795 0.45346865 -0.29695004 -0.34327617 -0.2342809 -0.009797208 0.88669544 0.5532086 -0.05445693 0.49006367 -0.15863323 0.67856133 -0.48139066 -0.34560588 0.18736771 -0.33225176 -0.5517065 0.10016856 0.24121594 0.47860542 -0.055826485 -0.1413945 0.20354173 0.27436396 -0.14535815 -0.35902932 0.16655327 0.31593958 0.29316217 -0.5808236 0.57253796 -0.4385746 -0.95945007
暖 -0.19058998 -0.35382795 0.41212776 0.67007136 0.002526257 -0.6787308 -0.52344275 -0.815051 -0.53479725 -0.96257365 -0.33199245 -0.4520721 -0.56027395 -0.9809264 0.13441607 0.6284129 -1.3890356 0.815436 0.41602275 -0.6795072 -0.123297185 0.49910545 1.2956744 -0.16385661 0.2652759 -0.23772536 -0.8329599 -0.60840744 0.16915737 -0.2958238 -0.33213428 0.5301745 0.41376752 -0.3024757 -0.371636 -0.11664785 0.21455093 0.91182 0.45609394 -0.076366454 0.56794244 -0.19978252 0.54215294 -0.66453034 -0.15302564 0.23531047 -0.5311868 -0.4530256 0.2196277 0.25739306 0.5234535 -0.03480289 -0.12714295 0.21103723 0.3862046 0.03998717 -0.20546818 0.18840499 0.29667872 0.1670409 -0.46232495 0.57899517 -0.42610168 -0.7433635
冰 -0.5476935 -0.43614188 -0.3346524 0.12890701 0.19132374 0.5113715 -0.060206324 0.44794214 -0.5530785 -0.038143642 0.26780787 -0.77245474 0.49554658 0.45021957 0.40014154 0.61769694 0.67311645 0.86622614 0.5990909 0.3710567 0.52476186 0.9202937 -0.4515417 -0.76428145 -0.09731551 0.07961625 -0.39425674 -0.026463158 -0.20116968 -0.016602183 0.037002582 -0.37320262 -0.423768 0.41907597 -0.41827592 0.4847467 0.6587556 -0.06489503 0.20519452 0.288016 0.45862883 -0.0049202405 0.19284283 0.5331491 0.085116856 0.24620444 -0.43796808 0.3720126 -0.06226052 -0.07081031 0.54628706 -0.6579831 0.29097223 0.6000081 0.12564124 -0.08800801 1.2499775 -0.2895455 -1.2713603 -0.078496195 0.20344593 0.062133994 -0.22199506 0.28637582
今天天气 0.2656322 -1.1605695 -0.27001923 0.3498206 0.2767181 -0.14784433 -0.38340664 0.3206775 -0.91768754 -0.08522401 0.15424298 -0.15439996 0.17851008 0.059782874 0.03321619 -0.12234259 0.23154742 0.28020692 -0.20858088 -0.035361655 0.62426174 0.09442675 0.5232004 -0.5528974 0.09696608 0.14189132 -0.40412885 -0.5251196 -0.052861493 -0.07625655 -0.35152534 0.39272508 -0.30606717 -0.43360752 -0.07345166 0.06908883 -0.082092345 0.7433607 0.49421495 -0.36463746 0.3568406 -0.13499558 0.14813767 -0.05071816 0.34572965 -0.06819989 -0.6753492 0.14329137 -0.06347424 0.68777525 -0.25066283 0.0017789124 0.29493377 0.266799 -0.24039556 0.5182246 0.20542079 -0.11873929 0.19377896 -0.36448017 0.5266271 0.49686655 -0.015585128 0.6282706
